solver_type L2R_L2LOSS_SVC
nr_class 2
label 1 -1
nr_feature 5104
bias 1
w
-0.02255569506993636 
-0.02156715274544691 
-0.05248837717932774 
-0.002101960495318548 
-0.08570389600210648 
0.02325018617581864 
0.02214971434457039 
-0.01884651990111109 
0.06392913059147987 
0.04960562607754137 
-0.02986877705942293 
0.0116424777476171 
0.02405070567607811 
0.01323571737245753 
0.02949239049775314 
-0.01076580351095543 
0.06518830544958662 
0.03794203389688683 
-0.054664989309615 
-0.04293563966465008 
0.01997151664056197 
-0.02409697670722294 
0.03402597548450997 
0.03996423255149269 
-0.0568818259819704 
-0.03100272894913264 
0.007589554994346667 
-0.02539154059258027 
0.05382404205205544 
-0.01814148849977078 
-0.003159919513322677 
-0.01979051274377692 
-0.05711926516901342 
-0.04892461649538178 
0.02037931905251487 
0.03230705709581908 
-0.01084968007381435 
0.03213909287627115 
0.01152625737375003 
-0.07774192955805637 
-0.1435516558469096 
-0.1436116562906709 
-0.07342487121424812 
-0.003033836508696301 
-0.007481486712367171 
-0.0032153351865954 
0.040189754545263 
0.009631132579641884 
-0.04682686598855798 
0.006601288722702867 
0.01886239097411555 
0.005674079900525215 
-0.02885346683583274 
-0.09813834751752602 
-0.02063672822404895 
-0.01656176418952369 
-0.03838604824410809 
-0.07668171028608041 
0.03570498745807788 
0.07571831937048061 
-0.04551906809256095 
-0.03450478399241874 
0.0004127388511533398 
0.00761873840421474 
-0.02613673649841472 
-0.07448702324321982 
-0.02259326207686156 
0.03194088352182005 
0.03536322908780301 
0.02176832360611451 
-0.076020628066216 
-0.07103348306469098 
-0.1339841968489467 
-0.04988864609728894 
0.02611372813714748 
0.06808795236229001 
0.04958756042317247 
0.02121793252509635 
-0.08277021055577821 
0.01397994866514784 
-0.06196466496813328 
-0.0709821259087058 
-0.07232027189589918 
0.0307255970044687 
0.04154529858439752 
0.007712652210407888 
0.02164522992549162 
0.06208676070147878 
0.1217092912890726 
0.05616474831815892 
0.07857010116807243 
-0.02923770836937652 
-0.05029885411442729 
0.04382071626220504 
-0.01201981225260652 
0.01904108084534399 
0.002474701500477211 
-0.01455828104315773 
-0.004706904303126438 
-0.06437596886855633 
-0.04484950927471517 
-0.005227439626601046 
-0.01537347788437736 
-0.01672313090879852 
-0.06125629289392406 
-0.01722948304787887 
-0.03156800138492095 
-0.0118727922636448 
-0.01834737868625399 
-0.03568912298054566 
-0.004869968696184135 
-0.09569558513444144 
-0.06423146523126629 
-0.03908397947297051 
-0.0514164673661681 
-0.03193571528914924 
0.06298581354693172 
-0.06791562807256085 
-0.02559393942692374 
-0.07181363785877098 
-0.03603751119370213 
-0.01836637264441154 
-0.07391894457796737 
-0.002365298744457742 
0.01309883328178469 
-0.07802535553547456 
-0.04672827234741687 
0.01128698018605411 
-0.08504724219811313 
-0.04519271855075362 
-0.01573627752390419 
-0.03573152818631773 
-0.07399581949613547 
-0.02691549201085815 
-0.0241382763068114 
0.04233671677899779 
-0.02933618823647694 
0.005099843106892212 
-0.03455119183727542 
-0.05391101502032574 
-0.0005027341534876188 
-0.0674372271111132 
0.02617899256710214 
0.058754817776412 
-0.04121437249395322 
-0.01952267041570774 
0.06589809835273101 
-0.03432439940698332 
-0.0401017448124506 
-0.07130873384341607 
-0.01614502189416218 
0.07766326221340995 
-0.05558335313802849 
-0.1022414026882555 
-0.03575596771157264 
-0.03341540466081518 
0.01166956285217922 
-0.003337439205488555 
-0.01167136546118262 
0.05776863510925454 
-0.1023586369330525 
-0.0301091406587582 
0.04358399214336351 
0.01350664911118609 
0.06317681156331444 
0.03530118099393512 
0.0137937337424244 
0.01320821604546006 
-0.1028344876630955 
-0.01673164666869627 
0.01922164798307571 
-0.02587666197320794 
0.0123957183124263 
0.02514110603253874 
0.03479121398393832 
0.01819227499893143 
0.01324828862960437 
0.005395271323453494 
0.03957665126751246 
-0.000819131726033285 
-0.06361101855927304 
-0.08052865638578868 
-0.03843893616836125 
0.001242020980002753 
0.07311913254142009 
0.03094214371724683 
0.04515093255232375 
0.07002152426094893 
-0.02925133092817458 
-0.04319951718737518 
-0.05660321110213018 
-0.06445659571387359 
0.09295072098413817 
0.0360392867692502 
0.002932043485503022 
0.03483511390996684 
0.0005178213709919649 
-0.04681457702575004 
0.01658565052628126 
-0.00457253098716285 
0.1019894228734763 
0.1188273789487737 
0.06421181928240345 
0.05440453113423322 
-0.01791376195937914 
-0.1218049347682388 
-0.04887035403485704 
-0.1238344495285117 
0.07528198922640372 
-0.02264659154456618 
0.08971277143265648 
0.08380563557827904 
0.03173413837913169 
-0.04664433269789961 
-0.06181904450606512 
-0.1106163854630766 
-0.004446100282196492 
-0.06266503568257041 
0.005941319448486154 
0.06213181042072524 
0.07466143869605271 
0.01575518368424749 
-0.002759280051165033 
0.005588512206821457 
0.06174163383554612 
-0.02097716218381334 
-0.05769904151798009 
0.04100694562031307 
0.01285540279557168 
-0.03125234094623531 
0.04064214280769753 
0.0970664462809455 
0.0636350906495574 
-0.02238755224775796 
0.02476476198782778 
0.03532874328578998 
-0.0377422582986598 
-0.06957629811959418 
-0.01352430424213143 
-0.01545968240477483 
0.07635100029887427 
-0.008040042517648165 
-0.05800693874110777 
-0.04529890429377031 
-0.03351612894676401 
-0.001075172573464559 
0.004445199754358983 
-0.01974749418817212 
0.07032095558242377 
-0.0105846222440746 
-0.0005284588289605537 
0.09240775534226887 
0.03648574588678027 
0.007267841855325442 
-0.03734800418444366 
-0.0362298208337077 
0.07660421670037465 
-0.03809182151017821 
0.02280715638069697 
0.113477175567255 
0.01151614943816259 
-0.003462964681115902 
-0.0003749798907751586 
0.007912451013389096 
-0.1748531055471642 
-0.01712542562455377 
-0.1256505074973503 
0.01400215247151568 
-0.01461746114236689 
0.01392407221740008 
-0.01357570561829257 
0.004570670997256921 
-0.009551228707934243 
0.1089768955526342 
-0.07691421056970892 
0.0588788511558552 
0.002546677893521702 
-0.1033235883659395 
-0.193299629438716 
-0.1590498683100871 
0.01343261655654169 
0.104545490937877 
-0.03911116466499482 
0.1847503545000737 
0.1115597158372212 
-0.06304094310371169 
0.01861711338810302 
-0.06640338403190121 
-0.09720782390039023 
-0.005404948020505493 
-0.004950283857240616 
0.01740545881447607 
0.08503552075421847 
-0.1066371408074747 
-0.01302575397799224 
-0.07229411048863275 
-0.09251793188608248 
-0.03561660942645672 
0.01289624811700919 
-0.01768819299289354 
0.02829702612253636 
-0.05624181705961219 
-0.06303822309492614 
-0.08241004672450028 
0.01180166595584709 
0.005378364868565529 
-0.06583318958673087 
-0.01267959885473741 
-0.03865614397840521 
0.02831268710443774 
-0.05901244113754762 
-0.07320237772987599 
0.02255900635965068 
-0.009608810099011536 
0.02735240546694084 
0.08576717961145093 
-0.02320040721918871 
-0.08418714396997143 
-0.03437508634782435 
0.02410646800728394 
-0.01633843579584586 
-0.03738703190841332 
0.05636416612017462 
-0.03691039915111771 
0.05433965383581917 
0.0306668138436186 
0.04414192771276212 
-0.008534619227863853 
0.05451529129198985 
-0.01848803450704499 
-0.07669977622472772 
-0.09989456078803746 
-0.02800597353586625 
0.1108632474005991 
0.09384365743740331 
0.05935114923486386 
0.05113615891817701 
0.08926361049672947 
0.04181057777803811 
0.07609177761980158 
0.1564188407905205 
0.1512546881456094 
0.1207695759156697 
0.02481041637287003 
0.06610699774089433 
0.004740857636392162 
-0.0566098263098645 
0.0340382822506277 
0.02216173431978931 
0.04384335406420666 
0.1342690675240097 
0.02584756850761491 
0.01193560226679477 
0.02056759803414801 
-0.0748027979877484 
0.1114448832842252 
0.080818587204778 
0.07498409702603526 
0.08046292835152372 
0.04184401431630523 
-0.0471853787319508 
0.01057885318921286 
-0.08342186681669625 
0.003155849241535563 
-0.01036912649053941 
-0.04041525922613634 
-0.01530197951603511 
0.02487265548279663 
-0.1526412726211505 
-0.005413688720763206 
0.002559442483182859 
0.05141813370350649 
0.03084989779140886 
0.004995872124008956 
-0.02796583838240002 
-0.03382050929926427 
0.004567401423144402 
0.07080220822165635 
0.03666758435895934 
0.05202822904063164 
0.01573255721503263 
0.02542318659763056 
-0.009927000494011391 
0.03845299999564263 
0.1204821041197245 
0.06118280683641806 
0.06041819470784577 
0.0210215607763123 
0.04389397890012585 
0.03469982695240469 
-0.0208342479887766 
0.09001663802604425 
-0.001570721502038862 
0.05291098435962237 
0.02422678495356665 
-0.004445594169582553 
0.03616568930401192 
-0.0558613081826962 
-0.08737050216663808 
-0.02180869816069687 
-0.07082296729976767 
-0.02552378213732798 
0.05340038511606547 
0.03304858821205637 
0.01045237165583471 
-0.02942864666604954 
0.03538085516318239 
-0.001420186426405625 
0.03071401297180512 
-0.02782527088331793 
0.08379518965084573 
0.009482500730191421 
0.04133586633414718 
-0.005984196348462823 
0.05322979493391146 
-0.02250161071355298 
0.02622610193748147 
-0.03416109244237232 
-0.001567916581496551 
-0.02280837861746671 
0.0213304977198819 
0.01201903335988822 
-0.001760013846833742 
-0.01069809575694378 
-0.1041592118545419 
-0.03743960551607593 
0.03650776367055275 
0.01907710515437345 
0.02744097716346435 
0.03380249085581757 
0.04262678888833533 
0.05454403072127835 
-0.04713385814415699 
0.004782881936223168 
-0.03587658236771386 
0.05871530862380439 
-0.0335976333396527 
0.04223975279608787 
0.07492437733759097 
0.0167307459617315 
-0.08042478160658717 
-0.1526083514871911 
-0.05641056287738445 
0.002990906153156058 
-0.03536408248126528 
-0.02276307114561946 
-0.03182339381879971 
0.06374628789549434 
-0.1167999260029153 
-0.08498201861753187 
0.0004094556828732453 
0.03353849469886253 
-0.01924584366265648 
-0.05392540952044467 
-0.0921967263131127 
-0.05252574668732675 
-0.0164320918996178 
0.01767962829289617 
0.03356234737430391 
0.1280330670420365 
0.06706310239428796 
-0.02099345386489276 
-0.006314388722721267 
-0.02634111471319315 
-0.04165312749715936 
0.02547863638801557 
0.06915603538492389 
0.1234285130795902 
0.03359094467882635 
0.05494345286396006 
0.02696066788072509 
-0.03641952494503409 
0.05005744649893341 
0.08322419438159336 
-0.001714035945645673 
-0.05388813580906557 
-0.06472700077461427 
0.09243303452954921 
-0.008690399468603215 
0.003203502651009131 
0.005444995844683369 
-0.01088061311445232 
-0.05144750983695583 
-0.0541313766095478 
-0.1004430621736626 
0.02138019287494006 
-0.04322523791470473 
-0.04418464874564144 
-0.03454000986850544 
0.008999043999291382 
-0.01235005445449197 
-0.0098998698580055 
0.0005995725901738426 
0.0312935131023632 
-0.01448166904335842 
-0.03322921117052888 
0.0278788120891412 
0.09472117881654725 
0.002979290192397309 
-0.04848046271296296 
0.02628392075565843 
0.05214589394089816 
-0.0559549788238934 
-0.0666322161250212 
0.111132285897257 
0.05001916831568894 
-0.07556560851273499 
-0.07907511487055077 
-0.00176590069907937 
0.05928267098199441 
0.0855800289838765 
0.02965537200509844 
0.02093674092359159 
0.01924932949357381 
0.0241498423197204 
0.05469919771634384 
0.05708892110489325 
0.01431213280968736 
0.01219760191834486 
0.03158042988061214 
0.02498919679550283 
-0.02565688172466454 
-0.04566926057192389 
-0.04455406407153562 
0.02300378135309297 
0.03729532488214418 
0.09099524716896946 
0.05698971104769059 
0.01227573567418656 
0.02969634123965762 
-0.04720805507107819 
0.0532129036721639 
0.06270303045990454 
-0.01244896691026013 
0.03437842180618798 
0.0208354210642859 
-0.06585353950969983 
-0.02235281244199213 
0.03116452747879909 
0.02093228229358919 
0.01489777730303946 
0.04649997668004183 
0.03895622831624777 
-0.003691257044588333 
9.82088739633416e-06 
-0.05745053414674731 
-0.05045528012632606 
0.001663867129315528 
-0.0360730086247132 
0.0806214556327416 
0.01779030748646366 
-0.01845275106176553 
0.03489664161911414 
0.01384756298956809 
0.03600516269848234 
0.02042107226998102 
0.01885534477464398 
0.03689783630137212 
0.04132915480464785 
-0.01202355091002858 
0.01157732667628585 
-0.006438832682846792 
-0.0221092120547159 
-0.05783054233171512 
-0.124242163638985 
-0.1063188437174835 
-0.04894034333801455 
-0.05520433368381848 
-0.04333796486857637 
-0.03648103803391721 
-0.05825994762720184 
-0.03251822202497923 
-0.05614737677806216 
-0.05914953198508191 
-0.08355476244336686 
-0.07778830492744228 
0.0313658255822271 
-0.04636250436508506 
-0.08635270797046767 
-0.05464720304300105 
-0.0646035213905853 
-0.05583536525288688 
-0.0615549786161954 
-0.06792603185540004 
-0.02780808478268617 
0.01240221232144246 
-0.004334931982698013 
0.01852930523383952 
-0.02478046155487261 
-0.007196683478798512 
-0.03693148771856995 
-0.02234603265931383 
0.003833341797698043 
0.06267908235414783 
0.03692671895218103 
-0.03846229753127241 
-0.0006169662893089659 
0.001548314946913542 
0.003324976931899684 
-0.02071269932525936 
-0.02478221039250466 
0.02129552062645534 
0.001470478050203723 
0.02465546678276849 
-0.01378290868102431 
-0.02390230765255289 
-0.01745342372823651 
-0.07560435521617624 
-0.02073954004664548 
-0.0273040732702764 
0.01128948918721577 
0.04044830650795763 
-0.02140179718223654 
-0.01111113931721789 
0.04273940567476062 
0.004688891481039367 
0.04537629352723595 
0.04483376563034903 
0.05911778748201317 
-0.06210278726385684 
0.02242106023439012 
-0.01524918286699475 
0.002785270388417968 
-0.03543027350162739 
-0.0261318020761413 
-0.006810936846155127 
0.0214216476794706 
-0.01691812273033762 
0.01430010654685225 
-0.007222844300861515 
0.02728053148091538 
-0.04003787447948277 
0.0155776023354997 
-0.003233710631808052 
0.03361421611130855 
-0.005891207867277263 
-0.02059941230214772 
-0.02013347859165938 
-0.06132035332756999 
-0.1169427606603243 
0.1065544148636138 
0.0693340552231706 
0.03467363198713467 
0.006904506174705463 
-0.05597805746529285 
-0.09110362812162189 
-0.06502514425698301 
-0.08374927917971349 
0.09652530167396818 
0.06970022107318373 
0.04346897874925894 
0.02620056221943402 
-0.01726790699019392 
-0.05889998774419303 
-0.04998283528667041 
-0.05871755234286857 
0.02455812795561265 
0.02538741800426851 
-0.0008148437205254128 
0.04415309543215308 
0.0339929804705796 
-0.01811066888637315 
-0.06806122940176909 
-0.01375892276756676 
0.0002911106688441925 
-0.02253954740537757 
-0.05677248565088113 
-0.01347534557419473 
-0.02672411367860683 
-0.03087497685579424 
-0.03913142686735864 
0.02913612472553466 
0.04708559916214877 
-0.04186077845888973 
-0.0130817227077514 
-0.02451279996213852 
-0.03245455492336551 
-0.07326697553493224 
-0.03657818846099697 
-0.007228581078744413 
0.03094645400947655 
-0.004999249630294268 
0.01359834889577244 
-0.01964348550461878 
-0.02085970105062442 
-0.009443877243881578 
-0.03994522310814819 
-0.01036036033797938 
-0.0241672659514943 
-0.05905864035640954 
-0.02022551233852858 
0.01552208121545994 
0.07917442717467948 
0.07204123618400184 
0.03455243619952818 
0.02674496472731931 
0.02064358543274897 
-0.04261608472679893 
0.006653663237551984 
0.01009386870213971 
0.03654395690961695 
0.09658085240189321 
0.08522721719629399 
-0.001397381251816605 
0.00444733321572474 
-0.03778344722927438 
0.00254060367667529 
-0.03061421639049739 
-0.07934060170300222 
-0.01562245862791748 
0.01437438711738413 
-0.04640436404325141 
-0.06568191260019611 
-0.02972228912862999 
-0.0441611388020521 
-0.1089637430396636 
-0.09547561723298609 
-0.02502669129561751 
-0.0371854531716212 
-0.1331448947699073 
-0.07358498973243406 
-0.09289034963559312 
-0.03716190230527865 
-0.1041719557925561 
-0.03770986765096775 
-0.04604561760428936 
-0.03767706392869697 
-0.1295526912281464 
0.06320754128820497 
-0.06059333085885399 
-0.031599339302183 
0.03724709798021113 
-0.01532059220992732 
-0.08103049764434483 
0.01100173800953623 
-0.1221359185392388 
0.08148559496631574 
-0.014479374231778 
0.02765584767287807 
-0.005679874660375011 
0.01675813056124933 
-0.03136188881379928 
0.01385925929478088 
-0.05498916290005049 
-0.03019566749397198 
-0.038985620698504 
-0.002717589597971149 
0.03541785357258463 
0.05500609139847025 
-0.04475729967273413 
-0.03109226241582864 
-0.1152386623281784 
-0.004915992622520919 
0.03389289115025337 
-0.04596972229581166 
-0.06704121277332406 
0.0289103886329475 
-0.03834604940058594 
-0.03976924499917289 
0.01933924825266722 
-0.006211573560013279 
-0.004503240203601891 
-0.03633169334584696 
-0.07585899217662631 
-0.0381755873701885 
-0.05012057105337811 
-0.0929086960434431 
-0.03637939660398415 
-0.04683721629441807 
-0.08504088877557056 
-0.01399900054766387 
0.01329061161654919 
-0.04128161053933409 
0.06165698696796947 
0.0003114317119523704 
0.01890985657381871 
-0.08514179189061682 
-0.01662907235974336 
0.007971463976729069 
-0.01359164474598184 
-0.04093230227738445 
0.05359092717685703 
0.04800652029060565 
0.07595693760657098 
0.02969884961117696 
0.02629255228177472 
0.003935205967993962 
-0.01043827870522827 
-0.04677089651736842 
0.04285162927448194 
0.02871174161939736 
0.05345235658143439 
0.04297345759227847 
0.01557532117147366 
-0.03545452254254679 
0.1421224576773808 
0.08703421271334198 
0.1007316050553344 
0.1156035412673043 
0.1634178026324765 
-0.00266020221072755 
0.008933936595434486 
0.00123646719002127 
-0.002706678139351883 
0.02743668401395951 
-0.002862996437863914 
0.01509098216693738 
-0.005362673215428059 
0.01360207544181484 
0.01603624036252264 
0.0462711882398568 
0.06795423746650166 
0.09425895705904795 
-0.05085182818411699 
0.03626221427550027 
-0.03645193094189384 
0.01647755786298257 
0.06165000135485907 
0.07666478755222816 
0.06334454429651377 
0.05932892736398079 
-0.001759797964388746 
0.0411331787075075 
0.02420499668640451 
0.03001376365102104 
-0.02170019027904354 
0.05362840403535574 
0.03490361121760351 
0.0334906762109535 
-0.01085209303570352 
0.01032595365617205 
0.04344903871792011 
0.0696391921005967 
0.08200094552178637 
0.002378642202182501 
0.002389049841654589 
-0.03068804384234168 
-0.06490685003168893 
-0.05385879189166671 
-0.02291951868700278 
0.04482857608817833 
0.06435153383974666 
0.0587480236918343 
0.06064805084281819 
0.01166134044665707 
-0.04642519920262296 
-0.03994167127891723 
-0.009690509229996808 
0.06930476453440601 
-0.01311450968175028 
0.04166287502981841 
0.04366263071406931 
0.01553025703368599 
-0.05045340138312671 
-0.007188901425602706 
-0.0388408588511758 
0.02605512029681348 
0.04595203671149424 
-0.0593694174618075 
-0.0576791208406901 
0.005439709472812023 
-0.005285343184879295 
0.003662615080099181 
0.02372087137281602 
0.0292096468221022 
0.02282118787660732 
-0.004882002829021998 
0.03099187844038684 
0.0475513622637566 
0.02680247605346694 
-0.03031388865944524 
0.01092121046040925 
-0.03367859550287054 
0.02192190106196776 
-0.0145182472909156 
0.007132814129188267 
-0.01544340566969675 
0.04395031893177516 
0.02486566541088995 
0.04920161302630815 
0.1931189171900539 
0.1376223329353155 
0.03018835128983329 
0.05506871423469709 
0.03100085218272718 
-0.04275922535647049 
-0.05708251185954671 
-0.04026794985007034 
0.08906418582911441 
0.04335240062994448 
0.02764659882078295 
-0.02397165093532113 
-0.0824032428350312 
-0.05041357680074775 
-0.01031051535140878 
0.002990088963723722 
-0.1177452636881038 
-0.05278168991768335 
0.09263988294227761 
0.04688144695757224 
0.0406896017491204 
0.03233717115982276 
-0.05685805123189097 
-0.04795838674328796 
-0.152709165188281 
-0.04102272140739226 
0.01407847273954817 
0.02085952176076514 
-0.01927277455289608 
-0.04346374209634844 
-0.04625511982610883 
-0.01125394380913479 
-0.02612579933189575 
0.03735501331412955 
0.06082111272599966 
0.01584514102146003 
0.009902995016881994 
-0.03179499773922311 
-0.05988588266272289 
0.02692068474721182 
0.0164842163718907 
-0.01101252669666814 
0.02585704578319547 
0.001196597711346273 
0.06214957497639419 
-0.08637872741213774 
-0.05076460397955156 
-0.01767215078283777 
-0.0124877737878224 
-0.06334204128236225 
-0.01068095407217445 
0.001890135915061773 
0.1390353740017296 
0.06779272400762253 
-0.01205106043511365 
-0.05892542701984879 
-0.01103513062504595 
-0.02137129043334896 
0.02571417443301286 
-0.06353697339424626 
0.001338835077424909 
0.08932899760655227 
0.04052091393950873 
-0.1175309359154489 
-0.04833277404178538 
-0.04279700502853051 
0.07225005515893962 
-0.009538906937470993 
-0.0565863283330457 
0.0623005416380513 
0.1126466790890466 
0.05310000699359246 
-0.03681165788847941 
0.01406295136782453 
0.08546781783508145 
0.01026607058994867 
-0.01973197760272781 
0.06742538889034755 
0.07490676969850085 
0.07003704377960096 
0.04352436690578757 
0.07445098446625227 
0.02634126451320621 
-0.04342178964113599 
-0.07382329314683518 
-0.01689677565837585 
0.003618840868742363 
0.08331974946087943 
-0.1008030508540532 
-0.1574100842770589 
-0.1213741181655643 
-0.0439713206559886 
-0.01377782619485151 
-0.01283475275495363 
-0.1004575176433413 
-0.1743016192758754 
-0.0650915297144786 
-0.0704943500097959 
-0.07034089498604634 
-0.02311521975927117 
-0.007893571858845139 
-0.028853712486529 
-0.0533122478329172 
-0.06585424455908838 
-0.1490380771575033 
-0.02555798417268165 
0.04691476036470297 
0.07537216399468508 
0.01096520759362095 
0.02276827991351264 
-0.004287264934772094 
0.03710845430351228 
-0.004727660190871007 
-0.02524911409827574 
0.01616617661586809 
-0.004974393763909053 
-0.006100023320727597 
0.04546124266768812 
-0.06772989311443998 
0.03966746236511866 
-0.004688678653242339 
0.09034413712480246 
0.111582578828928 
0.06047469932546009 
-0.03785286499274301 
0.02846885509570732 
-0.009415138917203121 
0.03801200501222358 
-0.06621046979559095 
-0.0006971198993830714 
0.08624061197682317 
0.09108383867007153 
0.03581322981143951 
-0.09589376806620717 
-0.1069990104993981 
-0.05498146977742815 
-0.01835865786541172 
-0.01893020119032147 
0.071541636468133 
0.04524023993480614 
-0.04306720664138823 
0.0307094475027092 
0.01943680721062455 
-0.01812226594952139 
0.001673518274345454 
0.08733221224604854 
0.08882069483758799 
0.0781959260458106 
0.04519466537712864 
0.03545227174357384 
0.05155134337681071 
-0.0500028167062461 
-0.007083633467037948 
0.02285611273937913 
0.04358151648624121 
0.07634053497797844 
0.02487338219051445 
0.06028004496598918 
0.1150131606605842 
0.04654507309114416 
-0.03893061587375624 
0.04138310055062475 
0.03374917101747888 
0.01341813904204405 
0.006013773722593342 
0.05689723969513274 
0.06711587090677001 
-0.04478964899955751 
-0.03633749078995942 
0.03236788032768963 
0.007425297643490387 
-0.03485848262301307 
-0.012018864786045 
-0.04951852770185736 
0.04579886156421865 
-0.0492017635153924 
-0.06018467612915338 
-0.04870060989818041 
-0.09721957093241886 
-0.1070857061004726 
-0.1008576298639034 
-0.1042471193437722 
-0.06622320813132695 
-0.09593222885373691 
-0.0003036527777571336 
0.0006077874346326986 
-0.04074499316104996 
0.00774657831666273 
0.0217132886443329 
-0.01590291046780103 
-0.06224448506496399 
-0.0415598950126492 
-0.04051593948403493 
-0.04286261588164987 
-0.02185500764261413 
0.06470617893418014 
0.0344528258260206 
0.000780090179010237 
-0.01533073601045336 
-0.03154614948051795 
-0.01649922348471393 
0.01989527589951733 
-0.01183853411626805 
0.03027452168068603 
0.005787445000903571 
0.04831259801257946 
0.03302454588461207 
0.0184277995549038 
-0.05248276799966699 
0.03521286833925674 
0.04506183797771365 
-0.02690931871161769 
-0.05354312679641222 
0.01640665632527065 
-0.03403147489826508 
-0.02960333105968605 
-0.0646560923252842 
-0.01556128639829106 
0.01009734686745114 
0.02190875112941837 
0.04145822699847021 
-0.03441712871556458 
-0.09100933224624259 
-0.07627319511831107 
-0.05912059751940514 
-0.03146998131397928 
0.08442042672354572 
0.06463015391980254 
0.03761360010390172 
0.08494677328226136 
-0.006840568137229048 
-0.08761244607850836 
-0.00622578996259929 
0.04940737712517945 
0.03464350743304144 
-0.04041049623292636 
-0.01772921772991415 
0.02125032782834878 
0.006621025602247563 
-0.03297030894609482 
0.02636256029388451 
0.02493885715004029 
0.00739575715646632 
0.04493595410299957 
0.02060736196810876 
-0.04158002220565211 
-0.008912404453504443 
0.02132762112356301 
-0.005292009247792166 
0.01958523920181543 
0.005404931238388018 
0.04404448749386582 
0.02281537516955828 
0.007553687231357296 
0.0659486035647785 
-0.06288966472128719 
-0.04632981772581869 
-0.06442785787170691 
0.01038830471477536 
0.02136823879706264 
0.004334701668089323 
-0.01845720233181102 
0.0576200529268487 
-0.02556938448754454 
0.03800749617489041 
-0.01095749516399628 
-0.04555873512831061 
-0.02038007819758912 
0.05819890942194287 
-0.03345744354330993 
0.03981219236001132 
-0.06578433323220409 
-0.02575254238232078 
0.0007616844340157291 
0.0511322007702333 
0.07389185115145611 
0.09229352483450955 
0.03901745017154674 
-0.006814774376868678 
-0.05808050495105219 
0.02017538852561877 
0.04906600137705536 
0.04794640047194808 
0.03758048696350937 
0.01467568396571654 
-0.02654679909138986 
0.006648081613003209 
0.002174303915942817 
0.03298632163673992 
-0.01355255508238526 
0.02074880652163192 
0.006883008246311939 
-0.02393149502323468 
0.06206472317151145 
-0.02974763232926898 
0.00841501172411234 
-0.0516089295132463 
-0.006582343896075035 
0.09083664294273013 
0.04939155827244444 
0.0334896474259043 
0.0005182906425792982 
-0.06001236609455286 
-0.06051112924840917 
-0.05196511575907028 
-0.003569674523111657 
0.04652735836449941 
-0.0169128773626338 
0.03286026990270868 
0.03852487773425219 
-0.005324120372340066 
-0.1957710120762234 
-0.04502519539331282 
0.02593814106003682 
0.04903143056888432 
-0.0165864683829968 
-0.04678747095217523 
0.03423360217730335 
-0.006871161186282661 
-0.07802073115461823 
-0.006440522169898711 
0.06629507438069983 
0.0543496032745288 
-0.01863748654640345 
-0.02881628742296577 
-0.05087048062398539 
-0.006934917632303998 
-0.03870730823815675 
0.07611584514928042 
0.09296675333377508 
0.08532192444263871 
0.04648852119454434 
-0.01673591515634415 
-0.01258469982516328 
-0.04702504334730884 
-0.02260526887697837 
-0.02480106773763387 
0.0981966633957306 
0.06550386879861385 
0.04793152883043519 
-0.02244618667872738 
0.04564397410264875 
0.01645390686307922 
-0.009459429712824208 
-0.09360936521804385 
-0.02863808384308575 
0.03422503368277993 
-0.0174103043526912 
-0.07375162544867589 
-0.04979037657310317 
-0.03688308525123069 
0.0413594154235111 
0.03186360428424713 
0.1202671710323222 
0.1917318186386677 
0.03149497855883757 
0.03398272900102664 
0.06587415570426239 
-0.009182787566590399 
0.09279905646514111 
0.06998008846525253 
0.09450430604522772 
0.1169677084993509 
0.09391883635134146 
0.03537129016340633 
0.02241863359614622 
0.01936520130125458 
-0.01197589374192985 
0.002349643037734297 
0.06852370286510362 
0.03239579733627245 
0.04268544139280531 
0.03683034503230777 
0.05663565082819059 
-0.03265204215348623 
-0.07546401487550042 
0.03210969929813482 
0.08100479504832432 
0.03465597010216656 
0.01461966574397252 
0.04130241624883706 
0.09572932056611531 
0.02090296058290754 
-0.02252495608498419 
0.05559135667960385 
0.05188296632725433 
0.07892019064039986 
0.04445782220286573 
0.02009217693283642 
0.06032765467748551 
0.05463316562241349 
-0.03705796676255045 
0.07306011365583384 
0.09363961755735088 
0.02639666295127579 
0.03762410677444342 
0.02959582709948769 
-0.006856063175249096 
-0.02773339498954637 
0.003380292918717795 
0.04676452017988012 
0.1060883315401755 
-0.08242505054398873 
-0.003030604890359959 
0.002953130311075036 
0.05173331820181237 
0.01472524432691368 
0.03819050883183165 
0.03615528743593548 
0.02921998881573205 
-0.05802487914137767 
0.01095249107205067 
-0.02347918844572231 
-0.05496395857541408 
-0.03495983371629915 
-0.009413251407678711 
0.002884017933731131 
0.0687118531113471 
0.04371336311758002 
0.0004904519463606401 
0.06480755554378882 
0.07287675201683405 
0.05172800559006026 
0.02821491317016697 
0.03803105756108547 
0.01247263772905993 
0.0002820310525743172 
0.000649307376335906 
0.05272706350125684 
0.01990187899987049 
0.03250620059734418 
0.05818963722526856 
0.05806614854296044 
0.02020187386611737 
0.01620862238172789 
0.02726618931240005 
0.0282873604223733 
0.02025869804453713 
0.05519982874778648 
-0.003485915821108672 
0.01261611746160627 
-0.06760447925195202 
-0.007423127532656528 
-0.04588970047288957 
0.004850533875859306 
-0.03237626159094252 
0.01480340608679084 
0.08466218696943263 
0.04631519209522549 
0.028431915271284 
0.06539277565497133 
0.01070707925434528 
-0.007904651841747398 
-0.06292351505625376 
-0.1036336660589602 
0.004387087164982944 
0.008594835741642812 
-0.01753661391436843 
-0.04400706907544465 
0.04873206417772307 
-0.02528928847720191 
-0.091754328869692 
-0.07919422637008026 
0.01316189343919481 
0.02900048861344212 
-3.763737283167447e-05 
-0.04565660521442567 
-0.03491306179471793 
-0.05656224078738804 
0.04436970689431714 
-0.01527826340193057 
-0.001121525560230241 
0.02436823436364239 
-0.004062909862519691 
0.02441653081011435 
-0.01233057201664422 
-0.076951917381265 
0.03834343027075447 
-0.03817063639137403 
0.007112683924753309 
-0.01550719001863356 
-0.09157366737761417 
-0.01579771541625056 
-0.06522613414783884 
-0.09718604559337783 
-0.1214399891401863 
-0.06030925076513207 
-0.01023925703242651 
-0.04737996357403836 
0.009984610407537847 
-0.01018057771361205 
0.06749900807428043 
-0.005072329552867107 
-0.07423944957779732 
-0.02929031559308906 
-0.01352737315011844 
0.02608252701606168 
-0.004733875290103816 
-0.0509500953625566 
0.01470807981450109 
0.08139191920413742 
0.01444147028612976 
0.003521317946640637 
-0.01675230587727333 
0.03655842855015644 
-0.09503390644027504 
-0.04850414207893238 
-0.0127581409708887 
0.0627710708447151 
0.003512351100052412 
-0.02621272976848988 
0.008459870352894704 
-0.0193870928506765 
-0.04313286959535723 
-0.02810376251974536 
0.06277625410832376 
0.05593430347720843 
0.04162969383473688 
-0.03398009163477403 
-0.006240594360907517 
-0.008552384915837048 
-0.009552804816580782 
-0.01523375688765606 
0.03474340893090822 
0.04734058243594502 
0.02006492330295893 
0.06272998545958039 
0.06801694121629624 
-0.0469201314809269 
-0.06608622792888472 
-0.06983832200478864 
-0.1004574825595976 
0.08272137124004682 
0.05938619213440496 
-0.03390493425988803 
-0.1094494852374079 
-0.06671458540750597 
-0.07807072882876465 
-0.03097654214062491 
-0.0678890364561522 
0.04306138581479389 
0.003052587468244363 
-0.03344668641600775 
-0.02235243263099859 
-0.03363295062839982 
-0.07028052037277314 
-0.02011757458758255 
0.002477507356686777 
0.009650136389102042 
0.04840134664803601 
0.002795346121049183 
-0.01075966327139623 
0.05034929108904298 
0.009142989867604135 
-0.03919633018396401 
0.01157282245292306 
-0.0392891184539053 
0.01993967888668154 
0.02094773836671091 
-0.04383457449934329 
-0.009787137414445764 
-0.04839655439666827 
-0.001142635659158507 
0.05025591748601465 
-0.004178444456441681 
-0.00889112550737604 
-0.03442616563601696 
0.03763483887606792 
-0.04109900280385497 
-0.02019804991789006 
-0.03739466929247956 
0.06012757747141877 
0.01277875246185259 
-0.07884493759641382 
-0.1363558324742969 
-0.08586045296655066 
-0.05091930790919877 
-0.01932774699393075 
-0.05684349361398765 
-0.01284517446775026 
0.02057798052936933 
0.0577625340983881 
-0.0236323133322887 
-0.01747200140420065 
-0.01701974499606038 
0.01996890861032713 
-0.07246049881594675 
0.07359759729035843 
0.04079715653317069 
0.0332590296336575 
0.04878659353845372 
-0.02152781286052561 
9.317072478272435e-05 
0.02954605090451728 
0.05204875617143583 
0.007425438685961186 
-0.05589666012924125 
0.02166818426769064 
0.03889036279133594 
0.08231012387967096 
0.03990541933788924 
0.03646282636537078 
0.01409790921581047 
0.009126981394288046 
-0.03692627745781232 
-0.02507449160594882 
0.03756861916016605 
0.001981556276843019 
0.004588556596790273 
-0.01726699883515527 
-0.02427099572455253 
-0.0320565921635351 
-0.03290339855855922 
-0.06332642860005924 
-0.03820465585047057 
0.01251851878185497 
-0.08686555709607703 
-0.1223297676904144 
-0.1227074395793323 
-0.1217729899171012 
-0.1248151637801323 
-0.09172985648002902 
-0.01061300815733245 
-0.1282998839911517 
-0.03853927163039311 
0.0264936139148187 
-0.0381509740156865 
-0.05672849682286343 
0.03601940221258427 
0.0359990969805071 
0.04545722485084518 
-0.0132541864852135 
-0.1082180964602494 
-0.03739639646261376 
-0.1146801831644221 
-0.06061914535533287 
0.02777127596909788 
0.09542407963077729 
0.06793614829931002 
0.02454198972537602 
-0.0445502200505374 
-0.003635125632375989 
-0.003077696552123182 
-0.05105580181576065 
-0.1460603014057055 
0.04585402836399843 
0.00323741752666787 
0.1430848461783076 
-0.166814850696988 
-0.01488432776112863 
-0.04577887067550353 
0.08642496990852823 
-0.04332135060834408 
0.06404278459985924 
0.1061761624604632 
0.164545480332749 
-0.1656166959210157 
-0.06090865267890139 
-0.06542272385951022 
0.06979297384525909 
-0.01048490706660741 
-0.04201231519619787 
0.01799364504114845 
0.04759822622355168 
-0.1668738783255516 
0.0009240988019920751 
-0.0107125507434817 
0.04136460417006969 
0.01506771860248626 
0.04934396196282709 
-0.07765313564886517 
0.1021434069789419 
-0.1217493630043992 
-0.02394347915183514 
-0.170570550681909 
0.03395525593854981 
0.03200146406061779 
0.03381540009760944 
0.003719836154820521 
0.09410230054870759 
-0.1706783587100691 
-0.1209380642589747 
-0.09268901588863328 
0.02420765950864998 
0.04335774846126121 
-0.04256366539808708 
0.04700243819728617 
0.2099263333572388 
-0.0767303177436347 
-0.05646943108220905 
-0.005820836636722983 
-0.0007731651814928038 
0.065233860083519 
0.001725108499349027 
-0.01804054662702955 
0.1112792121986876 
0.02625024707556125 
0.03161510156077681 
0.01189643270197151 
-0.03953769860296985 
-0.02192210354684499 
-0.007767275675392218 
0.05091088021606123 
0.03210089200617725 
-0.08742797690809458 
-0.1397619244055069 
-0.1595799302189198 
-0.08417415764239904 
-0.06652594029610819 
-0.04232334674959525 
-0.02997817000527682 
-0.05449977331344492 
-0.0819417775022121 
-0.01264590638739142 
-0.08022481448153029 
0.00978716298732522 
0.02214163016829016 
0.0283553602555457 
0.03618238257851285 
-0.004526693439429732 
-0.04912744567885564 
-0.01728130910058551 
-0.04169071641396947 
-0.04336731964340948 
0.01340032700521095 
0.03853507911645804 
0.06586862608096615 
0.1552418622115669 
0.06440620206916266 
0.04852947930932225 
-0.005116364704119109 
-0.06271155853447734 
-0.01579788122402359 
-0.01722210117329481 
-0.02835837376842124 
0.09565258345114784 
-0.09200427337517732 
0.0008734039017973712 
-0.0503250002969001 
-0.05666161968078715 
-0.04775700083410572 
-0.001707053949449044 
0.06005665763600627 
0.01536448572447227 
-0.05191457778196305 
0.01901671541647283 
-0.006220075291790035 
-0.02784939714183459 
-0.004113250606110067 
0.05792365524051712 
0.09686490962217008 
0.0553390813376565 
0.02534672296856575 
0.0476856791088561 
0.04570175970194884 
0.01250129863039653 
0.04530338755258524 
0.05377128353374178 
0.003841511161959296 
0.04468867768516616 
0.009105736924603761 
0.01658271572301663 
-0.005617079531418833 
0.04230722810487966 
0.03455544836570636 
-0.07515795120254687 
-0.001885321319109387 
0.02405106611728881 
-0.03559458762590657 
-0.001349964308248072 
0.008095512927849482 
0.02094109540285453 
-0.02212107877074987 
-0.04939898905722216 
0.01093141696882994 
0.1064736402989479 
-0.0510280948532387 
-0.0008077988219193288 
-0.04761523184104727 
-0.004514734642679906 
-0.03224239459776519 
-0.002322431685365391 
-0.005844397354822969 
0.1219445604621296 
-0.02795946910026256 
0.01689592847992334 
-0.05101275935079796 
-0.04920522420112353 
-0.01608099747222265 
-0.05007864991780272 
0.04550545515523087 
0.09918796451267541 
-0.08586835332269985 
-0.05660653500219228 
0.003074477890229963 
-0.05162775613827807 
-0.05619221954516702 
-0.06468676094455482 
-0.05889473186792675 
-0.07654700467196285 
0.01026489752572594 
0.01445815976828178 
-0.0257441740627401 
-0.04740398936963613 
0.04093525463599943 
0.0276906657520535 
-0.02417481903780734 
-0.0163371202993782 
-0.03672366644803934 
-0.04415290830495568 
-0.006219271414448856 
-0.03568739664584657 
0.005598230294599597 
0.03057992533090654 
0.05520495627348959 
0.03035799709004364 
-0.08679889243890997 
-0.07307891077198428 
-0.02070433832245542 
-0.05922624789710527 
-0.02343522112811433 
0.1024175878423283 
0.09101699178146187 
0.08529476314579715 
-0.09345883875223195 
-0.01733861958773477 
-0.01948545828454159 
-0.008167513489128862 
0.03341061789696502 
0.07843376133555405 
0.08935480745863252 
-0.007731740148497692 
-0.07941885652133338 
0.01474535095130571 
0.06779922815221226 
0.04526806601797483 
0.03382384931594741 
0.04259702323806393 
0.007975020662490308 
-0.04531729102683203 
0.02432643648558421 
0.01173046790783432 
0.007234022171983899 
-0.05052921921668198 
-0.02609586737360806 
0.01913465206331581 
-0.06681338086897576 
-0.06334456314993138 
0.005994651329762376 
0.01458416117770807 
0.05559331084521853 
0.03865475615559519 
0.08235215422311486 
0.06820810406825174 
-0.1026176635806065 
-0.04159483731640004 
-0.04997306992523637 
0.03440929543964011 
-0.03499163900041898 
0.02226920711808097 
0.02808954266240468 
0.07636049535804663 
-0.03666595595799595 
0.01255298701514917 
0.0408750364547727 
0.01197393758320216 
0.02911898299681776 
-0.02170564725952046 
-0.01862003254873327 
0.01527063970873576 
0.03576970546162386 
0.001620334715578195 
-0.01855264770148713 
0.02887452800351891 
0.02333058076213618 
-0.08320749139278207 
-0.0259144641783804 
-0.07334034747673979 
-0.02517973328791506 
-0.05345756514219149 
-0.02384381047063249 
0.01671344402677776 
0.01784323555895352 
-0.01778320922077903 
-0.00761595551883055 
-0.0206515182548496 
-0.04668444487343475 
-0.04803979823860689 
-0.0386743425040605 
-0.01911188017723967 
-0.01789351646148965 
0.008579837705923682 
0.03333216041489847 
-0.01609761862819322 
-0.06513098798391442 
0.03114938646082361 
-0.04289575595103548 
-0.0563181194340145 
-0.009867992177443385 
0.004107799355202836 
0.006784857804871909 
-0.03877837514620002 
-0.06286398252391104 
-0.04429964337342332 
-0.01800667872155673 
0.0160464843115059 
-0.01849753275757164 
-0.03865246215465398 
-0.0115800127183254 
-0.01094294374397388 
-0.06637053714415957 
-0.003635097943068425 
0.0005974280303206719 
-0.008337591673904948 
-0.03090150763636813 
0.006114850771643946 
-0.03261092578042871 
0.004966923134839123 
0.006118789850475061 
0.04681138380991037 
-0.01635044763394839 
-0.02624333715736696 
0.004256593516432075 
-0.01342218876081606 
0.01447002532825889 
-0.0002457258826888183 
0.04787906625903504 
0.0812659033032594 
-0.04106065329552288 
0.008884740440757022 
-0.02193503765362468 
-0.092089657374112 
-0.06049502240519548 
-0.04083494989739567 
-0.02716624851034535 
-0.01707638839954188 
-0.06569105988700966 
-0.04712018556266067 
-0.007101236932087087 
-0.03080817271206908 
-0.02515064059723234 
-0.03243676242887145 
-0.06837647642733752 
-0.03062132313253924 
-0.05437443219345339 
0.002211577781636581 
0.02780937691248616 
-0.006096367702562414 
-0.03374609239372925 
-0.02259987023552167 
-0.0138555453120634 
-0.004850913711972979 
0.03702961241075074 
-0.001683199490570842 
0.01825846939323806 
-0.02257158957566528 
-0.02573461738896148 
-0.05242321130173762 
-0.02057929569926251 
-0.01037572107674867 
0.07073478452595638 
0.06634073124890688 
-0.01057797348181658 
0.04086707918819009 
-0.0485435414042114 
-0.06213189114880258 
0.03642997548520538 
-0.04148241757422228 
0.0263886230561552 
-0.005623037896278065 
0.02273900043800905 
0.07057297451492503 
0.06846495763353726 
0.05822094226115695 
0.1218407701762803 
0.08120182296371499 
-0.03480549754526831 
0.03658225705600284 
0.04991251936441165 
0.0510996144260688 
0.05126847415108689 
0.04235685310783012 
0.04653050705469843 
-0.03597595629348389 
-0.04137280254763807 
-0.05634205064739981 
-0.01346474939400511 
0.01508463889317386 
0.02054876668089025 
-0.005367508455673846 
0.009608265655533483 
-0.05977242792102079 
0.03545691012366962 
0.0153299441094596 
0.03555203766999306 
0.02968267987892872 
-0.01450860328791356 
-0.07507596529205375 
-0.05942046610550761 
0.01398721072150717 
0.003892141505111058 
-0.05170761201236731 
0.02730085419310001 
0.01392585204306777 
-0.04597534184900303 
-0.0547239696707957 
-0.02461567965591523 
-0.03563773437956555 
-0.008221585007538392 
-0.06484663195552159 
-0.01829420175437757 
0.007132945849404364 
-0.03366140065809722 
0.001343444361558102 
-0.005850752610603079 
-0.06990095650344753 
-0.02574555271112127 
-0.05368448276193778 
-0.04747207779962738 
-0.08195130862093222 
-0.06203311934257896 
-0.07065062469538692 
-0.04533176755268675 
-0.01142359510723068 
0.06530642661166465 
0.009979345515184949 
-0.01762023864702942 
-0.02754416704928805 
-0.07351726059379243 
-0.01561878146084669 
0.01868977690914462 
-0.06121632883525141 
0.03370394836200594 
0.05291567949480688 
0.0501228077439439 
0.02756514062765216 
-0.04978933352938575 
0.03540193204641512 
0.03023964465016247 
-0.01419596939543766 
-0.03090893367090926 
0.04778182533626132 
0.05001826121579192 
0.06722137938886545 
0.02436400066800113 
0.05798778549978423 
0.09545012758984096 
-0.021562326854622 
-0.004877303677249854 
0.0387295768244269 
0.03806371243655793 
0.07069941063020754 
0.07041046704384565 
0.08999764240989022 
0.0692383613761013 
0.03092897840671903 
0.06456744423809326 
0.01824152694986015 
0.08754126375199117 
0.007303506690146128 
-0.04259803493886716 
-0.01551813162123832 
0.006112188413868238 
-0.01708544345983601 
-0.0440933425099171 
0.002469090699554915 
0.07179301497174835 
0.1139399266837163 
0.03912681303648391 
0.002752009718341555 
-0.004491099188303019 
-0.06421593283761709 
-0.01223502476668696 
-0.03405918000129163 
0.07287764365234069 
0.08135475435591732 
0.04663930357365962 
0.0159081253408519 
0.1120871804149327 
-0.06715055745938933 
-0.03250974814064308 
-0.04108533727966235 
-0.007668722252919625 
-0.02559128933192938 
-0.04122198324710463 
0.0428231659880387 
0.06374189854007511 
-0.07216689168181219 
-0.1357330787592667 
-0.03925194214563265 
-0.007291259754562157 
-0.07903968306065558 
-0.03470807286410982 
-0.0002909587590158086 
-0.01794583757156753 
-0.08950169856770648 
-0.03812879107779735 
-0.02473179719991847 
0.00973979385011855 
-0.01867116300374411 
-0.04534652211331392 
-0.02115526591780515 
-0.08192129973778231 
-0.107525550746759 
-0.008513467404338311 
0.033667689017752 
0.01296762049327863 
-0.03402599662291399 
-0.1139671603658269 
-0.05405066001406644 
-0.07074624701088844 
-0.06730698883167884 
0.05127708391154014 
0.01846588758264021 
-0.03435110843634177 
-0.008929991467520618 
-0.06255052730016912 
-0.07788845571756635 
-0.07241506812793051 
-0.0044583849039428 
0.01682261005036298 
0.0817084467430991 
0.0472451437562391 
-0.05278184317564194 
-0.07597649644341947 
-0.07574705476503202 
-0.00521229176771095 
-0.005808629262688556 
-0.02450573943966563 
0.003622484565163437 
-0.02519066519845728 
-0.03046026091480271 
-0.01088672395856783 
0.02784850231174187 
0.01417291828427338 
-0.004427216007222012 
0.006635095467872893 
-0.03324743853512053 
-0.01970440310621626 
0.02245718499165666 
-0.005255820128805839 
-0.01065963752371704 
-0.02119218931223026 
-0.0487503689803397 
-0.01891690687825093 
-0.03863898787209242 
-0.09799169271246155 
-0.05089515784894956 
-0.01089153779717603 
0.02662585068949794 
-0.03010181973767407 
0.02958962192065043 
-0.009204034673516021 
0.002990106382406437 
0.008779208623880945 
0.004496351997792231 
0.09067854743874261 
0.08333824157678833 
0.0462010786444433 
0.1078926432869673 
0.02737306328990407 
-0.00440631122893245 
-0.02841195800438067 
-0.09208516758693958 
0.07579124406951582 
0.1001638580881827 
0.042053364903022 
0.1391066189842053 
0.04101959814963781 
0.005606776528917569 
0.003806085042650454 
-0.05563471981411683 
-0.009750044394869168 
0.0525277604071808 
-0.005069009800330057 
0.06773813617764204 
-0.0270649795257945 
0.007880334523152489 
-0.08071350192901537 
-0.08367420433084725 
-0.08625668150480013 
0.0102389734358427 
0.03835038287026492 
0.06312243615673442 
0.005998758787635784 
0.01915965570658377 
-0.07939940490660953 
-0.0434687424352283 
-0.02398850596915315 
-0.001456139047411733 
0.1120259391553718 
0.02336689079005572 
0.003586156647186961 
0.003945048907578615 
-0.07446545142628466 
0.01444361562122266 
0.09866055112061778 
0.08406536784627508 
-0.01303809121407645 
-0.008618889810849531 
0.0191899792855625 
0.0007991853284985547 
-0.06210704832735506 
0.01926257332772558 
0.06413630912378077 
-0.01658497911696261 
-0.04338187744193669 
-0.02263534998467644 
-0.04866233501708919 
-0.003821517276016652 
-0.04568758245112933 
-0.02447134099481513 
-0.04918396560034236 
-0.06661768510553406 
0.02475944853959065 
0.0975246885894723 
-0.03479911312843315 
-0.06674951671391866 
-0.007624186662811343 
0.02687960202064645 
-0.06701827554920829 
-0.02840596347697308 
0.02691112233015326 
0.1020164521692325 
-0.05818720394371135 
-0.009885689502951479 
0.009672140224100517 
-0.02159684806266489 
0.02186760659941728 
-0.02001948107571632 
-0.03081056614564476 
0.08233833710606797 
-0.06059123623985059 
-0.09118902007682521 
-0.06581316755620398 
-0.06449049864132096 
-0.1060241409870946 
-0.04983739911743208 
-0.04589626509240219 
-0.0585963564292053 
-0.02992354656695899 
-0.04671391785310054 
-0.04282242557680924 
-0.06221203926374864 
-0.01596376861943501 
0.06013271860577384 
-0.008952820928967334 
0.01145153981943018 
-0.02519440427362035 
-0.04380121260136988 
-0.07847833220474609 
-0.1152928269226801 
-0.02886079786090712 
0.05359239323474419 
0.03067499432953878 
0.1029767044808983 
0.004081799305490495 
0.03786873856274538 
-0.02793922046590749 
-0.08515258570867321 
-0.04688967243869135 
-0.0007059581579544859 
0.02550760674814964 
0.04985914539182486 
-0.03794871982771488 
-0.03548016573066135 
-0.1568923403706528 
-0.1184068657053634 
-0.07612037617667221 
-0.05002620566504786 
-0.002258774634222032 
-0.02385233968940767 
0.03642238754322406 
0.001524880203710044 
-0.02726157637544699 
0.02346990363087704 
0.1440439677422282 
0.1110638456064358 
0.1357309288805983 
0.04771100446859292 
0.1222174883869144 
0.09636627543326141 
0.07155079461637544 
0.007769803235514022 
0.04393339321419117 
0.004850620780794911 
-0.0562741361648066 
-0.02520660113267871 
0.02717260070718372 
0.03404580460799234 
-0.01755555987387284 
0.01369435892643682 
-0.02567801331137151 
-0.0101561661941986 
-0.0498804278755232 
-0.01630285481741351 
0.02090279672238032 
0.04189028531965862 
-0.0131421294866998 
0.01403342267804391 
-0.02260846704667346 
-0.06523702662176914 
0.02566825657111253 
-0.05388145633926776 
-0.06503107421866781 
-0.09755550572622612 
-0.1044612216538185 
0.03517977369455257 
-0.02988257071785395 
-0.1199839430444784 
-0.08055864240255785 
-0.05398818089368095 
-0.01705835494038802 
-0.1076888055567168 
-0.08091787099339484 
-0.08070922914046559 
-0.03898502671856874 
0.03843474078783024 
-0.1034369238450238 
-0.03847985434375688 
-0.02921485559613757 
5.457517179214763e-06 
-0.05297696387682432 
-0.02881212023187574 
-0.04036208390339797 
-0.03648614357900694 
-0.04980340389975866 
-0.01062632717672374 
0.06613550427499057 
0.05784333838872847 
0.01437143214013635 
0.07921403387036272 
0.08287342966630466 
0.07042584861013831 
0.02793078143130576 
-0.01567869643456565 
0.0126019977838536 
-0.0118096431115499 
-0.07011168043784197 
-0.03593901044528372 
-0.02563344143376611 
0.09509609904526387 
0.05375130116578822 
0.08125400802791545 
-0.05666393255177116 
0.007566802730363266 
-0.03221994409717962 
-0.01189209601313731 
-0.03561572602227998 
0.08144011035852811 
0.1035429788833085 
0.04364935400068352 
-0.09598670646143179 
0.04919438077103958 
-0.006471282648678448 
-0.0346521838273799 
-0.02544374319433178 
0.1164990727129204 
0.09414952229846657 
-0.01273060478954883 
0.05273724847619516 
0.06362942061976543 
0.04722576856799365 
0.1141549992595902 
0.06994653861758539 
0.1391529893968664 
0.07617967033761097 
0.09285956330885983 
0.08988399136642369 
0.1143696583776849 
0.1314408801993272 
0.1648568325793053 
0.06746157583244977 
0.09949979733829543 
0.01304802036782981 
0.02185364342755045 
0.01811900053384265 
0.03710738294617959 
0.06608290806006427 
0.1228585099362009 
0.08885106990771681 
0.0999608592843587 
0.03090132773534902 
0.05160227876406176 
0.03174336226584107 
0.110812720296994 
0.0483969730506374 
0.08206528593095136 
0.06184003073094737 
0.04956061795215671 
0.00623633712413796 
0.03385639331425302 
0.04230158967749767 
0.05256092890464627 
0.007003891786134956 
0.008041920768139026 
-0.05257895331384888 
0.05137582182610406 
0.0597672581086617 
0.03604326880550565 
0.02325546080964983 
0.01993177107680223 
0.04366848715564309 
-0.1049666861147191 
-0.1297143867907707 
-0.09957458812719933 
-0.1155425606454454 
-0.1939862370382099 
-0.01388035725821499 
-0.02117902235815942 
-0.04786779100866394 
-0.03161286835940556 
-0.02774189250178505 
0.001019699999037968 
-0.03566361848917374 
-0.08092801970767335 
0.05283159374143648 
-0.007510106823959573 
-0.04165509635511842 
0.02774508931916551 
0.006616962126412201 
0.01281468605567868 
-0.03383921436926174 
-0.07615563299650789 
0.01406234425782926 
-0.003231408252151897 
-0.0438518374488238 
-0.03985951853753024 
-0.01996047466554855 
0.02706593980408178 
0.06534545405800296 
0.06026023423101147 
-0.07684463742133661 
-0.01954105775155945 
-0.08518431154835937 
0.03698053400144019 
0.06390339290543465 
0.1570313302929911 
0.1293706096362764 
0.02187379728989378 
-0.09095854788825226 
0.02078660503342928 
-0.03335519024634613 
-0.01656934943288429 
0.07018209005358951 
0.05798999265816671 
0.0567772221556535 
0.02303857367311972 
-0.04663819155832953 
0.02696298747866451 
0.04972385367681374 
0.003100487030649879 
0.03164222773511559 
0.04608874540818071 
0.07747143608222758 
0.05617303935703672 
-0.0730685054350306 
0.06841775130633519 
-0.03350046813646472 
-0.0356614079829279 
0.01663466853593588 
0.01541324526099904 
-0.004262341566125412 
-0.01348842630818908 
-0.03988668427207086 
0.03231903692494535 
0.02442021922069245 
0.03997197400499216 
0.06275526392094628 
0.01042389948872726 
0.02363786631126277 
0.04306756585756075 
-0.03527174194927621 
0.06971490394526261 
0.03744342588319886 
0.007704399327172529 
0.04740067860008701 
0.03665107900741148 
0.06092094672787388 
0.03221327590868359 
0.05250479839042853 
0.03280310588422346 
-0.02799217333358772 
-0.07468974355917404 
0.06055379324437651 
-0.03645893672887621 
0.02006522596632321 
0.01382067973189717 
0.06971495222818601 
0.0008301474308504394 
-0.03603428372660848 
-0.1268245690280209 
-0.1117520473747072 
-0.09306188342953245 
-0.01105935052710747 
-0.02821559846556629 
0.04527872566071776 
0.05408693342783394 
-0.02079147936145609 
-0.03183973181402474 
0.007205518728408675 
-0.04111706701367905 
-0.04653214060633051 
0.02193063499244111 
0.06248013451310466 
0.04626611518263938 
-0.04174150762801138 
-0.02244321564908819 
0.03557866368820307 
0.03592659127805312 
-0.01173615388919541 
0.02635697486068195 
0.05575584377582609 
0.02479466460492248 
0.04556798834903076 
0.04381125958778515 
0.02195282105582571 
0.07212861397605314 
0.02253621222279982 
-0.03760524703290703 
0.03124216873678428 
-0.05159186193208792 
0.06967312352366496 
-0.006265777203185421 
-0.008093712776093911 
0.06362574466444366 
-0.0132411325409913 
-0.01993603712866182 
-0.01640548326556169 
-0.0317177879030748 
-0.0530502282802516 
0.00441438681443604 
0.08693923563046174 
0.06753111446860624 
0.04721275879785716 
0.001925191287879173 
0.02029083457651871 
0.04695748100490724 
0.04185727228720836 
0.07524833331915261 
0.09399161168832701 
-0.003436842014384182 
0.0384790462769082 
0.04200179155287525 
0.1351271075542397 
0.0763902555007934 
0.07557395565128339 
0.01776734030370404 
-0.001957759998589881 
-0.0195049296103262 
0.01307439437208797 
-0.01730348883795877 
0.01644169427332827 
0.001501894294231803 
-0.04895426103877709 
-0.004981488519145797 
0.0324122154378266 
-0.003533208846202468 
0.05385728456792482 
0.08081483769868038 
-0.04535767953469911 
0.0525699136489861 
0.01915889358120742 
0.01937059494140354 
-0.01165651270573436 
-0.002900703877403662 
-0.01964270247845652 
-0.08033904373844311 
0.01399507128820339 
0.00279921854717022 
0.01323362915926954 
-0.06181266390031746 
-0.08149904325895137 
-0.04735648689528324 
0.05401375451910928 
-0.006002778523446728 
0.03231165339086797 
0.0318043826493085 
-0.08182378476798438 
-0.084064793729107 
-0.03041403625943178 
-0.004212493391647025 
0.04083809315190379 
-0.02709719222557996 
-0.02751624429717886 
-0.09209549087555426 
0.01232873310207031 
0.02242498282797511 
0.05290698957291248 
-0.001008233362435719 
-0.01251260168894011 
-0.08362156601437178 
0.05387730400394364 
0.04486013139648167 
0.002044295644358799 
-0.01741152248724254 
0.02988096377504737 
0.06668556373088465 
0.02677925833556025 
0.0003914777188712033 
0.1109167142553358 
0.09863335860769966 
0.05594185754865218 
-0.05450222868806007 
-0.066080751289899 
-0.03827599090081579 
-0.02355918645075405 
0.07358017955136462 
-0.02098081332930655 
-0.001067771336837208 
-0.03303560494441357 
-0.0494151553684048 
-0.06878152089867288 
0.03734508659126771 
-0.03311669692014076 
-0.06305454593714117 
0.02394039166142154 
0.01737710257403756 
-0.004275570252995534 
-0.04054402092699413 
0.02042273262454868 
0.03191790362020488 
0.01194029311272657 
-0.1094603594505765 
0.01094843530112889 
-0.03760036694288016 
0.001188169083831452 
-0.07084862775174978 
0.003429691067810296 
0.08866718859905978 
0.0232645114961375 
-0.07475648809885314 
0.0004469616363115833 
0.07051935081461766 
0.09006979797930915 
-0.006458260907206987 
0.02580418120050228 
-0.05462761439814295 
-0.05981194542657071 
-0.1680086529779231 
-0.01998627279886885 
0.0307778494058336 
0.0490238022215987 
0.02154231436451046 
0.04956608096954036 
-0.05080902939295724 
-0.04562111754538772 
-0.03160548480995869 
0.08126195937235882 
0.06015300990118495 
0.04008533358063493 
-0.01274924568502343 
0.01250111596534999 
-0.04024491870097606 
0.005332868035570097 
-0.01574836036201558 
0.00133398813858884 
-0.04007474939560951 
0.001933294261982182 
0.008615284871013979 
-0.04088266780053738 
0.04469833439807876 
0.08887782278360438 
-0.02761240997144581 
0.0300467435739122 
0.03128827817896582 
-0.03359697232077661 
-0.07522868461014666 
-0.08250639800355505 
-0.0288159322910842 
0.03839138721686383 
0.006614480085733836 
-0.1055937634066612 
-0.05813069534812957 
0.01309254728287966 
-0.0024216163047489 
-0.07251400937682026 
-0.01616196391864669 
0.01818898886635803 
-0.02798475312610968 
-0.03805896164688823 
-0.01063388260682914 
0.03633717054374815 
-0.02234439748528818 
0.02865693528047363 
0.01627965501605596 
-0.01849153498045367 
0.002246402492140451 
-0.0362758164630391 
-0.03347279552775873 
0.02109355018781221 
-0.02036004498147643 
0.03499270124752609 
0.04514022391289467 
-0.02445472936932078 
-0.02845762004177235 
-0.03318384967871121 
0.01831392730106031 
-0.003666876434176326 
-0.0171737152612293 
-0.01656849077879599 
0.008054237937214536 
0.0180443910603911 
0.02707413343683316 
0.006728053333211402 
0.02656073538573507 
0.01723554306570322 
0.02472523414075808 
0.0233476206510333 
0.009806123886640948 
0.03674684635257713 
0.04462609902469476 
-0.01387295336248493 
-0.04983487854726367 
0.0229823063639833 
0.07465031012248871 
0.02479968305563881 
0.01197016844994819 
-0.03791027371955339 
-0.04237805570553698 
-0.05255783084585522 
-0.05727993868279543 
0.0199954034301099 
0.009434029624023945 
0.04157504852918897 
0.03720573362734956 
-0.0450212640440041 
-0.01774438494770844 
0.02328264785363534 
-0.003332637336295139 
0.02513491297413301 
-0.04596632608529956 
-0.009108757596655213 
0.05709733191169033 
-0.007688966601984905 
0.02700425258004528 
0.06132194869439862 
0.04191767638235449 
0.03375492473148722 
0.0004768586030338097 
-0.005576734687227643 
-0.0592211703902255 
-0.01696830311027966 
0.05300921572102942 
0.04226673151561532 
-0.01405664023605377 
-0.03389378221768229 
-0.09220405109024832 
-0.1093439188322621 
-0.03256442202647983 
0.04098149487502144 
-0.01910012416638897 
-0.04749158465244711 
-0.04838182489555256 
-0.07231483637152571 
-0.09913507518838192 
-0.176609050745702 
-0.0804784308550663 
0.0273974053620997 
-0.05998834206505123 
-0.0382555175502599 
0.01533872601280444 
-0.02778474603984743 
-0.1018978015286183 
-0.04242683321789179 
-0.003103509067834853 
-0.0197926988358175 
-0.06467213774043119 
0.008943375861467883 
0.03208314593247948 
0.04235696533715767 
0.04674389009754663 
0.04144251227775078 
0.05111356400390275 
0.05249961404807625 
-0.01485327906228639 
0.06522495243994958 
0.01512638755422907 
0.05417795679239721 
-0.009068212250728309 
0.02354346280553833 
0.05822643642008491 
0.1056450614821385 
0.1050088915841901 
-0.04871789308382639 
-0.05045236135505794 
-0.03898208516618531 
-0.05270370711100252 
-0.08515167732891187 
0.004946839444410001 
0.05211772247157753 
0.0575652096734481 
-0.1146285348220902 
-0.01532662770671186 
-0.01175656172094217 
-0.08154159054989858 
0.003921718249860255 
0.05079930364790599 
0.003614473285299855 
0.001385573620419399 
0.01153431187003407 
-0.007334309625094988 
0.01269824436683855 
0.0307417770016368 
0.008554457282069883 
0.07160951137996875 
0.1092967017654748 
0.01573601725576336 
0.05363997275453931 
-0.01211315506239468 
0.0720155420283299 
0.07086320910957686 
0.01420961348213784 
0.04830003288990373 
0.02237500450218575 
0.003621801862760079 
-0.00189286809032011 
-0.02896352228396077 
0.03823118726050202 
0.04607902244129739 
-0.005947705085750142 
-0.003906226938285124 
-0.1031486504979191 
-0.02663546176820209 
0.03221807960770303 
0.1320585124744932 
0.08876883682352912 
0.02862886207392699 
-0.05393434157113083 
0.003150476933924523 
0.0296589899559442 
0.01433901662994647 
0.01357856332153514 
0.07108005398197199 
0.02464726604104807 
0.02554092895934491 
-0.09501799796242869 
-0.07891594443677924 
-0.009009482310714996 
0.01878013140282812 
0.02664852212132668 
0.01479618671750386 
-0.004938914865897046 
-0.01941038329794984 
-0.2026261698996596 
-0.08556037740953407 
-0.2080310204231318 
-0.2123273945563154 
-0.05935042322317506 
-0.01202311306055444 
-0.01985958470312037 
-0.04480863087069987 
-0.01737204154560753 
-0.03649321458842018 
-0.1073819325448377 
-0.1274767396373714 
-0.02951774618960761 
0.01331341019988991 
0.02441545592305386 
-0.005717749270010177 
0.02058845260282907 
-0.03517901550487218 
-0.02328122889871411 
0.0477322969752094 
-0.02673220425705659 
-0.006502510222452577 
-0.04195347658291298 
-0.003884368739464183 
-0.008573554139189461 
0.1333529367353377 
0.07739498246189133 
0.1102431340022507 
-0.08579164267438363 
0.05804070959979413 
-0.02641739912069359 
-0.02547662868862871 
-0.05836403621846205 
0.08247804309884578 
0.04818586279693525 
-0.03431418480476297 
-0.02237720364382208 
0.07232656218761593 
0.1172358180157128 
0.1342434470456885 
0.1038418496032328 
0.04646544709730323 
-0.0332434343817012 
-0.008359419394674876 
-0.0731028205044407 
-0.03347417495636554 
-0.04454885439105014 
-0.03719434341821591 
0.001127390665169624 
0.01716243526865509 
-0.01918131468638387 
-0.02515829693550384 
0.01021505326093246 
-0.01831958472784141 
0.04131557379962467 
0.08015252297241944 
0.0007096713089661979 
0.07682915784591718 
-0.03503375730829353 
-0.1916816979350739 
0.105221170842318 
-0.0001838237082524155 
0.01377918295399044 
0.05649378616435806 
-0.05788694760933984 
0.03870821629849847 
-0.08786020304542135 
-0.0634415821503424 
0.02225425375776173 
0.03544412723006078 
-0.01551881973992097 
-0.05044444901056497 
-0.1183070189758563 
-0.05722270735045495 
-0.1157195869381006 
-0.1172050639005999 
0.1259084190715825 
0.04042980862118262 
-0.04703639408342527 
-0.08071304239321841 
-0.1506852515394833 
-0.02674581445728526 
-0.110015487537304 
-0.1055734428575499 
0.1188945847480115 
0.09812127619936675 
0.04337102861687465 
-0.1131015530803834 
-0.1839081111961597 
-0.0521314145228052 
-0.1861627362107895 
-0.2474407247470239 
-0.03627913287842161 
0.0028137586049177 
0.03455641874337834 
0.002093097031196434 
-0.009298316928417573 
-0.007874088349721368 
0.01723825860462986 
0.06567443979805584 
-0.02298754022970782 
0.002430867767266457 
0.01621281049836193 
0.01063718770308501 
0.02510910195499801 
0.04693861968885771 
0.04547903085795343 
0.04161444765562729 
-0.008453420459286981 
-0.0546795699565118 
-0.02076890893947283 
0.05054972023628929 
0.03206918585440308 
0.03417820808137206 
0.08353047858721367 
-0.01164171398898302 
-0.02018792109109949 
0.008300271678513566 
0.03956826283504291 
0.1316475474226555 
0.08126701541215944 
0.04869696604215909 
0.09224440392133823 
0.02267260479903422 
0.08817726247168804 
0.04556312244906018 
0.063758783113261 
0.06222922676990057 
0.09617617737116793 
0.03667706178214648 
0.02722993071644046 
0.04864974473173067 
0.04337508516369965 
0.04023491668114691 
0.05553272747045181 
0.005615549581893945 
-0.02396517244872922 
0.04098276390744134 
0.05968665791012926 
0.07064697299615816 
0.07873160078999807 
-0.0255549556717697 
-0.01540549941113772 
-0.0318074877713103 
-0.06115550324165483 
-0.02036316552069597 
-0.02322686548657246 
-0.0007131363980990048 
0.08524712650217699 
0.01219928428749779 
0.008848456531845159 
0.01865825984771709 
0.0140829602770463 
-0.03945634813059258 
-0.02680465623501753 
-0.01263133888739516 
0.02766451636631052 
0.1320974010949728 
0.08211533911765535 
0.04330816532324789 
0.03581985343913521 
0.009268863672582138 
-0.007435408786953928 
-0.01192058233196208 
0.1038589664930165 
0.04019755284763773 
-0.04251001217359804 
-0.02190653081870601 
-0.01611218246703482 
-0.02711823053516657 
-0.02701601368575785 
-0.03589219806069442 
0.09582490184293753 
0.04122383673820302 
-0.02103228106013594 
-0.1049625590813834 
-0.007057957012569163 
0.03500842063556809 
-0.02394645134105142 
-0.0267597396145203 
0.02803820467904519 
0.001233713875082318 
0.01268505430339699 
-0.05476147901594557 
-0.01741624190681807 
0.08409133666241435 
0.01454467017061191 
0.04103982886711972 
0.05221682629643768 
-0.01246430150780741 
0.01268327509947383 
0.09886367888731347 
0.02612408481936828 
0.06657146409748525 
-0.006937455629937892 
0.05617810021241502 
0.05310090981411577 
-0.02248495352636624 
-0.007622073015652415 
-0.007621221005724791 
-0.006027866405142308 
0.02918995772945137 
0.04183684686925417 
-0.03326592596505097 
-0.005784627046505067 
-0.04972105860669607 
-0.1385134957501098 
-0.04087665686225651 
-0.002183601580473023 
0.03644447329686488 
0.09032654568908606 
0.01618403382726144 
0.00066574664739486 
-0.05197341424124698 
-0.09387070927222055 
0.007211765571528066 
-0.02021345036748398 
0.02114738448156582 
0.009955352315006372 
0.006553324090836537 
0.03572141655997253 
-0.0121743243557265 
-0.05276139524270171 
-0.01070233324241722 
-0.004665845844299168 
0.01865167785217381 
0.07444583712204351 
0.03058450351508056 
0.001267232187255499 
0.03378454163868863 
0.05846609495693721 
0.04294241911221138 
0.02566056944803061 
0.02102542604672968 
0.0236556082728199 
0.0434232357757439 
0.07129564982563859 
0.03639135099640124 
0.002808253933160683 
-0.01538762957326478 
-0.007860559224465477 
0.07817024643454726 
0.03552036629827382 
0.01909174806792517 
0.05418909393975049 
0.05808319186915799 
0.07398517365215009 
0.03291047388192125 
0.01830885716871987 
0.09560645551809437 
-0.04666942006887198 
-0.08190422903796311 
0.03276781747954899 
0.02228523300278733 
-0.02703439542898538 
-0.01668964563579423 
-0.03190348269775763 
-0.1000703328441295 
-0.07805104056636634 
-0.07272323283088551 
-0.1410248547946117 
-0.05438573809310639 
-0.03166454954062454 
-0.04069571274024692 
0.01187261068970354 
0.01306114701301007 
-0.02859409753409589 
0.002754102690446465 
-0.02960659145823651 
-0.007382774045042657 
0.03414245767034676 
0.04884233071962442 
0.05829124784087465 
-0.006268322918699326 
-0.03787788188111665 
0.02508042358857202 
0.02001439551380437 
0.08395689559855228 
0.04876286682350821 
0.02937871968339967 
0.01512493989937275 
0.03199381095927225 
0.01094674358387959 
0.02794089335439867 
0.00893840511214194 
0.07118719493322249 
0.02879941861835313 
-0.01173976808895035 
-0.02188156997606934 
0.005944948442599701 
0.004598736342983425 
0.0008822996213522761 
-0.07205752816068001 
0.01932589314011789 
-0.02692840915170464 
-0.06266626454218696 
-0.0500982901150092 
-0.04731939724432784 
-0.02838628978464451 
-0.01050033265436293 
0.01361944165892307 
-0.001965083482866026 
-0.03439740408060699 
-0.05394201511494316 
0.01288971205778702 
-0.05708507506180982 
-0.04163254084997639 
0.0009743668802415146 
0.0246237062786109 
-0.04234007386695211 
-0.06770105901746938 
-0.09244069324468224 
0.007216468020719371 
0.06633884086391011 
-0.02939371290187451 
-0.01836576758544135 
-0.01971521206662274 
-0.03099033628471778 
-0.05200035384540908 
-0.06681827113987295 
-0.02618854634131954 
-0.0125626587212648 
-0.0373237696241966 
-0.0353197392857845 
0.03111741815939567 
-0.0454174838587955 
-0.05616142710291191 
0.01336468584728138 
0.01274678204919415 
-0.006726692986459778 
0.05015951400779899 
0.005749744703753206 
0.04611990040895439 
-0.02035905036506204 
-0.05659276777149302 
0.01756257938042257 
0.02203751832420054 
-0.008845413364118012 
-0.02324226081504631 
-0.06344517524603539 
0.01751270363480249 
-0.03698342759667487 
-0.02689022826027723 
-0.07838951633968755 
0.01802592280673903 
0.006365135669009763 
0.008449055033830031 
-0.04542904043282481 
-0.01420888438909271 
-0.03567023894391919 
-0.007539849821764986 
0.007190101266376798 
0.04924397688615689 
0.009119686283199297 
0.05371652950326634 
0.0433557449839469 
0.02819287385215 
-0.01191368239151753 
0.006761067946592855 
-0.009201547879986845 
0.007172575851126182 
0.01385679535397136 
0.01030665236153208 
0.04758601308551427 
-0.004411095571959622 
-0.02933951871530882 
-0.0163715767686352 
-0.0333884861689016 
-0.04719393218817614 
-0.02253813814940868 
-0.008800076860227246 
0.02426471284290699 
0.01792360482135579 
-0.009871709846470827 
-0.04024641129402751 
-0.02774516382784163 
-0.08454901243730846 
-0.03497520068384585 
-0.008258966860163175 
0.009145811834353692 
0.03191227742148346 
0.004341215111990866 
-0.01875251598053185 
-0.001262356175083842 
0.005240668920281615 
0.0003147602012747715 
-0.03008915489521711 
-0.01159648715027716 
-0.007284630065543554 
-0.01238265484766436 
-0.08182529430223277 
-0.04670959012254344 
-0.004839859002223177 
0.02780293829487327 
0.05480465802622397 
-0.0329982826718648 
-0.0229596449596339 
-0.0970003363466637 
-0.02292440478826229 
-0.06346479275361773 
-0.07893446968730858 
-0.06186701324674733 
0.02258599485951073 
0.005382349465427374 
-0.01905492747832932 
-0.03153650345569845 
0.02023532745872595 
-0.01596461818801125 
-0.02396226742506056 
-0.01024680916944471 
-0.05507614345563646 
-0.0479303123081011 
0.06347984803591049 
-0.01510510520638229 
0.008571986926545164 
0.009731708030348004 
-0.03637888420291757 
-0.003853545451701637 
0.02613920672294802 
-0.03563900080312637 
0.003010021706407559 
-0.08416936432427799 
-0.0001195137761312633 
0.02622655887115477 
-0.01935270413403312 
-0.06552674045674353 
-0.01081414504092553 
-0.002281157206002827 
-0.01246659432405958 
0.002718292592930848 
0.03373364518496783 
-0.006941756241989541 
0.01242484573033898 
0.01443617877834894 
0.02551048084775079 
-0.01608178513664027 
0.003335950826193648 
0.02817259534942795 
0.02000371619745895 
-0.02130527313164624 
-0.007859422389483221 
0.007194434137519837 
0.02377509529716446 
-0.01920618358836535 
-0.09415562063533781 
-0.001393353361182923 
-0.007481732967474243 
-0.0434638257120559 
-0.0004858257238625052 
0.02995098386894996 
-0.02741997731832889 
-0.02119308374472531 
-0.06905307049033121 
-0.05239456639316589 
0.003187327857976461 
-0.06473184336030499 
0.01417963641565511 
0.05183418934886627 
0.03060946144399222 
0.03563227531158041 
0.007029887077693531 
-0.0299631391359563 
-0.02888742301673192 
-0.001666338506003866 
0.02619103197290088 
0.03715180887583189 
0.04118739055970425 
0.05261956525716304 
-0.01393324976653182 
0.01673211553784695 
-0.01084611488827971 
0.01347707935492165 
0.0557315528148148 
0.04675977248846232 
0.03142807053584826 
0.05841960876498636 
-0.05034957470754936 
-0.04372949412428832 
-0.02069347092595273 
-0.0008910681209266188 
0.01331992494152299 
-0.04046440104567223 
-0.03341079918398634 
0.0404001919821008 
-0.03287408041264311 
0.01299592743268824 
0.05871300593780562 
0.0376894539266056 
0.0229081390754703 
-0.03955472589648304 
-0.03142524250925999 
-0.0043846750042388 
0.02002938819226998 
0.04407558711851126 
0.0590174092616763 
0.03126361511323954 
0.03998728651453945 
0.004069561464184019 
-0.05123994141202672 
-0.02049811910369025 
-0.001416133046754389 
-0.01280985500092128 
-0.06846436739174801 
-0.0150074967641515 
0.06429491664758641 
0.02804415251910131 
-0.007928856647205981 
0.04022860439922221 
0.007542459416556577 
0.01604576303269147 
-0.001254316129995416 
-0.01518322377618567 
0.03883463154686669 
0.0229070341912083 
0.04686643382344853 
0.0680317224398316 
0.09822440140984655 
-0.01214889361599826 
0.009465484608806538 
0.03212833861578343 
-0.0004180472712941225 
-0.06235639580368806 
-0.03919481827344381 
0.01220447283309491 
-0.02850134228630159 
-0.03215448765964529 
-0.05956336255091142 
-0.1125879659063642 
-0.06044636598646421 
-0.03029257367129149 
-0.02529494310829222 
-0.1118950054841202 
0.03204195771434955 
0.04594290995987642 
0.0007624033596935129 
0.005317448385910859 
0.05290789392301828 
0.05009253643657071 
0.01094325670702071 
0.09080189812155842 
0.05459510491604999 
0.01340195560990712 
-0.02914361520689191 
0.02515962313535057 
0.01991641473483069 
-0.01503745736026616 
0.01617261333877557 
0.03347965933214531 
-0.01154275453958658 
-0.03344163484880253 
0.0019178786219017 
0.03500866147766993 
0.04890699994892273 
0.03571539101236579 
0.08281525317859653 
0.06267037406584045 
-0.06892107659053387 
-0.01927680807366845 
-0.03122137149934859 
0.06957038522546727 
0.09987835084069163 
0.1134311723346987 
0.1213284559817235 
0.06925541715304254 
0.01633642826282031 
0.03086961959266481 
0.02485317031650595 
0.058020870943346 
0.08486469182117813 
-0.003051405854364574 
0.07227791863586944 
0.05272618822385858 
0.05819923351954809 
-0.02340299138147345 
0.01961089217812544 
0.03628231821890517 
0.007426504738054412 
0.05015152222572307 
0.07767370887682779 
0.1230754918737508 
0.02453368104505641 
-0.04402319265145613 
-0.03744345395705402 
-0.05836125070479494 
-0.04688319044875863 
-0.04876019042881608 
-0.01743147606345204 
0.01088599597569874 
0.02070828108300234 
-0.00672180586879305 
0.007888885848275127 
0.02455424791671226 
0.01736714243829683 
0.02399170414041258 
-0.04866584387839128 
-0.08831908176938079 
0.08940682857375955 
0.08901196897872676 
0.04158877758844704 
-0.01755638195369896 
0.04801074230307115 
-0.0002162970835036821 
-0.02567601402786528 
-0.1092604435919991 
0.1507517034060033 
0.04141733361840209 
-0.03676928005921097 
-0.07049037201625918 
-0.0042898883372783 
-0.03073252537076811 
-0.08293322775447722 
-0.04143807591517211 
0.03382938440599833 
0.04657188788995135 
-0.08277096640688202 
-0.114064600925664 
-0.05993763660119093 
0.02284331723407215 
-0.1041436464273827 
-0.03054035404052924 
0.05354275066947597 
-0.06748051944294663 
0.001757856572410942 
0.0008739666419359284 
0.05675017156821147 
0.04410415697204093 
-0.008867858730007654 
-0.04051764256920027 
0.008430264927168776 
0.003531971025520083 
0.04044690745629679 
0.01579399926178074 
0.05497502158260237 
0.09911405494349715 
0.1124997132872514 
-0.01801972529610196 
0.0586456957955767 
0.01992319000430861 
0.02668196660372785 
0.005401621905598316 
0.01764143044469125 
0.009018094800363445 
0.1122226225367313 
0.05237799223314105 
-0.1907918325476581 
-0.148339589655477 
-0.07396471844687184 
0.09414129261173725 
0.0720672702010178 
0.009133239040708566 
0.008812282465620528 
0.08857925326258378 
-0.01853410247267348 
0.02652286436163669 
0.007777387303080236 
0.07322920191089191 
0.04997524520664852 
-0.03413581216301793 
-0.002551691590744951 
-0.09782736677033615 
-0.04042500576878185 
0.01893376554647067 
0.05011132907368863 
0.04610940275634248 
0.02543488528937456 
0.05938803550786125 
0.05368718550380629 
0.02564384254959372 
-0.15301223814096 
-0.038209253101376 
-0.04851076676219723 
-0.07670292264224905 
-0.05518673250419135 
-0.09571807547520139 
-0.03085619705458025 
-0.04111249666214371 
-0.1811222011175072 
-0.1113927499607985 
-0.07261459273172308 
-0.06624204653130142 
0.03000298384402341 
0.05594451353697138 
-0.06485880708768652 
-0.03657909097283608 
-0.1007640697486556 
-0.1630042527538831 
-0.09754413984160912 
0.00541295097552148 
0.05914507108717748 
-0.002725469127498853 
-0.09927137336771089 
-0.006488333145230793 
0.1213900119663594 
0.1428574904797702 
0.06056983275789372 
0.01735971008509998 
0.104943625189358 
-0.03934732723154066 
-0.08744404756759026 
-0.02690990239114791 
-0.01869416570471887 
0.1000996897029405 
0.1521214196433629 
0.1474579193936527 
0.1416485999431781 
0.07804997085506292 
0.04621428236299241 
0.004918689540797167 
-0.04891734173195113 
-0.01010643014386397 
0.01269625833208198 
-0.1013206948511649 
-0.03360249362495086 
0.01247748390212462 
0.02061278571552378 
0.03244090651237792 
0.03999566859263733 
0.04151414594282094 
-0.00627925328501746 
0.01057390211058052 
0.009367375683912223 
0.0505390330957068 
0.07041823898208219 
0.03387293697379257 
0.08920118837977487 
-0.03313066640371728 
-0.07959526846815758 
-0.03047020485887609 
-0.04589806874260326 
-0.07118486977935592 
-0.02369681874651278 
-0.02766117119803131 
-0.05608378731949449 
-0.02222890348797761 
0.02939740361837489 
0.06275241555585669 
0.03808459790476951 
0.03939716460109829 
0.09537026848110355 
-0.03991484849279157 
-0.05067696270849051 
-0.008583625510611374 
0.03870005536848301 
0.0138275131430008 
0.0006161160584242991 
0.01248105190166046 
0.04116401953715224 
0.004382061174471817 
0.004160781343323858 
0.06065888648489144 
0.1711411619664389 
0.1226734306264196 
0.001710236295058089 
0.08421547725882744 
0.06836092169120224 
0.09960611165599657 
-0.007604763576971337 
-0.01905678779534605 
0.005902797355171896 
0.09407484298927017 
0.1088289196982973 
0.03603883520876453 
0.103752491190671 
0.125379647105311 
-0.0179167686242532 
0.03518303586912731 
0.04584083987164664 
0.1232307155957308 
0.1084646113508596 
-0.04065607438148489 
-0.0395231598230425 
0.04756096327377032 
-0.07307131653716389 
-0.04294614351533317 
0.04888165012295331 
0.05224510883582897 
0.0655176762491332 
0.03196484039660996 
-0.06848348315286928 
-0.03997223124346325 
-0.04272557945020555 
0.02881281913126362 
0.09550330743236747 
0.007981739436321123 
-0.006476080817329098 
-0.06500786323434093 
-0.03326597401366984 
-0.01993911274807365 
-0.1139116554477564 
-0.02724327043691968 
0.05099771189637455 
-0.001795148405522027 
0.006851238143913334 
0.0418262937854036 
0.04994283936516368 
0.04886737895276684 
-0.05867651740104809 
-0.02772095140286895 
-0.006588804641261953 
0.01363360916479039 
-0.001946877504258602 
-0.02409654565475216 
-0.06336832570878059 
-0.0008961332538194437 
0.06537622251364925 
0.07128959256052546 
0.01430572165817412 
0.03505750837733879 
0.05328261225365536 
0.01434061260775414 
-0.008573340476697654 
0.05311893974588685 
0.07798187707441495 
0.05665351388424363 
0.001038197133862888 
-0.007374477213928992 
-0.02550751076125071 
-0.03867705810366686 
0.05560867126534459 
-0.01924698921256103 
0.03176285938300745 
0.01863209265826624 
-0.05181705733344329 
-0.02677120092887844 
0.02106113787038808 
0.005366913184567472 
0.05503200873849173 
0.01341853818360424 
0.003127620233441628 
0.02332005124792086 
-0.03187727527068586 
-0.04059178271248605 
0.008776308308345315 
0.04442381887056328 
0.1173464536306944 
0.01461862371151424 
0.03896624239534034 
0.0030762283424823 
-0.04618844801222811 
-0.01592566296801018 
0.01822807063685324 
-0.004075130465884113 
0.05206855634919305 
0.0156967580372495 
-0.06133661791264742 
-0.06809137174667639 
-0.06388164010203301 
-0.05831564172416967 
-0.03436997427001004 
-0.02146705084405803 
0.01226541065583227 
-0.01787229453013284 
-0.02481018846242045 
-0.03520536622426505 
-0.02335625412250374 
-0.005839021758473959 
-0.07081305705048868 
0.01236029643501865 
-0.0286485024790919 
-0.008573235225200908 
0.03271801745622135 
-0.03959725745213134 
0.0697921976782936 
0.03667177941863721 
-0.004244432953654478 
-0.05216865944498077 
-0.007986853774353112 
0.04332423430409411 
0.0126369603793483 
-0.01512304701926136 
0.08971166630089539 
-0.01419043963460837 
-0.0436396360824905 
-0.04508285398942363 
0.02528087206951327 
0.05109262311001184 
-0.05245576718899755 
-0.07640465782757529 
-0.008884811781023148 
0.001148613969236023 
-0.01743523683844738 
0.03041272955992649 
0.0346345221361103 
0.06312289392280476 
0.007208718410073691 
0.001176054366027914 
0.02286035086163446 
-0.01947956144743332 
-0.01156032202542451 
-0.01489050283214196 
0.03838178456392038 
0.1149052709372821 
0.07123630699198265 
0.1234075556416885 
0.140294107433839 
0.08310307417593894 
0.05473455256005798 
0.1205193040941308 
0.1117003533113997 
0.0671137879632859 
0.05354079052450227 
0.1017587489405485 
0.1662361644417609 
0.01502442669158854 
-0.009422975947320021 
0.03039843339347671 
0.03948908802618057 
-0.01429446237213378 
0.09186081532454551 
0.06177220001324323 
0.04978544739329455 
0.07739752192921887 
-0.001352075218652067 
-0.1080627164925052 
-0.03861664276864847 
-0.03184796783191354 
0.04581410563018207 
0.007149324776043952 
-0.08537607422772661 
-0.01931332397446866 
-0.01306989557059946 
-0.05519070643039629 
-0.006021174519242638 
0.01150420366618704 
-0.07568903350353334 
-0.03147437500910215 
-0.06342173769293293 
-0.08752494285205462 
-0.04166749010282248 
0.01458761621042229 
0.01525360004806638 
0.03566054386433247 
0.006563950602959723 
0.03838357082495542 
0.05055836848317194 
0.01047486054669993 
0.02381019291684638 
-0.07095744625004015 
-0.02457471976882663 
-0.05489463919527912 
-0.002068978060151884 
0.007823932523668397 
0.08451396701508343 
0.04254413032363288 
0.02523192017132681 
0.004483055856030823 
-0.009892117941152263 
0.008674464027653405 
-0.03034566235186917 
-0.07592535924483872 
-0.02485501070010759 
0.01694651793515537 
-0.01037179462902121 
-0.03320868877681179 
0.03064483931221829 
0.05451521122818778 
-0.09093277776406784 
-0.07283950514126288 
-0.02602726112169515 
-0.03855765269864805 
0.06271405861711352 
0.0204091345744797 
0.0294183274244993 
0.03077398581515468 
-0.1249729327699481 
-0.06780815358252056 
-0.1001618888419643 
-0.002141019994134438 
0.01730203445128797 
0.03390830609646413 
0.009878653393563815 
-0.01609736227128248 
0.06499945850831039 
0.07089566416020006 
0.07839850163610994 
0.07830948525723691 
0.01206853428361088 
0.01123829548958458 
0.04012660340937634 
0.04457683263977409 
0.02942018775105686 
0.01427173334455547 
0.02619753203102166 
0.0540986437933469 
0.04739632623677437 
0.02304186565110978 
0.04890018511743248 
0.07639314612960942 
-0.02943164441695665 
0.007045863496958401 
0.06364430576525308 
0.04813453551280341 
0.0554126729377857 
0.1365974397441401 
0.1446069024868971 
0.06019107195239454 
0.0674975263465933 
0.031405779887351 
0.04330300051923634 
0.004682003940311723 
0.02257752965656602 
0.06485431645132486 
0.1656539205683644 
0.07341213242614167 
0.04613303129012409 
0.05728997912678605 
0.03797935410289507 
-0.03057823336140629 
-0.02349329358569317 
-0.01229600141565888 
0.1186777808546086 
0.06943657297566366 
0.009665582053891087 
0.02683455378225835 
0.09329046649268928 
-0.0458510782793085 
-0.00545567485242753 
0.05160338272232692 
0.06397810923484122 
-0.006939018573693663 
-0.0003394574183405545 
-0.01266423715574824 
0.01487384461994496 
-0.03252155940662976 
0.04847398320235738 
0.06889491494153888 
0.08780382920095947 
0.04532316977737871 
-0.07728540704237612 
0.009063166080328325 
-0.005909889113565838 
-0.047831261340047 
0.02530615406979335 
0.07584262491735011 
0.09334847390294627 
0.1116075022605932 
0.0156560644767792 
0.03607201933084657 
-0.001308877848443795 
-0.04662410596544622 
0.002277746616018442 
-0.0005502007599112877 
-0.00152260073423032 
-0.01128609523698664 
0.02659359115433759 
-0.02563286917818566 
-0.002735724684312734 
-0.08530020234886405 
-0.0463197727371225 
-0.02211741252403744 
-0.04450871349693179 
-0.04509489128552951 
0.001435859511956465 
-0.02830012579310542 
-0.01518545567055581 
-0.04377513135834678 
-0.04191269291584875 
0.03379900793517239 
0.07420453378906811 
-0.0608059090960295 
-0.01548490278213619 
0.0335787633661389 
0.07191002512265553 
-0.03411947649131954 
0.00238463272529488 
0.003584919269848714 
0.02290421060726675 
-0.008548037860022265 
-0.02202145358722629 
-2.575155651296903e-05 
0.003357945488341391 
-0.01787879284571552 
0.03202998197360717 
0.06437526922925152 
0.07392267808021312 
0.03623035182982088 
0.02629538051926195 
0.04105926762054279 
0.04572612546899376 
0.02992138899806955 
-0.01299494005346071 
0.01402828629506024 
0.05223424799317915 
0.03047323360919135 
0.07415084966805123 
0.05018574855885918 
0.004201982337266537 
0.03704085355124739 
-0.01278029777837219 
-0.09306302643352847 
0.003844618841419111 
-0.02105905592596729 
-0.005962754889227507 
0.05102856236434208 
-0.06225944608746321 
-0.04275228516118281 
-0.005304602326081842 
-0.05703144734726152 
-0.01799802963862394 
-0.01819769884464055 
0.01867083056710801 
0.01451323342086344 
0.01970053010479036 
0.03127877712908898 
-0.06544471502502403 
0.03729521279302119 
-0.002636195682326774 
-0.04676587152991422 
0.04289522452960107 
-0.02029660838728417 
0.01524401641191872 
-0.01833380692773924 
-0.07503273138179672 
-0.01301426381129011 
-0.00324965597274674 
0.01503826273036171 
0.04926733823499915 
0.01929466776372767 
0.04192487361509335 
-0.002861059988016772 
0.0117565734424437 
0.02327117000226921 
-0.01468531420785714 
-0.02202223855027778 
0.07511661872210923 
0.01565358788084769 
0.07924838132599393 
-0.01228062272541276 
0.003704684606611503 
0.02284247264304936 
-0.0790609006046942 
-0.08209588408998221 
0.06694610548986907 
-0.04563899143513631 
0.01644458069631749 
-0.03642560204286312 
-0.01652167281909268 
-0.07936320359774494 
-0.08406484284489753 
-0.09562866200282813 
-0.0937152113440996 
-0.0396153142397361 
-0.01777812077429197 
-0.03831371437398082 
-0.02399537442642374 
-0.06067316578689969 
-0.1108499444038536 
-0.139426867529021 
-0.05450810198969922 
-0.01719872895010463 
-0.02068994329639684 
-0.08211696044522299 
-0.01678280901804583 
-0.01901575800305691 
-0.04893379390266683 
-0.03576101092028509 
-0.05013578608755276 
-0.03143722087969775 
-0.0578419136810621 
-0.02929757629928081 
0.03633485889093927 
0.02789853505205336 
0.01782502887981432 
-0.01395021555224243 
0.02036779822832852 
0.009143091941122771 
-0.03196187035506508 
-0.03250200705261935 
0.02279414256593052 
0.01002864853510171 
0.04308249889152795 
-0.01002972807210935 
-0.03320669938604844 
-0.01627387746399749 
-0.06651832857536702 
-0.05483973846407418 
-0.03697763589168311 
0.01718678892228853 
-0.01463868871045654 
-0.02342206802510282 
-0.01338383545257757 
0.003284746014174599 
-0.0690984240002382 
0.01897242009287611 
-0.04834886731473977 
-0.04198349887744919 
-0.05712514263189204 
0.03462222338941815 
0.02641834129620762 
0.03754399226248418 
0.03701698532249503 
0.09741922631311366 
-0.02846678817386512 
-0.004828945900610787 
-0.0588631652758002 
0.05680170381915411 
0.03184317090732605 
0.02649242842506553 
0.009368209496572121 
0.07463641233690431 
0.06197893822324625 
0.00670403783431337 
-0.004290717732829453 
0.03287729580489376 
-0.04766437834394687 
0.02718711049088443 
0.04491833265866157 
0.04981340168735934 
0.08454591474149144 
-0.08025649202858159 
-0.06154309670522665 
0.01221346890841369 
0.02104232348621005 
-0.002226231638129529 
0.0715957746736029 
0.04492175414475438 
0.04198699164517749 
-0.03042020814975 
-0.08243041745298586 
-0.04424350655985618 
0.001555367495582588 
0.02936136558555729 
0.03920526361041424 
0.04473759751466858 
0.01924191177910783 
-0.08710100047353271 
-0.1020477788448382 
-0.0673846427076044 
-0.1371510889913519 
-0.02422768539299578 
0.03076331909829313 
0.06331935854930026 
0.04424451635631171 
-0.06858182619523695 
-0.1345412116144908 
-0.06180791581529778 
-0.008505428147595674 
0.02112988731630528 
-0.04133644553618078 
-0.0896928386269961 
-0.1305713257324619 
-0.08049536054348676 
-0.01336929304621054 
-0.003254768651655287 
-0.01102231838927507 
-0.09436129293744702 
-0.1082603645472769 
-0.05557547412283752 
-0.1441791434532708 
-0.05295751710674927 
-0.02438413232998565 
0.03958159138517512 
0.02636271442527795 
-0.09424792307776594 
-0.1031800366389728 
-0.05881268632352457 
-0.06902783550474108 
-0.03099989861591919 
-0.04305573783569376 
-0.0632530648018832 
-0.001331945744712672 
-0.1002008691589044 
-0.1353502036853933 
-0.1085821878623677 
-0.009147604376679672 
-0.07117349785234117 
-0.008210034698222412 
0.005551339727923954 
0.06761051625620897 
-0.1080304921473882 
-0.1045175060542633 
-0.1751447152180461 
0.006758740311892977 
-0.03230012645870031 
-0.009203582975387559 
0.03836042383495974 
0.1567909061210151 
0.03650304416017748 
0.05365431247774154 
-0.0426923043311789 
0.006486752254605785 
0.06179036189444621 
0.06391222705578946 
0.106233213718831 
-0.02772289209175697 
0.01236166689935356 
0.04527262189561239 
0.05206156430698616 
0.1203228229381555 
0.08762519181838251 
0.131236382690969 
0.1436557314356307 
-0.1611373184747521 
0.08468733310170447 
0.1780594280300402 
0.04191140321825113 
0.0691508063728709 
0.1103055508505141 
0.1212850197754248 
0.06994892944435657 
-0.1368439735065402 
-0.01988855571402513 
0.03425996726902331 
-0.01859027497125428 
-0.02422703536415264 
0.026934378898605 
-0.01473708951395763 
-0.01936259904413893 
0.001136352734176674 
-0.05516125910261771 
0.03720752099677117 
0.02901426768066137 
-0.005563622116337028 
-0.08476258884122811 
-0.02983344605046817 
0.003686300805907108 
0.06717793277589328 
-0.05276639427361181 
0.1112333269254808 
0.07427208754663095 
0.06620377807704106 
-0.04144480340269384 
-0.02270589731294265 
0.0211485943271023 
0.05233229568850425 
0.1020769621865221 
-0.004321034988893776 
-0.1180425787309003 
-0.150889987259284 
-0.00906132727001685 
-0.0447771778178792 
0.005823009423510614 
0.002995579082824744 
-0.03089108543499301 
0.02449852972830571 
0.01461254258326972 
-0.04512698903947363 
-0.06387384626328675 
0.003761210116750745 
0.0255020287028776 
0.04775294742441574 
-0.05550681343169436 
-0.003698871190769623 
-0.04475470593410083 
-0.03245719336391377 
-0.08248617129752087 
-0.07516523554834632 
-0.1080507435928988 
0.1537476408616241 
0.003005329669662606 
-0.04261219646208663 
-0.05036691162525062 
-0.008048448281722289 
-0.05583130842648797 
0.008961599570700274 
-0.102505845038626 
0.1826462767887538 
-0.01568230771922399 
-0.02037395470718212 
-0.01044973384426541 
-0.01122011498367336 
-0.01322601592643661 
0.03478523853123706 
0.02105519044387731 
0.1108558191610628 
0.01183797401613364 
0.0334148457256241 
0.003767785243939946 
0.01470486900546959 
-0.01440811285874698 
-0.02304912834496109 
0.06490269938262272 
0.007739175767090501 
-0.005793901972142555 
0.05746130479660873 
0.08038823037900678 
0.02290628584631049 
-0.0614898385061495 
0.01283647430968007 
0.04930344984898485 
-0.05630574173288105 
-0.02935952508312888 
0.0566230601493645 
0.04061940952992793 
-0.01966303641153424 
-0.0007435481641319044 
0.09387644717963384 
0.01354345440808094 
-0.1095167588987488 
-0.08562483861119352 
-0.04418991022527592 
-0.01055042178542842 
-0.04403613791503689 
0.02039843367385408 
-0.002844099432330403 
-0.06643406851430989 
-0.02076582722266063 
-0.08031831252990504 
0.004144728217844994 
0.0332631227542436 
0.003886251105520367 
-0.08617766014060473 
-0.1278149532015481 
-0.07549951754105952 
0.09106121786859533 
-0.04090053014698392 
-0.04858362753325404 
-0.04535689916814683 
0.1231052595792904 
-0.0116483529730061 
0.001001220389263427 
0.06212444336132608 
-0.1216615874902111 
-0.015204825249872 
-0.04783414286697192 
-0.05676046126483805 
-0.1350589014154605 
-0.1147167581929404 
-0.1047068990158621 
-0.1058407454984299 
-0.1218260035641607 
-0.008596363436013554 
0.005201607303139806 
-0.02209518907439922 
-0.09865443677700583 
-0.01526065778646032 
-0.003662987576653458 
-0.04229279309783102 
0.004440818551142652 
0.007215937797481232 
0.020055406097979 
-0.01459822105973192 
-0.07535700162160078 
0.01632931260655162 
0.01721896784991371 
-0.08437994953642398 
-0.1427532737410579 
-0.03036400928474135 
0.009090867090605352 
-0.02074947753421786 
0.007547801286556773 
-0.01087910115564168 
-0.0414818923698073 
-0.03912096374661943 
-0.05521817610812715 
-0.0504531645629227 
-0.02766600523524005 
-0.01044014334111337 
-0.02472142900082568 
-0.08840979910245889 
-0.001384958858222457 
-0.04270749522634026 
-0.1079640278000294 
-0.09160267200955091 
-0.06782311730443398 
-0.03296012413713621 
-0.009866854626269995 
-0.03791929917861311 
0.04038063186399022 
-0.01234731537894029 
-0.04181611435536162 
-0.03727465541865929 
-0.08258431923726861 
-0.01108681196214992 
0.023926116147915 
-0.05120400476328335 
-0.008973153836603022 
0.06746173041227074 
-0.02063818529577867 
-0.04405402860851563 
-0.04640429597149359 
-0.006246159996564484 
-0.003614844742856007 
-0.03769342305014949 
-0.008288143477735358 
0.06538090774462572 
-0.0438278281503245 
-0.05680057830456352 
-0.03978531254581468 
-0.02601557377200694 
-0.01053909199963308 
0.02374904165135217 
0.03037385156057592 
0.02263938178464569 
-0.03872274681460959 
-0.1161346267612812 
-0.07833536962369847 
-0.05718967752089545 
0.007487264420066354 
-0.003651070745408174 
0.03996390642783774 
0.05174013193217711 
-0.1286455885573423 
-0.07263648632254299 
-0.02167945216785784 
-0.04636471958327391 
-0.02751038237682925 
-0.06246676675754585 
0.03356240275869535 
0.04778316485433347 
-0.0002199453168717494 
-0.05955473653436637 
0.04114292825721493 
0.00739081695662757 
0.007447787221129534 
-0.0617005599498011 
-0.08510867487090937 
-0.1027285261861428 
0.006719556374125839 
0.001862014607013484 
0.009984571645450331 
-0.07086671147474354 
-0.09122189651134321 
-0.04956179826486537 
-0.0492801655995387 
-0.0975067350431264 
-0.01914055124298645 
-0.02810934277307658 
-0.06420613486617006 
0.0189672364038703 
0.01409728782105917 
-0.02728413519663882 
-0.05546398659951369 
-0.06016788902688574 
-0.03276501613790388 
0.01946274130581645 
-0.00682555508559362 
0.008440892071620285 
0.07802914013458467 
-0.01068253205398314 
-0.06944059905193048 
-0.05237194758104032 
-0.03662652186076573 
-0.05024454686640815 
-0.04912125842412642 
-0.03680173110032434 
0.06526901841508023 
-0.01731033248111724 
-0.08461720102793906 
-0.1005981883204406 
-0.04122928564857524 
-0.0213531933836734 
-0.04137185152179428 
-0.05911723898021213 
-0.0354682433676869 
-0.0317173880399385 
-0.05909628144467167 
-0.02022185421461768 
-0.009711986639780672 
-0.04088857311057052 
-0.05868512559242998 
-0.0773962454115253 
-0.05948044234728021 
-0.06485574125085172 
-0.003332089019517042 
0.02818344616698736 
-0.0275548974138177 
-0.008562468058879565 
-0.03831541587734053 
-0.1119059897987233 
-0.03844848100891175 
-0.07482610865415104 
-0.01938384583408853 
0.08315651185388472 
-0.03394916236143215 
-0.01612403696359845 
-0.009682973261105579 
-0.07838968043709509 
-0.03113223492949125 
-0.05210390112111845 
-0.04408518686651663 
0.06856974383020494 
-0.03092824916544626 
-0.03933219201305852 
-0.04755710329784812 
-0.0406558059713854 
0.0442789484762271 
0.09931014324498119 
0.02859283192982004 
0.007897776002249392 
0.004986324788798856 
-0.04821928824890986 
-0.01322950019005216 
-0.000149018306026994 
0.05871623226680354 
0.08918306418814319 
0.06843754339925441 
0.004054157620951408 
-0.02306399749215391 
-0.001625680173993592 
0.02811515458883372 
0.04819871112239146 
0.118892490674347 
-0.03438050573575063 
-0.03387306617977719 
-0.01611383941903818 
0.05072910372508629 
0.05126919132563359 
0.02977725635225652 
0.01822474955400373 
0.04885963821130574 
-0.05022265302043689 
0.03488851823193585 
0.0469775651444923 
0.06444838184710645 
0.02353111542106196 
0.02930833569642699 
0.0190170314947974 
0.01768995581399778 
0.003242482465842291 
0.0241875941500248 
-0.009152324109640163 
-0.03556201624155476 
-0.05304559276595013 
-0.01264629831748723 
-0.0005572256232361417 
0.01867574656749087 
-0.034460449944899 
-0.05722193026023697 
-0.07210701941441068 
-0.04773482962950153 
-0.01606750108036049 
-0.01294741400796813 
-0.08060207469805662 
-0.02994512453202564 
-0.03806886719958995 
-0.04373111825701147 
-0.08766213738109777 
0.06947608265128892 
0.01039656634813285 
0.01210000400907767 
-0.1064355670020128 
-0.0456878876695595 
0.05910426249952082 
-0.008387799209482476 
-0.03587102432690006 
0.08551965346421003 
0.02657634462791039 
-0.0228518398758797 
-0.05651083564095354 
-0.06048019853756692 
0.02159074049859439 
0.01552958961241878 
0.002756201432235989 
0.03597838446377434 
-0.01102760214989264 
-0.002765534541932971 
-0.002667122870228395 
-0.04139207961866496 
0.05004402732799941 
0.006908219544508263 
0.02964439344832014 
0.07199758279022224 
-0.01195797607030104 
-0.01715307527180689 
0.01163711453456691 
-0.04195029597326024 
-0.01087529879664519 
-0.0354423213090009 
-0.0241506510910578 
-0.03473819597637782 
-0.02760415815470392 
-0.03941313275237825 
-0.102584044796468 
-0.01239080824571581 
-0.02204550446603452 
-0.06612036349793686 
-0.08780970110498226 
-0.06194392487232676 
-0.04639594623028339 
0.02107823718611402 
0.03474272736027596 
0.03640557521659128 
0.09732639186538317 
0.04549266310553036 
-0.0103258491404599 
-0.05646953835451921 
0.02219389838569473 
-0.03003968407208748 
0.01319920661390386 
-0.002378402238563183 
-0.004370222178519997 
-0.03193234228532645 
0.003294119152239996 
-0.03375390402878855 
0.03038025640013315 
0.02201040030155298 
0.05479762525781939 
0.02517665394454175 
0.01855885292396144 
0.08459193740162062 
0.01959279322153289 
0.04140691713040724 
0.03787376598549334 
0.05201345139414775 
0.008133052415013945 
0.04398438180076095 
0.02993932194179605 
0.09644000388859193 
0.05668769200526587 
0.0701862832169767 
0.01451431675377384 
0.01397634234565206 
0.05194887735446687 
-0.0216223750312718 
-0.01866994323079919 
0.01505848687506961 
0.04041583586463461 
0.03283782399596887 
0.0639605782625652 
0.02015746092443893 
-0.01489791641162177 
-0.0655369906410941 
-0.06901740448967331 
0.06433945358247097 
0.09479123580195824 
0.01087311916279312 
-0.006726628878738676 
0.05239609385443317 
-0.004419748543605806 
-0.007440330510012838 
0.02419722254716751 
-0.008050046017742396 
0.04970904025251897 
-0.03787981640414651 
-0.1236637581845716 
-0.05690084017156103 
-0.02140641297905528 
0.0202201771317083 
0.007879707197493075 
-0.07208295384689536 
0.0255902038542268 
-0.04628952085103627 
-0.1003239259412924 
-0.01206481921106879 
0.002771980249386304 
-0.03045681296461214 
-0.03935902827761563 
-0.003718104562839362 
0.002327955713726159 
0.0252548281591906 
-0.03485131655160605 
-0.05878891784969311 
-0.06774819683857519 
-0.004366135507521661 
-0.02006213978719436 
-0.005989124598658597 
-0.05292012541850406 
-0.004349628813054764 
-0.03322262864011102 
0.0149557331707801 
-0.03536822891347232 
0.006901350028502874 
-0.03385617709861303 
-0.0958382369253557 
-0.04848285248953953 
0.01918752658491752 
-0.0322370250113327 
9.072019700465898e-05 
-0.04311782757619625 
-0.06098329628957026 
-0.03804936702753623 
-0.05087555042950413 
0.01251511089911133 
-0.006298372872607184 
0.03496465443872564 
0.0630822450257984 
0.002262317872330921 
-0.08941028466322692 
-0.0262523371768024 
-0.03201908782877163 
0.03614309703345644 
-0.02577478963325582 
-0.04744093924735077 
0.03712844036662382 
0.06439664955435249 
-0.03876575287912366 
-0.0004148290542830204 
0.009123794369210521 
0.02671367633653681 
0.0416045028977385 
-0.03926723536462105 
0.07117667142765872 
0.04098408177679886 
-0.004182728064682003 
0.04799019013585888 
-0.006536972489058355 
-0.02239600035469162 
0.1124709178278859 
-0.02997582143585483 
-0.01874501909112881 
0.01195929054620038 
0.02637836381077112 
0.01407767342425857 
0.01863116044459735 
-0.02770442054291358 
0.07094649959198636 
-0.02525038356721811 
-0.03194242657366271 
0.0076427514423086 
0.0629009372982393 
0.04111470614615645 
0.07611544136664213 
0.03437592174138445 
0.06183554015805743 
0.06151515984799679 
-0.01882918763052474 
-0.03672827337486118 
0.05483553420689809 
0.04094474552096034 
0.05099319146146186 
0.02033169061004532 
-0.007460580425549212 
-0.01711145914151478 
0.007869989759269495 
0.09357279001479661 
0.06364317508352739 
0.03773832518598201 
0.04528893000031231 
0.02148201086789941 
-0.04122998250449336 
0.05334067274969714 
0.04485328105893962 
0.01665875028508123 
-0.01394438807268982 
-0.02925872932624089 
0.001334503928049839 
-0.004355427087224864 
-0.06166273332832522 
-0.06871183652358219 
-0.02562643070093297 
0.03716510278239423 
-0.03875785097061105 
-0.05610521956303035 
0.004799023502713473 
-0.008598127626368557 
-0.05258653316540757 
-0.05074988756265088 
0.01972190191760594 
0.01611172433481495 
-0.05933739025875985 
-0.1059178911413469 
-0.06375640523591392 
-0.03752780844829939 
-0.04026492833288622 
-0.0491691496155832 
0.0286968696105212 
0.06051850135259143 
0.1293598611502733 
-0.02662218294312116 
-0.08644286859878722 
-0.02066663543548184 
0.08624736646407882 
-0.01889391380213966 
0.0194725412913665 
-0.09779464831112976 
-0.1320518537903956 
-0.03118365627782749 
-0.05555543160676809 
-0.001945912010223979 
0.08131559311484941 
-0.04793044802104394 
0.1204725859037166 
-0.06506403573069794 
-0.1391374490677928 
-0.003347996850659026 
-0.03611705097183509 
-0.03765285369588958 
0.1258091600142781 
-0.05799779389408921 
-0.02169139260421162 
-0.09155092704769968 
-0.08898851746657881 
-0.06188218043515469 
-0.02418905132842213 
-0.0642138671380314 
0.2527053093918825 
0.04604061195977353 
-0.01548757571546709 
-0.002297768648880013 
-0.0554945123771428 
-0.03556074133090679 
-0.008182389927732122 
-0.2285377940824548 
0.1820294481330934 
0.07336630587650834 
0.1884560127404347 
-0.02062198656262023 
-0.08257599200398451 
0.04309029848330503 
0.04477316697410585 
-0.09638915989303865 
0.05237339406050311 
0.0137791777859697 
0.1196536724757096 
0.08239170239097009 
-0.028545215891442 
0.05051995109880027 
-0.03874080868663891 
0.0560122415916802 
0.067359916166638 
0.09792163129950612 
0.04392078990377106 
-0.02690748575240378 
-0.02746797625244256 
0.001879166000333829 
0.04613699682663795 
0.05415375500721291 
0.08541605825598238 
0.08625519864124222 
0.06769058384890123 
0.06369375055580064 
-0.02297470261446494 
-0.05395861052654573 
0.04671964668215178 
-0.05615370483543951 
-0.05691660687699832 
-0.04131930809063315 
0.04011107660861037 
0.05309414326485603 
-0.01582521113059055 
-0.03421677917735536 
0.05069441657680455 
-0.05312562857657242 
