solver_type L2R_L2LOSS_SVC
nr_class 2
label 1 -1
nr_feature 5104
bias 1
w
-0.04697677102755271 
0.01851551800701881 
-0.03091510004032976 
-0.04007268951217204 
-6.926898748925306e-06 
0.0942853597148193 
0.01940471477305243 
-0.03127855809990345 
0.1106724502035616 
0.1414474038150486 
0.07374852044174261 
0.0625885653519906 
0.005517361379298738 
-0.006145118033018798 
-0.07150531483836481 
-0.01803920432735047 
0.09304183096872691 
-0.00209748855260746 
-0.053068966434898 
-0.03439535619305085 
-0.07648738724237558 
-0.06030500755712453 
-0.04590280433022134 
0.001229250102293289 
-0.05654354303518055 
-0.006673558742835234 
0.04778567782205607 
-0.07724411685279281 
0.004700868136809347 
0.06360744219428825 
-0.008285187778085326 
0.01908839704914863 
-0.0898702894722402 
-0.0374753615748326 
0.03972681232826084 
0.007055765471500833 
0.09738626129435461 
0.112708118908527 
0.02912478698374798 
-0.007431145063995133 
-0.01011184759936315 
-0.06146053412408432 
-0.05256683810152854 
0.04908384417121564 
0.109809388058113 
0.07258156158190206 
0.05237249968099716 
-0.004247092220235847 
0.07871785297560942 
0.01871947239499578 
-0.02439148920876666 
0.04914032254195425 
-0.006167750746818794 
-0.01198476932342162 
0.02296732603447759 
0.003539857330911326 
0.04934670617681744 
-0.01498554856520052 
0.03137340881318832 
-0.004311758169180548 
-0.01530734310129722 
0.04425751173839054 
0.04273348263138144 
0.06703442452432798 
-0.01120408354698798 
0.002471990335812425 
0.005963185879019918 
0.002368350764279576 
0.02921539977699388 
-0.03111149609595583 
-0.01910580934361374 
-0.0381548889044823 
0.02695079108952315 
-0.004738040721861224 
0.04525576138957908 
0.02995211190310139 
-0.03247616904343539 
0.01607419729146532 
0.1126509350045836 
0.006839800362788568 
0.0001523188224876335 
0.03043082298383073 
0.09385024359856849 
-0.02019433095382853 
-0.03801729578154756 
0.1088938431328469 
0.1679844142596809 
0.04145284096011743 
0.02257515427218986 
-0.0656427337530628 
-0.07558048863536755 
-0.05990440935016878 
-0.04519523313723939 
0.09262278908472375 
0.01255762529375978 
-0.01244914647853697 
-0.004173210667052868 
-0.1045891947041741 
-0.09283736294815448 
0.008027657126922501 
-0.005689605151732745 
0.02223054038904849 
-0.03161858308188301 
-0.006609998056119271 
-0.0402414322976001 
-0.02382818536092264 
-0.03941573261898919 
-0.02834266354356118 
-0.04501982107602136 
0.001340657426450173 
-0.06170695561116733 
0.01494971085984406 
0.0002043228966084644 
-0.0544141136823579 
-0.1073483136569131 
-0.1457815751271048 
-0.06811377724312212 
-0.09671846910402872 
-0.1108741189092513 
0.02300337282650222 
-0.05948495870682625 
-0.04058572133203653 
-0.007086701032869612 
0.006512203203073305 
0.00206444895154042 
-0.01470349219658503 
0.0251553598093413 
0.03459527504223375 
-0.006850744394263622 
-0.01636235855991148 
-0.01957823641744169 
-0.09635151988064107 
-0.08534928599908287 
-0.005726834883974803 
-0.0883450148766978 
-0.02636213877759074 
0.04433506613639999 
-0.008595084337750985 
-0.04777899185009704 
-0.04273853540430682 
-0.009971273373134016 
0.07255025128443747 
-0.0463516433280431 
-0.01746503488449172 
-0.005984687967961047 
-0.04880964105334649 
-0.0224549884368266 
-0.03049264394816474 
-0.04207469975220049 
-0.04746174359984413 
-0.01118542873290824 
0.0003390689298153713 
-0.01919931033359697 
-0.06829983301228 
-0.04126644098107883 
-0.05648297639213786 
-0.02467705854109354 
-0.03827466780779868 
-0.05203775893090424 
0.1079826055492275 
-0.02535470063383744 
0.003750011509599369 
-0.09396262500605779 
-0.08370907144517437 
-0.04102307908479343 
-0.002090925208600841 
-0.04810848697349534 
-0.04832489245242491 
0.001504479100395946 
0.0665138502852526 
-0.05072094084959468 
-0.04582258047198483 
-0.04278022954102886 
-0.04574814155841049 
0.04759890769444111 
0.009487857185431509 
0.07450709570432804 
-0.05596350058627285 
-0.04577644744434287 
0.06528538053199587 
-0.09514158949781655 
-0.006750192123720409 
-0.05244693255912738 
-0.03750918703343033 
0.02522116361805695 
0.00338887062179261 
-0.002044904061135078 
0.04247632285446344 
-0.03047427031248318 
-0.03508728894688229 
-0.04710822653722079 
-0.08471508939949195 
-0.01822909515837871 
-0.03204734247815806 
0.01894496879681049 
0.03775679823977358 
-0.05965305912138211 
0.013241429942944 
-0.04376063308416037 
-0.0274867166682683 
0.02065843552607065 
0.0272673107791961 
0.004581916705502666 
-0.0618851388173017 
-0.07954505058671846 
-0.01542800053783953 
-0.04896503528938696 
-0.03417908688914356 
-0.07478631979291775 
-0.004922462262833401 
-0.1217492535329564 
-0.1004152919162533 
-0.03836269319368273 
0.07366683659102254 
-0.03642460905907732 
-0.07596964778242138 
-0.0728613659524559 
-0.04670134756990534 
0.007171940202057946 
-0.02539140247331995 
-0.06178985230615533 
0.09802996498277498 
-0.005756174791172647 
-0.1252342796177012 
-0.05409287704080097 
-0.007035830176519755 
0.04565591425506022 
-0.07832871846273584 
0.04605132634429968 
0.1490562200349957 
0.02209402712478045 
0.02574598704300302 
-0.03626020733444157 
-0.0361597818291878 
0.02210075993890052 
-0.02175027228989386 
0.004899498370229932 
0.03466175410052329 
-0.02846779933662764 
0.04893335183105026 
-0.05905466326604579 
-0.04128594127235356 
-0.05329732474096655 
-0.03708331011314223 
0.0009132729291779066 
-0.05369448266827754 
-0.02745559657052454 
-0.07545593032254452 
0.05425346106959045 
0.003470087575700782 
-0.05572737313526285 
-0.07314352116522055 
-0.04012248615007814 
0.01351172487715609 
-0.06781154239259136 
-0.03996653793706883 
0.02136404910100674 
0.02476256642440595 
-0.0728698017463566 
-0.05197231518166681 
-0.1047032842617497 
0.06534749268817629 
0.08059296315510375 
-0.05861695200470547 
-0.02314220069411587 
0.004075756368002633 
0.04535344078621645 
-0.0501773258355889 
-0.01270755005117759 
0.04814380060757875 
-0.01328675709591762 
-0.118593845651178 
0.04083032679550209 
0.03550316068061923 
-0.02464760098540633 
-0.0152870248921452 
0.01396728238769443 
0.05842564033426942 
0.02301593749788182 
-0.03584815802853967 
-0.007219814995100698 
0.07817934230204031 
-0.01605149893025248 
0.003457385419702125 
0.01026273657746047 
0.05268889603813306 
-0.01336778739884507 
-0.04527301193078746 
0.007602739615157731 
-0.02642794169666866 
0.03690114709107556 
-0.02747796335430836 
-0.04883963569070777 
0.03782083305569758 
-0.05809989859806024 
-0.06717741577899294 
0.01942856095364336 
-0.03175565635912101 
-0.01379948160463087 
0.003546106837505112 
0.005321492982668102 
-0.04674855406495626 
-0.08535422645698602 
-0.1278318517675298 
-0.01180638058368747 
-0.04369900757171699 
-0.08011978814140081 
-0.09359518100190463 
0.05284405329060227 
-0.05188789996359362 
-0.1015285098753395 
-0.08013494341606522 
-0.02259209089172397 
-0.0116049457778759 
0.02649856407388533 
-0.08944482040223695 
-0.04571457629683877 
-0.03044569613914691 
0.003121141571990611 
0.09079768674743756 
0.05405439126933635 
0.01771547653828775 
0.09925254487701698 
0.0997400336103107 
0.1324022268705368 
0.00855547875545799 
-0.08371394697656716 
0.0748017206103414 
0.08047866925045918 
-0.00987629542788254 
0.01128542715693685 
-0.009158063294953585 
0.009801001578102162 
0.04405327509175875 
0.13135491297896 
0.1005289906001913 
-0.001770391681454085 
-0.01956357731628306 
-0.05149516440221242 
-0.07332510351847268 
-0.1021326333907901 
0.02344362300303436 
0.1220670476811999 
0.02597870744418554 
0.001975804254598122 
0.09159784264745792 
-0.04331751932472235 
-0.06829361806184778 
-0.02498528907191543 
0.03832537209871169 
0.09664664328366229 
-0.02156483866494816 
0.01199356149240644 
0.02845492222244775 
0.06671232794744504 
-0.03531721660505192 
0.05644143336495566 
0.009544986795344922 
0.008061101692702089 
-0.009854886854527343 
-0.03227545169127084 
0.06181139854376731 
0.03298455409231437 
0.01140199083414046 
0.07043876802090381 
0.04137295884170286 
0.04563287018559498 
0.01088151466300147 
0.01087516841452469 
0.01865802325301628 
-0.03724332605991958 
-0.03551425631661628 
-0.00604020240987588 
0.006905666972690466 
0.07296028389756375 
0.1020799593281353 
-0.09865873966271048 
-0.0287729119065775 
-0.08267627426614607 
-0.07288489709448052 
0.05156275733146999 
0.04796467215139721 
0.05774491498631081 
0.01188624457604258 
-0.04966886079459892 
0.02391210853684613 
-0.02573118454382858 
0.02250103241225051 
-0.03268947354903694 
-0.04735111982728001 
-0.04131195377977495 
-0.005564661158955575 
0.04040225817523765 
0.004466694574455015 
-0.07227950744585365 
-0.04269727301816523 
0.04348536600426764 
-0.04638712243495309 
-0.08365619064168189 
-0.0158360018560879 
-0.04907054289815187 
-0.04532470176411899 
-0.0540563638452279 
-0.1216865564175226 
-0.05965484495067964 
-0.02833664881184016 
-0.0127237070803548 
0.07544864281700521 
0.03044955816713391 
-0.02986236706007103 
0.05517566764676304 
0.01153497175513778 
0.08636857108927096 
-0.04687518488792398 
-0.04148137777966105 
0.05152213784158102 
0.01315762441203602 
-0.03619992923442834 
0.03845034246475205 
0.005444532698907659 
0.01707559204589118 
0.007853151037345176 
0.04330965161144201 
0.07835506835761513 
-0.04095395233070157 
-0.0375827954387409 
-0.001747651120352751 
-0.03092205117033277 
-0.05496523371172422 
-0.02615252292622194 
-0.03650886765557761 
0.05864002247791952 
-0.0459410699271315 
-0.0186764631425628 
-0.03981436455265282 
-0.0967460351916902 
-0.08480898086033276 
-0.05185039513435682 
-0.08379363839817994 
0.03302818028872305 
-0.005125152108485975 
-0.02182724931396638 
0.05371091631834435 
0.02152239438778501 
-0.07266620703617364 
-0.06844146314707078 
-0.07501398544408107 
-0.04219129091460504 
-0.0379441618031854 
-0.0479601413752373 
0.0188879424320845 
-0.08168733521242601 
-0.0530387086503929 
-0.04141120877427638 
-0.06564992893378499 
-0.06271715986629534 
-0.05238381855961813 
-0.02814106800637502 
-0.07378287545071885 
-0.0487564841012845 
-0.01244719957755742 
-0.03661938375733628 
-0.04509541813750538 
-0.03171601428027711 
-0.02182624706009727 
-0.01292080785982724 
-0.01994172934184033 
0.00145467566310454 
-0.05092686744085875 
-0.06300118927828226 
-0.02970155030644674 
-0.1202539374107567 
0.03014281220399056 
0.004250589634433232 
-0.0213608857024176 
-0.04753764507275194 
-0.003698427108918316 
-0.02393861826036733 
-0.01033138215923556 
0.04120991756755207 
-0.01190274233129925 
-0.02590044802641586 
-0.0004318573913153435 
-0.02898689652546383 
-0.1046290587630767 
0.04228373957084391 
-0.05638255559339916 
0.01447101971208804 
-0.003988486976606142 
0.05769176911807444 
0.01103882680435391 
0.002035603412821696 
-0.07519131936517044 
-0.004698512365265414 
0.01422992847516686 
0.009388155865400608 
0.04442116868075566 
0.08523316895706452 
-0.0002912681658965875 
-0.06084775917811084 
0.05253048257716963 
-0.0405427463765853 
0.02414694472372346 
-0.0005415850532293526 
-0.05652897460733673 
-0.0228882075036322 
0.01422636871032371 
-0.04122216021387985 
0.001347305133222271 
-0.01756833280564067 
-0.003173773474749717 
-0.04295816127467407 
-0.04418884387734474 
-0.08359661019795592 
-0.02809167383255535 
-0.04653832713918461 
-0.09109601548047366 
-0.05615879584210515 
-0.02192113864950511 
0.004890920966024131 
0.03663294821693228 
0.009748234644429003 
-0.02335198992186258 
-0.1396954755050668 
-0.07635092019859796 
0.04242499093857963 
-0.03037465439070971 
-0.0547324538805021 
0.05401952574426349 
0.002009905169856653 
-0.06382810945995961 
-0.02269505012174854 
0.03765013780302771 
-0.006171551536785277 
-0.04476274004801563 
-0.06413387594854236 
0.04466319503040533 
-0.05775309905667163 
-0.05940976706838694 
-0.07485344861064749 
-0.06161468252446588 
-0.003236303983464539 
0.002361523707181329 
-0.03622477092251944 
0.004638037420374948 
-0.005622142869518085 
0.05752056473462888 
-0.02109817040813134 
-0.0458550062303313 
-0.03843423730054001 
-0.03618263393284709 
-0.1019713174190409 
-0.0399249379276625 
-0.02450384800220969 
0.03017262185380185 
0.07957618596117311 
0.01692453874369465 
0.02680105224882758 
-0.0305767549560715 
-0.1196952779490063 
0.02599927401300151 
-0.009389278037089161 
0.002024032741065924 
0.05774580850492871 
0.04093961578613608 
-0.05563252121676657 
0.05339910265417093 
-0.03582656698787517 
-0.05959096950021004 
0.01415935469796819 
0.03471984200605537 
-0.03570136363173111 
0.006525428300298556 
-0.04956666118002358 
-0.08832911968357245 
-0.1089577258432943 
0.007689950059894561 
-0.03105241190935915 
0.05812337703110104 
-0.02848959850936488 
-0.06898785826687706 
0.01207471868358918 
-0.04858905765172299 
-0.06686536024576589 
0.01279169813250441 
0.0008552620141075224 
0.07814546347217106 
0.008588372767390504 
-0.08166864359845451 
-0.02908106146219497 
-0.007970405802931572 
-0.02382692658841949 
-0.06104541345836425 
-0.01751907561242053 
0.01478765828416343 
-0.06494724818010303 
-0.03324866391517069 
0.002889062415323153 
-0.02480446332039457 
0.04672107723097621 
0.05659085615734316 
-0.000460746449611425 
0.03110103505109876 
0.03512284371586129 
-0.03394403417545844 
-0.028039606149848 
0.01812796709996646 
0.0561026730598441 
0.1123767939916343 
0.05991215154038065 
0.06130030129929535 
0.06105912350106543 
-0.04805804329743801 
0.07373465742727615 
0.06715022679358729 
0.07168892396991035 
-0.03361623224897727 
0.0844330813940814 
-0.04215173818779837 
0.003359441446327721 
0.04247943306812601 
0.02701293862768235 
-0.01759038469829359 
-0.0438188763368825 
-0.0814683133109434 
-0.004599184125403903 
-0.0446274999892648 
0.0235853161673815 
0.06696242619492729 
0.03268009448617486 
-0.03598917432669226 
-0.07237508610447092 
0.02145338004479689 
-0.03380433968952375 
0.006699848323770725 
0.003875803736337101 
0.04250096802543367 
-0.03138392461900194 
-0.0738217465117993 
-0.1003311199433216 
0.06255935130425212 
-0.0102793603959876 
-0.01107661581733745 
0.02886184725484908 
-0.02226773051516402 
-0.08952193405977159 
-0.07521290243748384 
-0.03762727459672623 
-0.01637622268452427 
0.01501788575436079 
0.003789996869287143 
0.001504235033243341 
-0.02025871739146947 
-0.06031468664299862 
-0.007205780317495806 
0.01501113547365065 
-0.0496155000719269 
0.0007312874264483617 
-0.020923912512463 
0.04166956236378169 
-0.03694730169149682 
-0.01207382422583946 
-0.02223060101019736 
0.006822347622078616 
-0.02409732416218209 
0.006952400481499853 
-0.005833813425242824 
0.01283496123031802 
-0.01770821297711296 
0.06356071192949961 
0.01488971128793266 
-0.01070821052262136 
0.07056861466984699 
-0.05079404458899804 
-0.02578943423446517 
-0.005383030156615933 
-0.04136982225412402 
-0.0132992071731269 
0.02532166495817013 
0.1189537917084582 
-0.03353692518910835 
-0.02532476570014022 
0.01235723574068424 
0.01916048772517736 
0.05918150981253588 
0.02279866320054189 
0.01793423849387693 
0.01129489340783545 
-0.05982944926595214 
-0.05604978687719041 
-0.01467497310783615 
-0.03765977089920391 
-0.01962583006166107 
0.01816566010285625 
0.0003629201993229585 
0.01333272920052342 
0.1340508992212803 
0.1196255437318412 
0.02522236358611742 
-0.02995031737048157 
0.002594553687419529 
0.01909365627941691 
0.06138732980842976 
0.08319200789225906 
0.0225519022972318 
0.02127412218223605 
0.03106001099791071 
-0.08157574586903293 
-0.1263400595194696 
-0.07399838602059769 
-0.08552230449540099 
-0.1332869098819634 
-0.0203978730193907 
0.01207151663588907 
-0.1146773783340243 
-0.066521480700313 
-0.03709644235026875 
-0.0647451344331862 
-0.04459672125093747 
-0.03877106955680325 
-0.0519628331828615 
0.007024508632861448 
-0.07260070188181167 
-0.02556326543788813 
-0.01285916904425178 
-0.04435095428675908 
-0.01604581799094978 
0.01765853601572217 
0.00047858039886588 
-0.02927691902257984 
0.001211508503152481 
-0.01759570119003183 
-0.04026517491121863 
-0.03361408473814865 
-0.07949018103157884 
-0.08428392680780226 
-0.01581783962645694 
-0.0232624454454383 
0.01737927096418217 
-0.06900600950950196 
-0.03091834419325368 
-0.007629527057894388 
-0.02634355157652534 
-0.04213560031128875 
-0.01469112379749871 
-0.04682526897642585 
0.005606099673163834 
-0.07962790702767067 
-0.06385054486272261 
-0.02813850221143573 
0.0008518875830184009 
0.02679356370664876 
0.0677090817419696 
0.03508313720429647 
-0.05512320961704221 
-0.1299354723757623 
-0.02536201672402052 
-0.0325799487185708 
-0.04660882172890542 
0.009278896257014488 
0.04875764969133379 
0.009344440039691542 
-0.06129712373972242 
-0.05120518224154528 
-0.0353604437289832 
-0.07427049173563528 
-0.06227193290997211 
-0.0344431507675563 
-0.08857521241632003 
-0.08843733171060424 
-0.05898606948907037 
-0.001773859753541412 
-0.02834020306794706 
0.06691117925737211 
0.01265708642898388 
-0.003747462400556774 
-0.1399827356121452 
-0.03201552694229058 
0.001512713000675973 
-0.07591513124156454 
-0.07562059631537725 
0.008532989794842436 
0.01364748451579071 
0.006772176571868429 
-0.08896929279667569 
-0.02453446953774061 
-0.06321845456261251 
-0.1474384893012154 
-0.0678682611956995 
-0.004354550721482196 
-0.06717127688408335 
0.04573142392497875 
0.03295851842165553 
0.02883865507429325 
-0.001285726046202201 
-0.04139735881896386 
-0.02289053022564423 
-0.1240350602991078 
0.02301779555799831 
-0.01630449513451653 
-0.109310335942647 
0.01570662364703835 
0.02222250848902645 
-0.08522994256019159 
-0.004235055476275144 
-0.02035852167529177 
0.03561459862545342 
-0.004194957945146995 
0.00338863728577583 
0.03433771412382229 
-0.05791066802382815 
-0.06311180286694494 
-0.03743168707440622 
0.005984491052128826 
0.1054763505359096 
0.02588326295896759 
-0.07416469452666283 
-0.1132195873270918 
-0.08113907774968544 
-0.04507123652246349 
0.01408026209933721 
-0.03844616117703851 
-0.04427802129493904 
-0.06840084343998268 
-0.1212173335945738 
-0.03161109737995123 
0.007611768646865358 
0.07745773925057892 
0.01396769276115173 
-0.03975818089774016 
-0.1562269944393553 
-0.05778522066452482 
-0.02498724514314097 
-0.02330216575113652 
-0.01142968259323998 
-0.01201490091647511 
0.0844521180415882 
-0.06220698663613884 
-0.07128073650063929 
0.05238248277488878 
-0.0184482479262126 
-0.06840913188509681 
-0.008101055134851858 
-0.03525081352848754 
-0.03275312315608232 
-0.06732336723675908 
-0.005493084687479438 
0.1179351774094772 
-0.02936014919721556 
-0.03902651619184851 
-0.02176644049628063 
0.02166611391567608 
0.0546996816899523 
0.005694672954821359 
-0.02548879071572941 
0.1036020363215925 
-0.02893062555275648 
-0.02778474058508287 
-0.04179785409547625 
-0.06123341763819071 
0.02931373364214257 
0.02783092313773992 
0.02484190402371182 
0.1068847906284609 
-0.06648812933661917 
-0.0483552383014803 
-0.09460959933138914 
-0.1143164838589878 
-0.07250922839362402 
-0.02638842428140857 
0.01645862948330083 
0.06485211042603539 
-0.0592661106520631 
-0.04693835430774985 
-0.08955593601506859 
-0.1663168302910873 
-0.09965476259890893 
-0.04130603067829876 
-0.01616947707551741 
0.02228499994597847 
0.08297566052325622 
0.1123112077267501 
0.1014646943856647 
0.008293270935378941 
0.09756055131246132 
-0.08531704952911338 
0.1062633305098017 
0.06402468357372161 
0.05334661614897582 
0.00869828936694864 
-0.005492019629698132 
-0.03796057021150089 
0.03436614010518458 
0.003133058421907955 
0.06576361173570364 
0.03132649063545163 
0.03912288698653027 
-0.02526616816657235 
0.03371254469560438 
-0.01723106942283982 
0.1066188637210434 
0.09409547809497983 
0.1009821257354194 
0.1379337365203527 
-0.08970727229450595 
-0.1011672279410101 
-0.03497445228952717 
-0.03133100864830602 
0.02559067072355185 
0.0008286044702596067 
0.003519855658543686 
-0.003499943357024711 
-0.1062755062788026 
0.115451468295682 
0.1049091228168992 
0.1137209992143385 
0.008339609640559423 
-0.03993975740657194 
0.01380484935194277 
0.007463541637626312 
0.02641183936015475 
0.0529168888397426 
0.04059184803990704 
0.01976258886357707 
-0.03451244759107305 
-0.1197180977259506 
0.05245713879703102 
0.1000219171173776 
0.1092836545637782 
-0.0439093941988828 
-0.1252568404751075 
-0.002406201824455812 
-0.04649115038272782 
-0.08581078299877457 
0.1303301502626739 
0.2039521090243769 
0.117282838828656 
-0.01471518624176897 
-0.08882117847666171 
0.003183884476182191 
0.05162906208522167 
0.008557249796794477 
-0.003876694185309726 
0.06559880222617542 
0.193045545044862 
-0.03099463484298084 
0.07592468353230265 
0.04093529180448533 
0.04861144516273537 
0.1001504537179285 
0.109721453522043 
0.15086982283293 
0.05334455672452244 
0.003013742621740262 
0.05929082463491853 
-0.01583630390880147 
-0.07615466040440641 
-0.06288646169608313 
0.002255476249830891 
0.1060005265408007 
-0.01299895423715551 
0.04656805914194719 
-0.09024446391241872 
-0.01884058785494754 
-0.0021885407901325 
0.05218193918956951 
0.02298605695580786 
0.1468209723432334 
-0.06663065731052387 
-0.002422566285171416 
0.0737510933402713 
0.02148077524694599 
0.01774156544191095 
-0.03247591764454871 
-0.01901278840151883 
-0.09404027442030009 
-0.1294328232397946 
-0.03560186281786785 
-0.0656506214905654 
-0.02530704515522353 
0.01908266467585579 
-0.06968073092302302 
-0.1390708948777097 
-0.1088206948594158 
-0.06540595418403589 
0.004922947679307571 
0.0634639660982628 
0.0006804726674540205 
0.02557685800460685 
-0.004089960205585621 
-0.04541729799106868 
-0.03254164904011618 
-0.1263376579341434 
0.01373161215738704 
-0.07290326447722052 
-0.06484580366489717 
-0.02552770846416764 
-0.03027982486577063 
0.02854040989910708 
0.03298602762446919 
0.01344862250837018 
0.03308695754631047 
0.01031152461993085 
-0.006200956482457564 
-0.06436406498934849 
-0.03034963029194509 
0.003583810602722455 
0.02978493153950606 
-0.07936309933863912 
-0.07398363261171341 
-0.01523987776989708 
0.02635304421106232 
-0.0922080434056933 
-0.05027266010287439 
0.002124935180938663 
-0.04283995810018809 
-0.0674989178831055 
-0.04488050501363862 
0.008435789940065637 
0.01780694124886191 
-0.09585899283392481 
-0.007699480746575255 
0.03869601642198042 
-0.08420411421840546 
-0.06174816239645313 
0.008919984264068245 
-0.06852072245523033 
-0.06384835306167122 
-0.02297684690191373 
-0.08267606657681992 
-0.002481123015264468 
-0.03531726193965801 
0.02469066212160428 
-0.05988433861013351 
-0.003746869433734509 
-0.04681847453154298 
0.08069617703429183 
-0.055245032857329 
-0.08117277078877376 
0.02093185405045191 
-0.004643193599915186 
-0.07387519539618558 
-0.004632195241540504 
-0.05885068694094691 
0.01445448540037565 
-0.05800528375802358 
-0.03441864667311601 
-0.07151367027824138 
-0.07601611535663362 
0.03917054847955583 
-0.001224140056578367 
-0.000609399672415486 
-0.01696070991996496 
-0.1150968506456077 
-0.0365304020438902 
-0.06432762264996014 
-0.1572691952506322 
-0.09593143023503117 
-0.091512002974607 
-0.07433156339378215 
-0.006749465901915245 
-0.03976490618292946 
0.02121661508571208 
-0.05768281945088573 
-0.08070633113622717 
-0.05349668800403703 
-0.07125880612475935 
-0.0679560043826218 
-0.06164012500811044 
-0.04516352629633855 
-0.05695020184540306 
-0.07645005516452955 
0.0232112525282899 
-0.08824585673162949 
-0.02512095852535622 
-0.02626361786739468 
-0.0363757874186184 
-0.00955694864174513 
-0.09477157465552348 
0.0003018622410258865 
-0.05726580133029208 
-0.05299796636877062 
-0.05383070764769502 
-0.01341076158720543 
0.01789034644648034 
0.01599838096434065 
0.09535785211099786 
0.02629476844344059 
0.05180144988033811 
0.08341061794025097 
-0.04859195082774138 
-0.1214170319764713 
-0.09767830825608004 
-0.04243084891318367 
0.05778301465711094 
0.02118596606903843 
0.01186811878238173 
-0.01929025237270732 
-0.07099917440620365 
-0.1450037506406009 
-0.1018426218346821 
-0.02071039747807989 
-0.02739696153720234 
0.001377758477249222 
-0.02658183407782272 
0.007690602033308454 
-0.00184732304210645 
-0.05088363348480129 
-0.03100954316036538 
-0.03794617039522448 
-0.04839242682145277 
-0.01977686437056068 
-0.02823820930864398 
0.05475591625733531 
0.1055862916653776 
0.02651523565956606 
0.02844269690094484 
-0.05621741510773152 
-0.03655897852409493 
-0.0003419588641799627 
-0.05254805778150008 
0.05212944551320404 
-0.01451660522559997 
-0.02119497051109466 
-0.01927943206083532 
-0.04716526658705315 
0.02846395030472855 
-0.006282988450732329 
-0.00166463844277679 
0.0599355381653637 
0.01925437316782206 
-0.05082875617226232 
-0.04620304071899814 
-0.09359344621160486 
-0.01880000720720906 
-0.04514810896797875 
-0.001508584239322252 
0.01162157350569301 
0.005564246681530563 
0.0149816725542385 
0.02176151045401216 
0.005196669664431715 
-0.06128815916754627 
-0.06307482151408693 
0.05136783650846653 
0.007172243874935978 
-0.02658654097780878 
0.02950292184712111 
0.1737281216025756 
0.02659912287346122 
0.009488759353834189 
-0.06227569235849836 
0.05490988425313147 
0.04060249235364411 
0.03741585474781674 
0.04133481918860771 
0.04926942398794489 
0.001532295049783704 
-0.02565575356537751 
-0.05419299404006706 
0.1033720458474319 
0.05050055963358573 
-0.0006100077885088976 
0.01088670000951424 
0.03638010797600782 
-0.01717302899803173 
0.0643710773812633 
0.1280683411323192 
0.06025659446519693 
0.02495316018567205 
-0.07330292085474041 
-0.08170241283517192 
-0.01481368481780658 
0.0974761182835719 
0.0229364434582698 
0.035430677559927 
-0.03466577067999894 
-0.06885064589410061 
-0.04903394634473972 
0.06013404372646407 
0.1066359277607906 
0.02262046205153494 
0.01328897664997026 
-0.06692496615822295 
-0.08139354201112796 
-0.02760917338970316 
-0.05173976289759833 
-0.05704219558992225 
0.07536008931536818 
-0.050565550480581 
-0.04641522193008876 
0.0163055429025024 
0.01135006940395043 
0.07253503569437522 
0.07019800822805974 
0.04095435538681567 
0.001506494202848591 
-0.06042445853329228 
-0.04716191940995382 
-0.03558585130432272 
-0.01059108816145296 
0.007067271302383974 
0.0361162687596646 
-0.02244525524895391 
-0.0201768116585145 
-0.02350026613482108 
-0.0006450936620096162 
-0.02455389089961912 
-0.06171334726104826 
-0.0367008334552842 
-0.02317130393110285 
-0.02830389316006758 
0.03780028232768871 
-0.02925294190890476 
-0.007164079898965352 
0.02955102781154136 
0.04791712999984371 
0.04342806427234753 
0.01133448172919557 
0.006386776950000768 
-0.01956467730948276 
-0.0290703575257116 
-0.02108158507181233 
-0.0829412379094769 
0.02178640243233767 
0.0093220206929819 
-0.000386936941374659 
-0.00794953938023482 
-0.04332762007961949 
0.02912263127174373 
0.03060984134992514 
0.06906712997446572 
-0.03511932922637904 
0.138462332392694 
0.09894847311174533 
0.007355455923877712 
-0.005163770748324563 
0.07524462748591564 
0.1116933448762051 
0.01765098152901029 
-0.114681647411176 
-0.0410619671284355 
0.04939998623401216 
0.02872147710266248 
0.0907018913689325 
0.04834460591509347 
0.04369370679125351 
-0.02128091399627819 
-0.03089343816538691 
-0.0008907066392691502 
0.06160075917875223 
0.02254871857616193 
0.06417783843249561 
0.0303458310835753 
0.06541065118003837 
0.02119483856315083 
0.00650825618825217 
-0.00432038844832414 
-0.04784614664406723 
0.003786513425813107 
0.03774921577143349 
0.09620756880252533 
0.06384663626965524 
0.00590007668145389 
0.0004492455741691534 
0.04809898500946201 
0.05170340154570951 
0.06657657794621501 
0.03854873460435096 
0.06607764123907142 
0.0743034964604259 
0.05884904244788176 
0.0203385591250585 
0.02752668858847985 
0.03796827542940512 
0.06635480924584901 
0.05914582705432092 
0.06665366994191607 
0.01137418413710893 
-0.0401833480664663 
0.02429639804396192 
0.05095109926796723 
0.05939740374053679 
0.04516882648990827 
0.01288197788004324 
0.02614467754971646 
0.01448526395183054 
0.03135437628570364 
0.06920914158749548 
0.0722950907839959 
0.05090356407645443 
-0.001575122009652742 
0.02080099158695824 
-0.02864210423622211 
0.0529205381866165 
0.02796725029754584 
-0.09967332928873378 
-0.001698278371605158 
-0.0158277051939006 
0.003855397540684521 
-0.007549111219974304 
-0.04772614065664815 
0.02312077630539323 
-0.03787484764198794 
-0.04169272824267237 
-0.01043313684920643 
-0.004958243465589839 
0.01047538158620667 
0.1321015439287552 
0.02490697376132938 
-0.06987834224441238 
-0.01234197998480904 
0.01482464781634736 
0.02319766540358638 
-0.0240807510119251 
-0.02868425497058342 
0.08811493072391223 
-0.01760706158632484 
-0.08477276802596612 
0.03424258478020479 
-0.01661914530581648 
-0.005410608191770317 
0.1177339426288296 
0.1107410122107436 
0.01088160738806671 
-0.0005580200101650067 
-0.1013826681477097 
-0.1611210403863583 
0.002043517757142938 
-0.03087375758899304 
-0.02717806829610203 
0.01413256446252262 
0.02996546564404622 
-0.01055309442843205 
0.01268586823684707 
-0.04571236817442111 
0.09596368867725574 
-0.02168737434080564 
-0.02029392596742793 
-0.003483643144940614 
0.05091113038256871 
-0.05023697055533892 
0.006888653177273878 
-0.03426427682190322 
-0.07855880053590951 
-0.09240460936946653 
-0.02446787007493039 
-0.0235463180017304 
0.007528512766526444 
0.07588704368442706 
0.114764198948177 
-0.02811594653672114 
-0.07343089978186505 
-0.06208806134018706 
-0.08301802988778308 
-0.01577424731257435 
-0.03881827495636612 
0.04456977383354072 
0.0354543220276448 
-0.00822737404223373 
0.00814716007415958 
0.03015982227955886 
0.06017727169333501 
0.07191873629806243 
0.01525923334616093 
0.05615976700640601 
-0.01993358863608352 
-0.1186360193149109 
-0.01098655360479313 
0.0418057372185321 
0.01745475197347515 
-0.01851303258418569 
-0.001701317051805383 
-0.02777549647341175 
-0.02121062744060197 
-0.02141727714433232 
0.02790189229974984 
0.1004443935588069 
0.07401740022328036 
-0.01204610035992428 
0.06924556074907216 
-0.1190713952174642 
-0.04017740307766383 
-0.04171510214482227 
-0.05760038652390628 
0.002419160634135847 
0.03234868867407929 
-0.06112144556713948 
-0.05278943238278931 
-0.06238824771089366 
-0.07180028553450492 
-0.08642305501314249 
-0.02540923802157783 
-0.07466384633123083 
0.006779864329842697 
-0.06688444621345951 
-0.05899418149411453 
-0.07026669881323301 
-0.1319387703770868 
-0.07306560380818607 
0.009339106868959446 
-0.02734939245309846 
-0.05807863800931205 
-0.07171230147654264 
-0.02846592928962703 
0.005344332689423335 
-0.01339349395933857 
-0.06293460612399784 
-0.03739862006812837 
-0.02983779454577353 
0.03641523899689209 
-0.06253127623190362 
0.05450725997751599 
0.0315042285929886 
0.08166222888962489 
-0.01693121960185236 
-0.00059003971053519 
0.01712709137019864 
0.02261652019215536 
-0.05600694075129074 
0.03387045476080013 
-0.07430640551197222 
-0.08772764480538885 
-0.02600344368043695 
0.07570236415596684 
0.05090302195418443 
0.02989001972427948 
-0.0218041357648217 
0.05884889691463598 
0.03449702697158818 
-0.02238721652410899 
0.04440305313346833 
-0.01358582661104386 
-0.1103721950569221 
-0.1372962152352223 
-0.01420878672600231 
0.02955676814856239 
0.05446264277144858 
0.07310136626999314 
-0.007973315959209536 
-0.05408938593607234 
-0.03620888827970885 
-0.02941239103359377 
-0.005167433893505212 
0.05581836201156465 
0.02192814520854673 
0.04757056666889995 
-0.09742188924758813 
-0.01946830910097026 
-0.02576116757518049 
-0.0281990439882875 
-0.01754873619912417 
-0.02798533831892925 
-0.00171056384439417 
-0.02173941008168514 
-0.02782435937431348 
0.02968001936523258 
0.036199812831227 
-0.03358207086199338 
-0.02951468642606105 
0.02029108543780066 
0.001394640605779901 
-0.03814101435425613 
-0.004323050220778754 
-0.03017853957034316 
-0.004504909714551301 
-0.04874151882121418 
0.04320755463556136 
-0.0234111038210512 
-0.07527281725199372 
0.004947605581191884 
-0.0110234282233903 
-0.07867124130219899 
-0.04587724283707079 
0.03128909894404813 
0.01982774923363425 
0.08254163943018129 
-0.07843412413354212 
-0.06235816295645495 
0.02051160717214122 
-0.0734525002458474 
-0.0587558842834615 
-0.07977326290364357 
-0.07685481633508237 
-0.0278233436147907 
-0.0292692567364212 
-0.03882815592231872 
0.005065239253371827 
-0.1260692963581592 
-0.08394580940484195 
-0.1173576568640449 
-0.1146306790141915 
0.01174171482570532 
0.069451939046992 
-0.08998159282376358 
-0.02934713696500959 
0.0899191627004336 
0.02792467301675155 
-0.0287364252843134 
0.08775991466643181 
-0.0240336343486258 
-0.02934850077560708 
0.06910614737752831 
0.1193754129431751 
-0.03013902671127616 
0.08907089793212453 
-0.01233543392586968 
-0.06711275071933771 
0.05614343982306446 
0.06376828423731105 
-0.07222978073134285 
0.08348657570687619 
-0.07604961565998815 
0.05740443945833334 
-0.008013832917708425 
-0.08086223775100618 
0.002453816122333087 
-0.01140327290915001 
-0.1157402928812738 
-0.08328855480321194 
0.06098427467321832 
0.06300991070751064 
-0.06116382645526795 
-0.00760337720661167 
-0.009848272622463121 
-0.04464396879082719 
0.04335177361822269 
0.02722080047841231 
0.09608718193440832 
0.009067001369551391 
-0.0588475305265335 
0.009150215830129146 
0.01969770294408528 
0.03394272180510181 
0.08015298102943377 
0.08203013618084636 
0.0733400172797965 
0.01036787388754429 
0.06461239968128006 
0.0577684118766374 
-0.06555815900890144 
0.07565184532251638 
0.08624728949620132 
0.0197116321265806 
-0.07326388316621206 
-0.01061966146227178 
0.02635948516624617 
0.02245329527859282 
0.001782985860886134 
0.09782668173436135 
-0.00579294904326689 
-0.08702955139226069 
-0.07930182412896668 
0.00740613187668544 
-0.06903486978286755 
-0.09632567334048789 
0.06689133273367796 
0.06658751661300832 
0.004637244419701278 
-0.01684370082023386 
-0.08622114595778434 
-0.06550410121443814 
-0.07750624208814483 
0.01186549398630735 
0.05157735250670831 
0.05201725261519899 
0.1270879750441789 
0.07857079227504238 
-0.1110770859820471 
-0.08721626516749198 
-0.03213782083192249 
0.05066582432315631 
0.02272375351900947 
0.09152357181917546 
0.01820839857107304 
-0.03318946048325516 
0.03091595900170329 
-0.02752275783173294 
0.0003342450118470832 
-0.01025789314098431 
0.08272611960130422 
0.0566807081880589 
-0.03937235077778962 
0.05786509675151896 
0.04250148108700897 
-0.03183584680169745 
-0.04542202916062192 
-0.06062634197177858 
0.03049913900105791 
0.001270274554194443 
0.0435420286530909 
0.02348522170979863 
0.09939336305624925 
0.08339915209079045 
-0.01942575127554896 
0.01500452188200191 
0.05113975579555594 
0.05272484922514636 
0.04697582953717439 
-0.01546337252063878 
0.02130745644527755 
-0.01296664631416925 
-0.04186516576688176 
0.02892244829296426 
-0.006041264467939417 
-0.009503238954358034 
-0.04241436142308787 
-0.07294200383373628 
0.09705123854211278 
-0.002022026336202464 
-0.06096131598452265 
-0.06774060507439982 
-0.01846178736840912 
-0.06732714864722508 
-0.06229683597062612 
0.005049107980331793 
0.04935338064037245 
-0.02329388039419679 
-0.01225151442467952 
-0.04427813457072698 
-0.007747739252174216 
-0.005512589925656433 
0.1018947121041498 
0.06127378655878444 
0.01183551808926034 
-0.09155455173704562 
-0.0506972954729883 
-0.02313126942678225 
0.04224740310519991 
0.05464617430176679 
0.0425441743745135 
0.05504174002941534 
0.01957217779398121 
-0.03192311442150415 
-0.04112511962316791 
0.03522198099187951 
0.04796372687197774 
0.005334556771599467 
0.05084957866799236 
-0.01973853752006746 
-0.05092727237881683 
-0.007484368508407157 
-0.07277709214675672 
-0.02557522342253208 
0.02745968230064052 
-0.07351185062061065 
-0.02186513612563262 
-0.04271865530445465 
-0.04215443137623594 
0.0140019899051885 
-0.01238267578095261 
-0.03915517522566037 
-0.02382844126954491 
-0.03472767362352168 
-0.06212831678475876 
0.03279522689115578 
0.009452262059669741 
0.005042789282687343 
0.01649255414243994 
0.08623975586373109 
-0.04065999668871172 
0.005768266826604309 
0.01019956046036607 
0.04089504471021522 
0.01812055673443752 
0.1372298421120981 
0.0707578744202695 
-0.103310952178514 
-0.03496162798085221 
-0.05729435346245913 
-0.05960917897946373 
0.01539355303700638 
-0.09555727562866341 
-0.04074776883412357 
0.04848737926053228 
-0.03408623110509212 
0.06422566219226337 
-0.03085192646645681 
0.05418633263420466 
0.06273495649983635 
-0.01621787337111717 
-0.07771922371662436 
-0.003376861834733058 
-0.08028569743520898 
-0.009124932539182968 
-0.02370957131550734 
0.006564301746140699 
0.02010547256095416 
-0.03786982392816145 
0.02673765076487321 
-0.009378035862589059 
0.06348669901316163 
0.05564515983827469 
0.0001352999176657934 
0.03800662262069941 
0.01824244874792903 
0.04159813080424701 
0.07593703865079438 
-0.02637231341342023 
0.003007398710388007 
-0.07692834048755824 
-0.05854372614124466 
-0.01946467067493246 
0.0247004025641264 
0.01315026298776062 
-0.01051622637923704 
0.001672859747582884 
-0.03493368609152719 
-0.04762222005546942 
-0.02890696598567237 
-0.02572403098381631 
0.008933463216962718 
-0.03232027705501662 
-0.07717465460600618 
0.0363388703976868 
-0.003932184814164391 
0.02135297270993887 
-0.009621399323205878 
0.04324045066890318 
0.04776971006358889 
0.00919819068061719 
0.03148244157129899 
0.01793668188521501 
-0.0184737878252958 
-0.01179491756337121 
-0.1004471848852374 
-0.008894223808067776 
0.007086458699697465 
-0.03694027038608272 
0.09739948636165235 
-0.01590956287828367 
-0.06823559653401998 
0.01730822290785847 
0.02091665085510405 
-0.07417669505569968 
0.03711808453713777 
-0.04447740759378647 
-0.004712061344700889 
-0.02454183704050056 
-0.04830873364547143 
-0.02914373808844045 
-0.02831304876055782 
-0.00819489392828613 
0.08387555724217137 
0.02034632027088466 
-0.09209387258174086 
-0.08331644330058818 
-0.0695836725569922 
0.0685744042432023 
-0.0006995201162992445 
0.06090792829570385 
0.01621794712964773 
0.0476970327427242 
-0.01886673358659956 
-0.04075452500148567 
-0.03204874017226043 
0.08584861251679411 
0.03483569077396963 
0.08736555940606816 
-0.01530946568644453 
-0.02422388940821548 
-0.02592566797389729 
-0.03681275010341912 
0.008625148136088726 
0.03408993248150495 
-0.06617033436703086 
0.04417321839998745 
-0.02201515537371252 
-0.02777066388592266 
-0.006668445474820044 
0.03015342135728924 
0.01393064528056173 
-0.03853946135627156 
-0.02984267402851326 
0.05769130656774252 
0.0002738907586296788 
-0.03935242397662927 
-0.06375164291953685 
0.007480596929554791 
0.01167531237003567 
-0.02771889562885688 
-0.07803384996718654 
0.001631887614219977 
0.01464554188289361 
-0.05302988794891708 
-0.03487121743710655 
-0.01059434605504121 
-0.01535375922562666 
-0.07249990382465785 
-0.08376502143348213 
0.02833843706211905 
-0.005015587312047639 
0.01804796221874437 
-0.01208190384118754 
-0.08482819716431191 
-0.03585720252866172 
-0.006108585851570775 
-0.03336710296293754 
0.0686379251572118 
0.01228275948687531 
-0.0586918664466537 
0.0457469276975612 
-0.06572071283802698 
-0.0006653601376365962 
0.00820872256991164 
-0.08427396921505975 
0.0273334052770424 
0.0288039583035589 
-0.08083191096996184 
0.02874086970243903 
0.00428721203301928 
0.05418052139801994 
-0.04359559207221139 
-0.0535853562428181 
0.02413132890611704 
-0.02344380982944877 
-0.06318181376008744 
0.002381857006497122 
0.05533860440983887 
-0.02524915777300692 
-0.05929182418258825 
-0.0142286312118841 
0.09275568742729 
0.02201931861345269 
0.08298556750956211 
-0.01854125994075342 
-0.02989532240071363 
-0.03706846804049201 
-0.01046248702991079 
0.05275120099633417 
0.08120742701860927 
0.03570120724359478 
0.0490383615868961 
-0.003638340874928424 
0.004825215879935276 
0.06187521660489986 
0.0659817050897733 
0.03611481494829923 
0.08145364065838494 
0.1138356308496617 
-0.002857485354192397 
0.01930965129392131 
0.01420209540550971 
0.01164838620808794 
0.05124036563008549 
0.06603446190690508 
0.03464814764058144 
0.04601782250005634 
0.04049895261087963 
-0.01192767445949266 
-0.07501134598164783 
-0.08552575009564686 
-0.08327375565857877 
-0.03077912553754172 
-0.01919820245353132 
-0.0275289527544411 
-0.00197315678341023 
-0.03978962746084685 
-0.05923370281334235 
-0.06039531939883859 
-0.0877258703866672 
0.0283635395429598 
0.05131308734727739 
-0.01930978562899897 
0.001700613972865482 
0.02936154685760156 
-0.06893594024119232 
-0.07398104572780108 
0.008185041631472821 
0.07051399782367365 
-0.00947885260276793 
-0.03204182147323768 
0.03110741410866299 
0.02804685513733454 
0.009102877031997476 
-0.03083690402363279 
0.04248274969471714 
-0.007729759795831715 
0.02567020426886669 
-0.04606250349238771 
0.01391387976817963 
0.02454512698537271 
0.02653735450183125 
-0.06035747270676622 
0.02805545951164305 
-0.05122989091626592 
0.009507910345242131 
0.0717735509437505 
0.03520859201897465 
0.03078829415112954 
0.04457755271340666 
-0.01583070496028647 
-0.04114739441103291 
0.02731193583792622 
0.01810379855906116 
0.01600324209988301 
0.06878090566187114 
0.02309177563242428 
0.03671728692973075 
-0.02833109133253468 
-0.06142344087064742 
-0.03435282041871324 
0.02732867975931965 
0.03369893888558209 
0.09140803968193822 
0.05570700053020482 
0.01647207247873831 
-0.04700750361747498 
-0.02837467032800954 
-0.02054612293322519 
-0.02676419013482388 
0.01940603669766039 
-0.02103011737587643 
-0.005655307975550055 
0.02716300829911051 
-0.003959325544098669 
0.01319581248533247 
0.04414478095896118 
-0.05176066278628205 
0.02798027208545707 
0.01016069744139901 
0.1363273948010621 
0.07508868082148741 
-0.008176431311045807 
-0.07053186433206948 
-0.03432976998550197 
0.04707874831482368 
0.01187663038236397 
0.07064742291136319 
0.1861918446497604 
0.04805631634098567 
-0.003293453619589961 
-0.04899462867870759 
-0.03621849866813566 
0.02735793840421738 
-0.00555975899000085 
-0.03786975158108504 
-0.09870855454612147 
-0.02692327501141038 
-0.09534414478778253 
-0.01213972493755952 
-0.03774957194629312 
-0.05754465781776576 
0.000893675078550658 
0.04366982512675622 
-0.05304538585312517 
-0.06192937961854657 
0.02690660987538361 
0.01129402253196662 
-0.0142988387004698 
0.05097299600283971 
-0.001060691583792488 
0.0405948591965779 
-0.06924657985684224 
-0.007053856972598807 
-0.07171598931702819 
-0.02111382150582944 
-0.0458226569224346 
0.0008918906659900361 
0.02588575157587557 
-0.01397502894455791 
-0.06521071465956187 
0.01373123909347492 
-0.003622387199291705 
0.02308649824751359 
0.07524946421283221 
0.002629044906186042 
-0.04066932046612174 
-0.03962325586568358 
-0.01422590995545136 
-0.005596347724543455 
-0.02928629081274276 
-0.02558361329461233 
0.02649305528099229 
0.01176643566714636 
-0.05651717460395633 
-0.0690000584345092 
-0.0483025617583286 
0.03230620402910856 
-0.04878406221099771 
-0.02586463416120906 
-0.03644426833626615 
-0.03569124542896925 
-0.06592247239075058 
0.003977122342996268 
0.02807557686419408 
0.01894744442223727 
-0.05003080424716006 
-0.0583931901251586 
-0.0479481722652742 
-0.08902611883702929 
-0.08773325423623203 
0.088688515273516 
0.08043549109789307 
0.03719463884452628 
0.0036213492906341 
0.000195612733128485 
-0.06128555489966063 
-0.03886968261841815 
-0.0745472847040472 
-0.0008068976634796587 
-0.03729148776819175 
-0.06530898894633606 
-0.06813240844891286 
-0.04048182220137014 
-0.01094765594057372 
-0.04995374480314913 
-0.02047742306140918 
0.01096288660775175 
0.03285570641477651 
-0.005264981568713857 
-0.07980794796513763 
-0.04305636659022783 
-0.005999230817342502 
-0.0731960153082724 
-0.0470278321175053 
0.05140068604230764 
0.03128084749522594 
-0.06692953811437156 
-0.03239270417051377 
-0.07486171300022838 
-0.07073993824844592 
-0.08732900090843296 
-0.085676352940054 
-0.04263558046859112 
-0.07741978482777302 
-0.1008511327246626 
-0.0495901475392219 
0.01995461826259017 
0.0001661494122418886 
0.0837711687585575 
0.04663199859014974 
0.07685366310794478 
0.000180384731357095 
-0.03977077662694864 
-0.1007438174053762 
0.09551996239555119 
0.06931382676019926 
0.1169291128490042 
0.1191195833839153 
0.02005194706056637 
0.01827223708652252 
0.02097913146501586 
-0.021872050087832 
0.01451726065483728 
-0.02543276857694504 
-0.06884739191222088 
-0.04906979372443249 
0.0967268849456953 
-0.0001156832552615273 
-0.04924353999978788 
-0.04832874401029837 
-0.03106345542234312 
-0.0005888257164257466 
0.08604073558926792 
-0.02055480335177574 
0.05804831510101544 
-0.04443326627102871 
-0.04767534948377038 
-0.06986874827757036 
0.03119593597842534 
0.04527210763195545 
0.1905140193950534 
-0.0002417119616757528 
0.006285674181153176 
-0.07085042739445568 
-0.03712375607095415 
-0.04773947573036443 
0.07646889315243148 
0.02879968958980678 
-0.01388297158216059 
-0.00720594944426369 
-0.02711567331413015 
0.002110237178777626 
-0.01929251722187161 
-0.05157107676035978 
0.03581268735558155 
0.001242706987689749 
0.01368497604061559 
-0.05209791497166815 
-0.07085233146740473 
-0.01567865848850006 
0.007208030742199833 
-0.01165522697193072 
0.09048164795178176 
-0.0604479199693769 
-0.07032727307992377 
-0.004401590695087608 
-0.08957631586698887 
0.03478265827063919 
-0.01402822414674652 
-0.09325320377564154 
0.01111419797535793 
-0.008283560772473046 
-0.02095653088817353 
0.05698423664118883 
-0.06468122796411307 
0.01557381481082007 
-0.01847303951620397 
-0.02320947942881338 
-0.04147703929567917 
0.06279380543965482 
0.0808622473910969 
-0.002286633592572391 
-0.08931787930912521 
0.04125665247098366 
-0.01875277941414438 
-0.1247397488616667 
-0.01515774036998044 
0.07364046351928269 
0.01247560727558572 
0.007634985271579139 
-0.1191777691391177 
0.05235148308253112 
0.01832563435209597 
0.001235744089514477 
0.06452554978287142 
0.0697719215535597 
0.05492718863025247 
-0.08428176791667791 
0.07594025450419291 
0.03272991902760114 
-0.05721513905762533 
-0.05680223335870651 
0.0177589046835513 
0.015857325959634 
0.0418271624122772 
-0.02460894238814012 
0.119097452766209 
-0.02021379797408287 
-0.09085064278451045 
-0.03852246756854867 
0.08927133251415045 
0.08678601577293031 
-0.02160412265183103 
0.04120051410641408 
0.1398950959348986 
0.03803720346867641 
-0.1054086729129803 
-0.1123565433723226 
0.1231589805578627 
-0.03244959221845699 
-0.003347933097460762 
0.01552301356245028 
-0.01351968638547887 
-0.02434136683937315 
-0.1675667536516713 
-0.1186647474309924 
0.09418459524250079 
0.03486545420688052 
-0.0241206796078292 
0.01255073498728378 
-0.05046070238906854 
-0.04600898169116559 
-0.01689584670001164 
-0.05416979168047305 
0.04657516558276427 
0.04171307081000707 
-0.03201505697898593 
-0.01096504059706372 
0.004935653342839943 
-0.01202138630512545 
0.03830611265703297 
-0.03152247433938474 
0.01679877567372667 
0.02771744026877519 
-0.02797085331323526 
-0.03385635028666565 
0.07640224717486524 
0.04796832854661699 
0.02909252452286317 
0.06275646010465541 
-0.002331399196881323 
-0.1039062197794018 
-0.05908502545862975 
-0.04816871410017072 
0.04158203583231198 
0.03288273490860179 
0.06792850307777525 
0.02281644680597666 
-0.0431649336879418 
-0.07888783455849607 
-0.08903481704548168 
0.04828540631172283 
0.02418039305506206 
0.1038762703853198 
0.04549604220383081 
-0.02794283805309403 
-0.005181931923361913 
0.04539406537682459 
0.01170315223834995 
0.007563415768725138 
0.07034348134616784 
0.06099920707159776 
0.03489828607867887 
-0.05081078435064044 
-0.02146382642203913 
0.08420846171479857 
-0.1029468016202515 
-0.1376964232937209 
-0.00435185663809788 
-0.0007684714176493732 
0.04451550899393019 
-0.005211222479556492 
-0.02464775212449081 
-0.0626818100795308 
-0.06910055865594467 
-0.02829010055662241 
-0.003176435348771315 
0.03398081171630593 
0.02580816916918198 
-0.02287654969795193 
-0.01993462998867738 
-0.07816750535327001 
-0.1209733245662053 
-0.1215424796375979 
0.04327985815214658 
0.006509285656586776 
-0.01345481202283707 
-0.07610800168046564 
-0.05079218649175713 
-0.02556963032303335 
-0.03812657801029098 
-0.03544574835134316 
0.004139266376709446 
-0.05067879610262207 
-0.01828459493532319 
-0.07353408171362832 
-0.1140227982856919 
-0.1158633013895126 
-0.009934181041102871 
0.009162796477904987 
-0.008885268813179558 
-0.03013046449796076 
-0.009966620830732948 
-0.0868543374743556 
-0.152024042142296 
-0.06255175111704399 
-0.03569379213037628 
0.02485192771768073 
-0.1216635157169684 
-0.006434892814625337 
-0.0004415872895489311 
-0.06294492337361389 
-0.07203581818834368 
-0.00613663244755093 
0.06125455497597569 
0.07916396469699394 
-0.00677975212730745 
-0.002240572589318162 
-0.03478598823388867 
0.0002853648918941557 
-0.01849014141367115 
-0.0718046233701123 
-0.005842655737014164 
-0.05871441481140076 
-0.0486597016687609 
-0.0285598001624291 
-0.0376616588077751 
-0.135207390938357 
-0.06111064323048362 
-0.06618792244578994 
0.0164999593836459 
-0.008711674398378865 
-0.001937994468917412 
-0.01727322221065275 
-0.1135882334364286 
-0.02474590120942489 
-0.05559431303095494 
-0.04442800579579632 
-0.07288507894897708 
-0.05278405899686524 
-0.02642114584221076 
0.0323923089249798 
-0.07403287610361943 
0.005970720882023064 
0.04038808783642221 
0.05487348157991083 
0.001594182241426683 
-0.02486228696387269 
0.0009517043101300935 
0.04332816931602389 
0.04941522046682875 
-0.01919538603164036 
-0.07655728343304453 
-0.01529489610893449 
-0.08355011885147937 
-0.06160046598865353 
-0.05815699486571434 
-0.0758133206976805 
0.01975302629808117 
-0.04776206356752696 
-0.009647806656284872 
-0.05354651000789919 
0.003966219180199908 
-0.008057721833501541 
0.01009448687694009 
-0.08999727852231906 
0.01021711893968841 
0.05712739836062675 
0.00257627845814149 
-0.07331363056149189 
-0.004134200869961554 
0.01309782059247985 
-0.04279083271198817 
-0.05001373698342568 
0.02958491888153669 
0.05934367410456437 
-0.0659182513422631 
-0.0471156452422809 
0.03237250439736639 
-0.01312866271401479 
-0.07991694744630057 
-0.02105072993718258 
-0.005385593183045089 
0.08106319432452976 
-0.000908264184529182 
-0.01332844182899982 
0.04168471390404723 
0.006532629632631187 
-0.02162189419959407 
0.002459787898590146 
0.009453796988343156 
-0.01904361560489763 
0.04149105381268811 
-0.008421739730423407 
-0.05057144755127362 
0.01619176003901442 
-0.06254216909563601 
-0.07255075285024655 
0.02303971274696833 
-0.06277018841261128 
-0.01473870271316496 
0.01612368795929409 
-0.008689899326435047 
0.09566715825944755 
-0.03643004896290985 
0.05119720025238859 
-0.01465635142200703 
0.04027464035182695 
0.05554494739574274 
-0.009678099892852664 
0.0122370237517129 
0.03807027340800755 
-0.007145284301497486 
0.0887692710505855 
0.07338101984634493 
-0.02400744492979932 
-0.01913994518783308 
-0.02404629086546114 
-0.04411759278292832 
0.07065082034541344 
-0.02469334619527354 
-0.06892646997997906 
-0.006344463731616378 
0.004081592364355401 
0.03367275743666116 
0.03131994486677134 
-0.007332018645735083 
0.05841392063576548 
0.03292430512459711 
-0.05600381170873577 
0.02715424214640702 
-0.0160376906377782 
-0.04553407859028635 
-0.02212451551280835 
0.01597576877529181 
0.06292564090242481 
-0.1247867839104185 
-0.05069134799769297 
0.006992443324081525 
-0.03102135857044116 
-0.0556290141847836 
0.009298509585184843 
0.02394206036311646 
0.08171410184600927 
-0.005522502438920725 
-0.009788867376525151 
-0.01879197203579302 
0.03371139549637762 
0.004354525549983794 
0.07110590400125118 
0.05468494054178174 
0.05570739982235172 
-0.01064385513030282 
-0.03214131969401364 
-0.01233293712349957 
-0.02124400388164811 
-0.02084244340287713 
0.07249419489821046 
0.139841978235912 
0.06308405497844617 
0.05439738152786414 
0.02134187635280312 
-0.05093877517679644 
-0.0170041267742913 
-0.04100235950739875 
0.03994829462012848 
0.1057187063146502 
0.01976775746176523 
0.03103393994072994 
0.002720947118548421 
0.01290716673546027 
0.04139172305908049 
-0.02165499018575014 
-0.04870659495931055 
0.07806323400005562 
-0.003885420727585063 
0.06305708812574692 
-0.05717633963291632 
-0.02658363498515418 
0.008876634265827257 
-0.009505128213245069 
-0.05796635005228887 
-0.006179459191257695 
0.02373541706037739 
0.07783420892279826 
0.04777255675346596 
0.02021751476647282 
0.06858477052458987 
0.09981983147403475 
0.1358894685707057 
0.08860681010524986 
-0.0457758127983135 
0.09754627982379184 
0.03603137679816205 
-0.03588247945934921 
0.09906598417127906 
0.100238004342139 
0.1201142651570994 
0.04960592871234495 
0.005804518378854018 
-0.02918972751999067 
0.0753558349274235 
0.04744439177541497 
0.1252291306529336 
0.04687892707050468 
0.07272693205065905 
0.167001760514234 
0.1489967769596756 
-0.003691002839783137 
0.03992585753666738 
0.08719632925865067 
0.08516224800664722 
-0.01716287141325473 
0.007016032814125492 
0.09276797535868697 
0.06771118569099815 
-0.02137831760717379 
0.001091744504702548 
0.07289472792040318 
0.03310665696190299 
0.009144911624368247 
-0.02071232559199821 
-0.03896070821839001 
-0.0003196757626273613 
-0.09547222257771541 
0.05314673193147582 
0.024836525979622 
0.01827066363438683 
-0.01874665010091011 
-0.06465830704625954 
-0.09583255082661374 
-0.04860085542287837 
0.05191922990797109 
-0.1243092315237251 
-0.01355277047156399 
-0.01785875957199409 
-0.02743967340233336 
-0.02705971101348411 
0.03347636060551597 
0.1057567998823652 
0.06039206398279161 
0.02474527353350595 
0.01443877783216108 
0.0067218636759003 
-0.0448136734148472 
0.02878763701660081 
-0.03406727666537559 
-0.1136307829186711 
-0.03921104093955097 
-0.01637177113254999 
-0.01654343907824173 
0.03409916444091148 
-0.06682722567044581 
-0.115872220743777 
-0.06279167802125364 
-0.05591781462983616 
-0.0296387941504497 
-0.001345991319388958 
0.05052661337902374 
0.0398887746350023 
-0.04242247776267875 
-0.008525756707080097 
-0.09307017152962571 
-0.03462104149910573 
0.005614264949461537 
-0.01379748774765411 
-0.00586654929880868 
0.05470228307947334 
-0.01240436046570597 
0.03830670008601252 
-0.01680476757238408 
-0.04251970296848663 
-0.08028682755802247 
-0.09714163941688353 
-8.798927869689511e-05 
0.0623830801950792 
-0.003997743739561587 
-0.03080699621607053 
-0.01626277655112771 
0.09306443182603766 
0.03329696734802025 
-0.01655842465236405 
0.06662640590824533 
0.08846321919898739 
0.08151553128606075 
0.03000873751837291 
0.1021980521357303 
0.0455211219583152 
0.01783865682199417 
-0.06590715287138238 
-0.05562847047902039 
-0.03514548814401116 
-0.02228971338183363 
0.003445614667038035 
-0.0581550865265156 
-0.00840101677465421 
0.06300835060129242 
0.004357218379108322 
-0.01148916325007756 
-0.0190164672245668 
0.0767978425874393 
0.02030280036995485 
-0.08657503430052067 
-0.006748283625444296 
0.1296364023027668 
0.08956467881988564 
0.01376515709940703 
-0.04120962803593237 
0.007850267480454802 
-0.1074337384136206 
0.00397652318301814 
-0.01950163823091721 
-0.002155758030860523 
0.0122076113831556 
0.06298608611253653 
-0.002191758690849354 
-0.1177009572959167 
-0.1069584341207219 
0.0121541328696224 
0.0322066814611231 
0.009466630246276924 
-0.0310006049505047 
-0.004860870878188905 
-0.003956163724519819 
0.1037024204929354 
-0.0004303010876238575 
0.02844588896678401 
-0.05455378728883457 
-0.03799011079523661 
0.03825851246041682 
0.02281022183826876 
-0.03080705937639851 
0.06096759202267014 
0.0547441772161033 
0.04187710172703855 
-0.0430098517950397 
-0.06376344595489859 
0.001032938110147842 
-0.03542182733212135 
-0.06403562404474243 
0.01091813907055063 
0.01453666761592117 
0.03495802427041754 
-0.02226651807418975 
-0.007949305168824821 
0.005125443397812038 
-0.05563681957412041 
-0.03568888472696238 
0.01754714790517864 
-0.07209297443120283 
0.00501774598147324 
-0.01493740190527903 
-0.03887286380962042 
-0.03111853820974466 
-0.1429643372530354 
-0.1174897766443111 
-0.03871230674908796 
-0.04371208664074111 
-0.02546428137556714 
-0.03528414342411267 
-0.06043551404868236 
-0.04329364122140272 
-0.06410890258727513 
-0.01702996581858707 
-0.001940860967139832 
-0.04177327820055408 
-6.193337340730802e-05 
0.05671078323666395 
0.03856104362034917 
0.03206036282138625 
0.04740705542332089 
0.05856097915194044 
-0.005460647509611136 
-0.08099908629357129 
-0.02182654995888948 
-0.01327698037203468 
-0.08685008677364263 
-0.04396134020397369 
-0.02818221081512302 
-0.01554603304067513 
-0.04855475597776274 
-0.09524505728622877 
-0.04827788588452649 
-0.005462266728518373 
0.00594319847951647 
0.00139274719385018 
-0.001891627041751759 
0.04766230697292584 
0.06284400307811905 
0.02707428007844724 
-0.03466186378419536 
-0.02862364243088981 
-0.02243487807018123 
-0.01575557030807061 
-0.04737734195917633 
-0.02462224249109547 
0.03514919845107566 
-0.03422730699184328 
-0.08050739375345567 
-0.01959853058322224 
0.03297084292266279 
-0.06924255529235282 
-0.0642643145648735 
-0.01734913737008326 
0.06044124128287556 
-0.001507693985140367 
-0.1232351106811589 
0.01889432548104227 
-0.02036125693046578 
0.01311302195453833 
-0.08925814095113206 
-0.0943127116692996 
0.02686141479796099 
-0.1309274599859799 
-0.09018733950010367 
-0.1180853282485231 
0.0857750610806729 
0.01364651459409987 
0.0238686862264612 
-0.06678596988523471 
0.04964910315751755 
-0.05158219924125278 
-0.01219177543276736 
-0.03273782807204181 
0.04883470264144262 
-0.02857788071496239 
0.01670755493548001 
-0.05219539246380424 
-0.07323314693425546 
-0.03812079554656624 
0.06850325260860844 
0.03317441327711718 
0.07873277658071801 
-0.01558450731107494 
-0.07738300994467455 
-0.02215150525749693 
-0.06224039820272222 
-0.04154416319893666 
0.05454503356678461 
0.005234860608254195 
0.03816794555561259 
-0.005415429088078983 
-0.06658028920535354 
-0.009734658154640455 
0.01129406010726741 
0.008086038763819423 
-0.01692023374805934 
-0.05263998632549852 
0.001763230057022927 
-0.008693921934717526 
0.005409881972614428 
-0.04445314345492333 
-0.03139548632029576 
0.02522357000452553 
0.01265762347557619 
0.003125998991871588 
0.1146095515999255 
0.04904981553982576 
-0.01612108697990151 
-0.0530337231629843 
-0.003871481532394829 
-0.02974404818383284 
-0.06016199787882716 
-0.05697571339709 
0.00506979852780794 
0.02873445163271329 
-0.0111059903050288 
-0.07356803919795039 
-0.0696085833937139 
-0.05311985699421764 
0.04822420449784901 
0.01524676052593664 
0.01861984247304943 
0.01780169891500027 
-0.04451186480264573 
-0.0945036349673813 
-0.06616401779151765 
-0.09265314637104695 
-0.03829465836145804 
-0.07195155902560912 
-0.1435610413442162 
-0.03835984757192275 
0.004280760054598595 
-0.08886026082771112 
-0.03486584955241065 
-0.0120481815515203 
-0.008428340115436458 
0.02303661766774638 
-0.04912416788610811 
-0.07754898477126666 
-0.06732860330416764 
-0.0815142106779933 
-0.03889828274200879 
-0.05457482207839947 
-0.08577393054182102 
0.008653499152530084 
0.03914909792590408 
0.1566392442728192 
0.03991709998843542 
-0.01814672191338551 
0.02004393466135151 
-0.01517381768016496 
-0.01120424872922221 
-0.01880580822653549 
0.08302158755105452 
0.1164096923712175 
0.07715904531153604 
0.05556747037274527 
0.01061846477794699 
-0.08825092754794596 
-0.1057493338020022 
-0.1455226288035169 
0.03442933874438143 
0.03095245486563971 
0.06039549742234156 
0.05139161827092713 
0.03118481556408634 
0.02665297229358053 
0.03772749701899451 
0.1038708000369571 
0.1213061401184299 
0.0655135048827982 
0.1108284005777709 
0.04287572788819085 
0.03805868071779626 
0.07076257208056742 
-0.005626831076481752 
0.05000724126701905 
-0.03384616529744561 
-0.1251688860082557 
0.01704790584147825 
0.009659854075404182 
0.04973948401970438 
0.1190978723316378 
-0.02701620489540774 
-0.05174867111071384 
-0.01075207098690541 
-0.02397566225088976 
0.09122083484954821 
0.01947173656500929 
0.01015416080066769 
0.04479422518937797 
0.02856775476723553 
-0.06464060970916721 
0.06579032939393099 
-0.02615960798483939 
0.01541652313060009 
0.0393294099187349 
-0.0378703616691257 
-0.05902031543913365 
-0.0643822485095974 
-0.03785750370650476 
0.06863916569664659 
0.07628189496266503 
-0.03155917793272969 
-0.02825889025652623 
-0.06463121182340884 
0.0100416527803087 
0.04807363051536055 
-0.008211221797341385 
0.03930948761967978 
0.06842017713978317 
-0.1233748625371269 
0.007040376547360717 
-0.004547596096235599 
-0.06506119361135121 
-0.0821957506735346 
-0.100405949155182 
-0.05376074094800987 
0.05052433671691053 
-0.001946587779396311 
-0.1121454926403312 
-0.05702159261613263 
-0.04350996526546746 
0.004654277214412607 
-0.1131698601672958 
-0.02385248898099277 
-0.01676215963447536 
-0.03716667767132632 
-0.1186652338167844 
-0.04706047526517398 
-0.04850712749359478 
-0.02429432504150551 
-0.1456020270350826 
0.0431181259950686 
0.02011907099886506 
0.1172078434272577 
-0.00538861272103123 
-0.0364973979750198 
0.01618032215003092 
0.009764198668239745 
0.1324236598062951 
0.03768502915948685 
0.07457994775059329 
-0.03050697983016954 
-0.01014590750165832 
-0.07569047102068037 
-0.08298269621246475 
-0.07345302712126475 
0.02604939957161777 
-0.01528514291917175 
-0.03809999647254523 
-0.01035909332831066 
0.05189938192750509 
0.05911463607617354 
0.03765443958617334 
-0.02353681032138117 
-0.02550560951773014 
0.01191565148735918 
-0.04430102714300663 
-0.06436729090327459 
0.008461225355088392 
0.0116239146729953 
-0.01808577537139328 
-0.03556609086641693 
0.0559506269347446 
-0.0220106326280713 
-0.0570343291702458 
0.07445198190704566 
0.0518035402920432 
0.07357571762545867 
0.1309751784506372 
0.05952607796083473 
0.04208261796103649 
-0.03940553649144716 
-0.02633918727030609 
0.04581306982572166 
0.06594489149912285 
-0.09104737983644107 
0.03248590522559826 
0.01185279662666828 
0.0249708413477607 
-0.01432480922551876 
-0.06245867764373109 
0.04691823851163716 
0.01066375149504773 
-0.0164683878039949 
-0.06984693288048897 
-0.04157626558232561 
0.007245647182359635 
0.02565424270644584 
0.03074211434569078 
0.01257827338162035 
0.04640410468233282 
-0.01564139333783823 
-0.04729351813956788 
0.06380586966353426 
0.01677274791766729 
0.04802590132667683 
0.001622696004912741 
-0.05687887937943421 
0.04672765088928778 
0.03142523253988061 
-0.01751784262865668 
0.0395909223787098 
-0.03851478487464033 
0.0228376079278956 
0.01350806271963434 
-0.02019105513535122 
0.01295113319256132 
0.0670170471491132 
0.0500970083692758 
-0.01348996628982902 
-0.07576260072702823 
-0.02633430623869921 
-0.07511580496792036 
-0.04355188419528908 
-0.0471056668145278 
-0.07796358346173592 
0.05020189603824975 
-0.02842483396543314 
-0.0798679327269267 
-0.05650395364526466 
-0.0001589291000241614 
0.05486610994446871 
0.04931511568040903 
-0.04627153339374027 
0.03206348780202235 
-0.02049702021399293 
0.04040762919784786 
0.02839614481885886 
-0.004640776943179589 
0.04622329312394738 
0.04139859505150785 
-0.01302365240287157 
0.01689916695709728 
0.01942384162540992 
0.0008475252959527738 
0.02049039979514288 
0.04036531727899508 
-0.005248147049704276 
-0.02067886554852792 
-0.09488799996616992 
-0.01446630338634642 
0.05847170476456325 
-0.05415243546881092 
0.04303456015866684 
0.009242194946369194 
0.04855136504244334 
-0.05875783590877588 
-0.08484641805859687 
-0.03249455178324975 
-0.01653330281032779 
-0.003084402444439629 
-0.01028580035630817 
-0.01104611707803795 
0.01478314177944817 
-0.04833706875117721 
-0.09572835453970827 
-0.001625005271671374 
-0.02495675803039344 
0.01925629590429009 
0.03363445851084316 
0.07434240584923059 
-0.1045085898830737 
-0.013672602432495 
-0.03002779610909808 
0.003360110196192653 
0.005097926978724031 
0.02535425159737733 
0.08291972016968741 
0.01334116411825661 
-0.03451504619088379 
0.0114637661702876 
-0.03047965566248557 
-0.1092068948536215 
-0.1039519475557208 
0.06323418239007292 
0.02088699552554769 
-0.003434965341826207 
-0.005608061708239187 
-0.109979406842709 
-0.04038530492187842 
-0.03162815802410796 
-0.0220522594287264 
0.002553977285751661 
0.02289260115537638 
0.06070526312558968 
-0.002851206504367111 
-0.05073872165992924 
-0.04167835490345344 
-0.03620202117784942 
0.04708286552948061 
-0.07876788846187542 
0.05603375446790208 
0.05497430502049398 
-0.09464075983403866 
-0.03016413269183612 
-0.005187257038143244 
-0.08636510803445921 
-0.08897448962382133 
-0.04936286552807173 
-0.01445531381302154 
-0.08102457751362417 
-0.100875945498538 
-0.05597203270281539 
-0.05147320628826615 
-0.03538157183154082 
-0.112502062444914 
0.004706539848035846 
0.0384329702522654 
-0.007894318806193288 
0.0466996642973464 
0.008325964129345213 
-0.02356720159632143 
0.03266454452174761 
-0.02425613212247005 
-0.05019782817988767 
-0.02287456007988729 
0.007450190491469388 
0.02215574268311605 
0.005960403284858065 
0.0009059993525823292 
0.04022447642223657 
0.001108242319341675 
-0.009589670306206425 
-0.07161981763593056 
-0.02655168716821964 
-0.06351350664636088 
0.02539336056307668 
0.04715644289556466 
0.02787496632479238 
0.0394530491259527 
0.0263239880902986 
-0.01260890732644826 
-0.003755638289924173 
0.04431317773747143 
0.04465550512702794 
0.06094587894206746 
0.03642050629395721 
0.07908038045069467 
0.001857286234246591 
-0.008488191811707228 
-0.03835393644933577 
0.07984385667544339 
0.07033631655133979 
0.06395964433252901 
0.005460238759106653 
-0.03324124952392399 
-0.0193056036595608 
-0.03357324616433435 
-0.07199908507932876 
0.02892538750153871 
0.05382008444292179 
0.07667979445415563 
0.01476238821028466 
-0.009486395733479903 
-0.01272217458069748 
-0.02333771806839533 
-0.06561113560964274 
0.02046017500867148 
-0.01904834720850809 
0.01326123474391382 
0.004401135467599685 
-0.004843257564929213 
-0.01354205608221938 
-0.0001147139206273412 
-0.05117221504627405 
0.02137624698580931 
-0.05144350020391546 
-0.0847153308979513 
0.01308399594039596 
0.01531195847684688 
0.0717850691307069 
0.03758087857209289 
0.00818159791450929 
0.03464497577130582 
-0.001038945239292247 
0.006577631309875669 
0.02265975917248928 
-0.01299128785503875 
0.04116631511202106 
0.06569568843081806 
0.06841177566068979 
0.007095014473826842 
-0.02204263433872539 
0.03447754152480122 
-0.0237125231649939 
-0.03881446288811873 
-0.00934332680134823 
0.06276732430845795 
0.07956628400104615 
0.03133180446740087 
0.01955944096030581 
0.0395564310721872 
-0.008612660092935875 
-0.05862037473708532 
0.0002349100222921468 
-0.0324829409983589 
0.03357727075063689 
0.02051088751187811 
-0.07382819445234449 
-0.01438175215712207 
0.01511015567152337 
0.0777937357419884 
0.02967852478030431 
0.01655864034278889 
0.06163421600915932 
0.001851669018460983 
0.01643293367042872 
0.02613041281955834 
0.03996578161581835 
0.01280678217615831 
-0.0215205061663918 
-0.03483246082581045 
0.03635739184738572 
0.007646822668260531 
-0.003650633760874841 
-0.02336756157689598 
0.01357527627214958 
0.04055900449842317 
0.0674786269181249 
0.03753119722825421 
0.06975082321159805 
0.04189665348951536 
-0.006061177609935887 
0.02992308410998437 
-0.00455937550123482 
0.003801886112823204 
-0.02113587347774821 
0.067904878171723 
0.05673628454879147 
-0.04521899342185861 
-0.01619707578737516 
-0.00624046703852396 
-0.06493647670726649 
-0.02600376155048824 
-0.06465744002104236 
-0.06166003557019917 
0.007182065198870127 
-0.0278461772892829 
0.09487273622146654 
0.01934297960609632 
-0.005972105555654071 
0.03473331354049573 
0.04805026696509673 
0.01644187479856992 
0.03957939544238644 
0.09368482425309516 
0.08626407199844663 
0.04670187517466724 
-0.002309381094816715 
-0.07363549663663838 
-0.08577460684440795 
0.04067831870663571 
0.1178332581450049 
0.1172184322764619 
0.03961681064657983 
-0.02225621241280646 
-0.08606809824645356 
-0.1324820773021146 
-0.1102378725743878 
0.02676992751667634 
0.009747636554325787 
0.07256478361206321 
0.06406126899761123 
0.03797894389598633 
-0.0331304601026977 
-0.01255575006624316 
0.009009544753859412 
-0.02201284768635113 
-0.02526376239982646 
-0.0008172925704904663 
-0.03549049221791656 
0.05164175542496765 
0.117411523946964 
0.08411678187275171 
0.04442793816146251 
-0.07341811965962805 
-0.01688188439433949 
0.02082108550506102 
-0.07668527455301645 
-0.07470038835325872 
0.05088116361443645 
0.02785353705444307 
-0.01032647154735552 
0.02040082758347512 
0.02169939620962125 
0.0668318817495959 
0.01399375821520007 
0.04683790006896236 
-0.08269914720819738 
-0.06206549262945155 
-0.02193423951425136 
0.05021662522824295 
0.06137354740739156 
0.0185064856145607 
-0.01404741195349184 
-0.003527457091528049 
-0.1154041508547871 
-0.05536105505338433 
-0.05201758576811816 
-0.02031977420398083 
-0.0721728000962729 
-0.004142633535762423 
0.06563825050634141 
0.01017995192454114 
-0.05868074058927902 
0.06614852538679783 
-0.06375666382341974 
-0.1042124784277893 
-0.007656714074426064 
-0.01605537312668349 
0.04471770937964491 
0.03332513880465881 
-0.04638011298245025 
-0.06564318835296899 
-0.1112670086414235 
-0.06502436748888313 
-0.0447756764946425 
-0.01620159109904202 
-0.08483676212295414 
-0.00883576871309728 
0.04546145653108651 
-0.06545651365910726 
-0.08469507575641505 
-0.02039632690701808 
-0.05120758783239997 
-0.02103655874595661 
0.02312054655365933 
-0.0127550159705687 
0.02777947098539834 
-0.0408609163633353 
0.02075594136599943 
0.05284663149094241 
0.03302772808140694 
-0.02736053255138123 
0.02473974979031273 
-0.01447712326196243 
-0.03112965165275107 
-0.01968702346889955 
-0.08236448131924234 
0.0002797359967233635 
0.00805198985074264 
0.02188005318001772 
-0.01697520147479954 
0.003090191014668898 
0.0005227588727449664 
0.0944614367690236 
0.05179488538673895 
-0.04424035834133225 
-0.07945980543211052 
-0.00184953922487202 
0.03958985102764134 
0.006953814628532383 
0.01224770721347798 
-0.01895758400775628 
0.008288568333750438 
0.0104072152785576 
-0.0795601950289461 
0.01347273526668679 
0.07541651360461454 
0.001628317880986049 
0.01524918620318211 
-0.007307314933385953 
0.08939383003696355 
-0.002517614306428102 
-0.06856992315667157 
-0.1084672880015049 
-0.0792182598371786 
-0.1249601296745542 
-0.04794923839224383 
-0.01913432271684581 
0.0515528323994528 
-0.02043369271057364 
-0.03408617374190789 
-0.05062442274626074 
-0.1136342465709513 
-0.09749009862174439 
-0.03234597047298509 
-0.02183373109005049 
0.09339296208522031 
0.03497733209902229 
0.0529841280549684 
0.005439005893972657 
-0.06402551421402157 
-0.1547700409481615 
-0.09646291440233136 
-0.1013738369013015 
-0.05461539625359701 
-0.01361906323199301 
0.01469647071802374 
-0.01116723356249089 
-0.03988861999263042 
-0.06062844609123269 
0.04582357326321169 
-0.01898291817648065 
-0.04499172500504302 
-0.05899293352416625 
-0.04610591991994534 
-0.06188024588187184 
-0.07257851992445412 
0.03853935235608391 
0.05260219430550288 
0.01927975148447768 
0.03983379022170512 
-0.02327258511220023 
-0.07037488766578896 
-0.01796435454888163 
0.03086170770389228 
0.05900232946131524 
0.07623343290865497 
0.03660382215826341 
0.02136930999917031 
0.05678327973308681 
0.004754293259227416 
0.02804623427236557 
0.009834541818093814 
-0.1487297752092365 
-0.01027667050690258 
0.0124436987193177 
-0.00485430284937738 
-0.006307367594168298 
-0.04522090079269674 
0.01179002133105451 
0.04731680423261179 
-0.005097485549015712 
-0.1127177022259383 
0.0009538121655014234 
0.07437228601908012 
0.007082928986166932 
0.0275284874597456 
0.04201288654502727 
0.08290577979251347 
0.01337926813628816 
0.02104046702119963 
0.0425654906727924 
0.06291744545380507 
0.07323224067583266 
0.06565338841649299 
-0.08809926893798692 
-0.02234616078714045 
0.05405032054235576 
0.08311214970111709 
0.05236429624654608 
0.01827822469133051 
0.0124113091576647 
0.03738609307092882 
-0.02095686736115396 
-0.02393580996316274 
-0.001008927845112536 
-0.02914200080422642 
-0.04823627884725323 
-0.1113275993566325 
-0.1386682150318122 
-0.1405518569255211 
-0.1038381213874424 
-0.03788024999596307 
-0.05299813301811682 
-0.02862656022947495 
0.06226878536557746 
-0.04681447948998706 
0.04343778150194245 
-0.01268464870145532 
-0.06879369441551715 
-0.08435225733819869 
-0.02572147773621593 
0.02858914336468207 
0.01553350761625328 
0.05855776541587449 
0.1515055880533261 
0.07007470859781696 
-0.01827094536564785 
-0.009196110199168986 
-0.08383528384649463 
-0.1007183620393675 
-0.1401754138848735 
-0.06955239161717211 
0.03097441187362728 
0.02027845532430018 
-0.04213465256228961 
-0.004075774352941835 
0.0149047541146791 
0.05471316869519534 
0.03024567284015529 
-0.03461885154744166 
-0.0387757502701276 
0.0009296089019592479 
0.02928830215495139 
0.06631831468494349 
0.01932472512384677 
0.01093566172896899 
0.07886280882953275 
0.1461209170179775 
-0.01174435991468398 
0.00340012793861917 
0.08915417831273539 
0.01279226195839913 
-0.0008768441202789703 
0.06986366353530531 
0.0441463394598102 
0.03145460134026209 
0.0379701181126285 
0.0923380790591764 
0.08243859850995999 
0.04772691439725103 
-0.04217682533955499 
0.05100197096605046 
0.03734952906820314 
0.1364888165779791 
-0.08344080982432917 
-0.05909769062357063 
0.06844852522084205 
0.0097512087926516 
0.007558492735319742 
-0.07605179269379993 
-0.07348223201711096 
-0.005111173326164846 
0.02688822526587113 
-0.06707804436761527 
0.04301128578364175 
-0.04260245595943207 
-0.01273326436337585 
0.01043223069769544 
0.05251719155441949 
-0.001466920445001733 
0.05194521843859366 
-0.0231067848146063 
0.002451074721715325 
-0.01773798060037669 
0.0138826290936991 
0.01478507221923224 
0.03440804953082661 
-0.06324033089530924 
-0.05053774502003315 
-0.0291313752014018 
0.02086937363508493 
0.02698604899064541 
0.05513299857855789 
-0.05728933221230378 
-0.09263437968715425 
-0.06210336958450442 
-0.09258488387416279 
-0.1191803230838413 
-0.09493880044343733 
0.0118884992570527 
0.08323654528093945 
0.06085565256902004 
0.0524849128819349 
-0.1345131519926351 
0.04554181896771179 
0.03733480781580701 
-0.04841888548612766 
0.07210524310462581 
0.01523227697612395 
0.001756184184573627 
0.04075498036663294 
0.1197093895578771 
0.02312869305767271 
0.02133662950342582 
-0.03180432342096935 
-0.02196292770731525 
0.04889953352598291 
0.02539070416384205 
0.006927464905096709 
0.1064766510504046 
-0.01561312654350818 
-0.02268726947613227 
-0.08631526343189762 
-0.02280958901602246 
-0.05818615783831623 
-0.01075001073636271 
-0.07440634711575936 
-0.02194687754943784 
-0.1001716103794997 
-0.05183240256813575 
-0.05011695013285203 
0.01246716299272397 
-0.04844076585356651 
-0.01882528570018445 
-0.04201833120714558 
-0.001742968202125848 
-0.05259882376416431 
-0.07329101271608859 
-0.06047705624466773 
0.02747959805399014 
0.00499288985613473 
0.06471429399900951 
0.02423660927198671 
-0.02456207401148793 
0.003196861399598763 
-0.004616462708919609 
-0.1273150033553367 
-0.02248124211793981 
-0.003766239020927176 
0.02388970650285606 
-0.02991680489069247 
-0.01207702392561422 
-0.05597311989439992 
-0.02633695093323185 
-0.05422506178496737 
-0.01621913453448098 
-0.03789217955821354 
-0.04751534582902327 
-0.08480263219368477 
-0.01321051065899444 
0.006522317926405872 
0.01865262202253597 
0.02461483121975325 
-0.03433598792846193 
-0.09957392230352959 
-0.0337718089595834 
-0.05583092407197259 
-0.05518607191432891 
-0.05177085976753727 
-0.01338588375761673 
0.03566805493971998 
0.02696989769654489 
-0.04010654410496069 
-0.08837823798426728 
-0.05693250911198853 
-0.1098092974190694 
-0.03068043603398566 
-0.04731569235156151 
-0.09634128614349742 
-0.04773632133540875 
0.009263658652895379 
-0.07359612899185174 
-0.08049772726762938 
-0.0867747392174064 
0.00757041556305254 
0.01061817227341443 
-0.006805570045238436 
-0.104332600070485 
0.007755211957211823 
-0.09489297811769903 
-0.017887150247597 
0.01248571385060219 
0.04193642326884264 
-0.02916745406541887 
-0.03430581636512128 
-0.01611915954432334 
-0.01011161174670473 
0.02175376522027804 
0.0548605186233674 
0.002844104278069553 
-0.03119856629648588 
-0.07659458139826172 
0.0227582443803212 
0.03457746616575516 
-0.004692437237054117 
0.08717547270772001 
0.005134295562606407 
0.01217274561452295 
-0.008709470212841821 
-0.05186981874570083 
0.008656645515349632 
0.0258420628054122 
-0.05067402435111804 
-0.01191680885010482 
-0.08044317137142368 
-0.03936375441140835 
-0.07317661304592267 
-0.03525967346799323 
0.003878382751210416 
-0.04176283490924965 
-0.03721393848491444 
-0.03387210020729182 
-0.04303914897471975 
0.001764786519048684 
-0.03782236204986807 
-0.03969601854645317 
-0.115434066021623 
0.002639284798497924 
0.0006351073944464311 
0.08909838798860688 
0.07467148582442207 
0.006383624155751942 
-0.04574332830095966 
-0.06148903088128703 
-0.03552247980078557 
0.08191278797744725 
0.001359877991775281 
0.05624120706854506 
0.05215251181648223 
0.06091882046308184 
-0.02608845666314556 
-0.09437589729772075 
-0.08345719090494798 
-0.03646322003689361 
0.01767270792559127 
0.01141044647642719 
-0.1007904215423668 
-0.004765773903984466 
-0.07148830541610271 
-0.008181759646028311 
-0.02637380553303303 
-0.003771025881616192 
0.0009473096089183281 
0.04014937163017984 
-0.02514900262133119 
-0.05060770067073369 
-0.03715281727194567 
-0.04321041414976434 
-0.02114734847752891 
-0.04172227891902343 
-0.04843566060947106 
-0.03748275988335359 
-0.08044891563822362 
-0.02537830083992764 
0.1070604931563598 
-0.02595726350991776 
0.03515461541273357 
0.01028892401490552 
0.02841302389453221 
-0.04330521340968659 
-0.07086276457917436 
-0.02829242677642494 
0.1002314421371615 
-0.03651778469805397 
0.0145858805478393 
-0.02943491889853759 
0.0005880026753939541 
0.01750384120447067 
-0.05001307829790926 
0.0211521697161347 
0.02010324287342793 
-0.03367793854147832 
-0.03605726731365963 
-0.02070292524163507 
0.04292690687990936 
0.09420697713284326 
0.1154393480237058 
0.03679458892411597 
0.1136488619635791 
0.04917041105850479 
-0.03243228531302979 
0.01533706229772402 
-0.03630645559835211 
0.0840521897491289 
0.03957325719017526 
0.01431746911693292 
0.09196998856132514 
0.08790364755862901 
0.09217967134473658 
0.02845277742429582 
0.04112012176686844 
0.05134913346870602 
-0.03933687094365896 
0.00288764552870453 
0.05299065167212639 
0.02900546422375282 
0.02617859668291578 
-0.09707385865329266 
-0.001916559904403994 
-0.06801195871024593 
-0.01448335436551119 
0.03978042780189065 
0.01801010301848747 
0.05969655487783941 
0.02334761350067289 
-0.02405639482543996 
0.0127849342626157 
0.05516399885282409 
0.008107257005665192 
0.04265604081037586 
0.012914566766644 
-0.01712036671753017 
-0.09513628201871227 
-0.06601301242682756 
0.005868651947219665 
0.07327752285496547 
0.04963899696884667 
0.06057252083232748 
0.06723217841953137 
0.02266455260698287 
-0.02953598648194444 
-0.01654798882072294 
-0.03883294420312339 
-0.005715242191224073 
0.0479838732726903 
0.0763432311552308 
0.004966646997159802 
-0.106988437976893 
-0.0324612893393763 
0.03334232238049795 
0.02105116826260297 
-0.009740198487112496 
-0.000528703570073364 
-0.007268208728733272 
-0.02422695778543071 
-0.09604226144941193 
-0.1055279761567348 
-0.02075269214185421 
0.03650259808070945 
-0.01067505498870377 
-0.03243526597265358 
-0.03345709961501392 
0.0357689767861584 
-0.00443661382141735 
0.05826663126140066 
0.01976982341984958 
-0.0012789888310838 
-0.02081008898567937 
0.01334200067628028 
0.0275972943046198 
0.04920630890390434 
-0.05651802890094414 
0.02247562346531757 
0.0351801316244689 
0.005668635228697783 
0.001345133799156643 
0.1259387533052751 
0.01381940500499195 
-0.0505376251302651 
-0.04305991839026113 
0.0223271850841879 
0.09652591386937681 
-0.0440491803378407 
0.03142682823382949 
-0.01980506971642927 
0.002272347754770191 
-0.03495915135763622 
-0.01757988129865654 
0.0635709492797073 
0.07662858184702531 
0.05134086365795647 
0.05716732343947892 
0.07667579562907351 
0.1058262742707167 
-0.0005453741243234285 
-0.07723757388861488 
0.03936046347169149 
0.1364752022962997 
0.01552988392869956 
0.03850801760482669 
0.0792784874345585 
0.01941772971521054 
0.04288944383645851 
0.008633566342895579 
0.04251084990779638 
0.08485574041270599 
0.01277857695457194 
0.0328568139621702 
0.03402993560299751 
0.03912332071596246 
0.1103981895118794 
-0.007082637316651172 
0.01247875920359747 
0.0436513690708587 
-0.03510279438498167 
0.03413221198082036 
0.03139732518829214 
0.01280529245096799 
0.06659909802475844 
0.03723866990461178 
0.01663592964037129 
0.05376957275823728 
0.08065671918247762 
0.04852030831904236 
-0.0265798035175475 
0.003549055688008405 
0.05695118174372458 
0.04042870468223185 
-0.01742241998982827 
0.04485244125897911 
0.03938143216645909 
0.03895182421886134 
0.04750864208939522 
0.04273792846134453 
-0.04601875922735588 
0.07396334552929915 
0.07769722137284067 
0.03045413879420705 
0.01925190763935559 
0.03188857776263027 
0.08080537505627285 
0.02262695614868782 
0.02048121857135255 
0.005941801891054934 
0.02203567442238687 
0.03496075162488026 
0.07579582116267894 
0.01893499978981782 
0.05129951170214517 
-0.02227038016020481 
0.03152351459074762 
-0.08410977917656638 
-0.00720487135913713 
0.04412872096014576 
0.1051351450737735 
0.06595779162237819 
-0.04007297209643677 
0.002779900349738769 
0.02694132591848703 
-0.06468008735326744 
0.08611880797477209 
0.02202729400168762 
-0.02781937935088234 
-0.02735169804900513 
-0.00275725529426067 
0.03929360459063541 
0.008629887055871081 
-0.006869677833797874 
-0.007207817766324934 
-0.004518581107246874 
-0.04752723262244233 
0.02579452995635317 
-0.0118167178255972 
-0.005605705249777707 
0.03382510428229015 
-0.04676904714910322 
-0.007096081214936796 
0.03929364419541814 
-0.03779715350410846 
0.01782845913684179 
-0.02083761092310511 
0.001005330310884733 
-0.002042519136801026 
0.01998944206330677 
0.04567656578380446 
-0.008331037908014861 
-0.03330194293899973 
0.05540605465031058 
0.08247896879966331 
0.07282166378660343 
0.0434085080752584 
0.09799114553750288 
0.080955528704928 
0.003891063516081766 
-0.09636305980526769 
-0.05898476578137506 
0.07919125090191488 
0.1256172076780834 
-0.05451638303520927 
-0.02233666976115948 
-0.03734857374621564 
0.004759414814397105 
-0.06737803013931214 
-0.0560884996760017 
-0.007473439530333368 
0.09480604154155063 
-0.07105531345011562 
-0.01532621791853312 
-0.07643004346383196 
0.05227701428202702 
0.06528037695741827 
0.02970692231556331 
-0.0127339722420895 
-0.006860840730478907 
-0.07835587024210158 
-0.06567242814311719 
-0.09053751195626331 
-0.04505569884753987 
0.04479604715912234 
-0.01723422921359543 
-0.02298336518610738 
0.005753215685098515 
-0.04389844170508601 
-0.08746844650658586 
-0.06558221169518474 
-0.1005819758216902 
-0.1170895038503854 
-0.03188028411727677 
0.01019537465328985 
-0.07374806550285423 
0.004803909289847277 
-0.0096257283650375 
-0.0579852953380516 
-0.02142121784159285 
-0.06716715986497615 
-0.08079363210764831 
0.01091412375016537 
-0.08990615637240051 
0.0432649827830545 
-0.01251757115452307 
-0.01068871768528754 
-0.02311807505286779 
-0.03319410866920056 
-0.06318834297114058 
-0.09686744907143059 
-0.1082904937455694 
0.05085926452556744 
-0.006891988066033407 
-0.0007989821205515742 
-0.01034908555862528 
-0.05337430624739246 
-0.03726403688298602 
-0.2184696580582571 
-0.1637207583339184 
-0.01787042194287966 
-0.02534514149974937 
-0.0906271850427656 
-0.02007297031650392 
-0.03855138962517637 
-0.03170293670236734 
-0.05150653629826241 
0.03500235358784818 
-0.02564857049160996 
0.02567024616978159 
-0.02469026520491838 
-0.0672022315498379 
-0.02036114098690851 
-0.01130111096739557 
-0.04161901566221708 
-0.01884132009980104 
0.017663070039852 
0.05955625686251271 
-0.03143794041792079 
-0.1166001722140532 
-0.02464625543294887 
0.0201543249301319 
0.001779331652761254 
-0.04162068259508001 
-0.06008751314404506 
-0.0453770597238399 
-0.04705271672819081 
-0.08195132883847077 
0.01538663831473603 
0.004310971558517298 
-0.01117617237573764 
-0.03286251319591486 
0.02465057864404571 
-0.03726258596644239 
-0.0769002326329561 
0.01339594395289832 
-0.06895476271175187 
0.008365365921142735 
-0.01974531701071758 
0.01426800895642081 
0.04079240903300669 
0.09305341517115773 
-0.03218636891905934 
-0.006770597817011756 
-0.07273992143710752 
-0.008541189683661804 
-0.0442411265571438 
0.006040870375457888 
-0.05959075005852075 
-0.02980033997356417 
-0.006660551766324768 
0.007746022211972846 
0.08559140974158949 
0.02903860849150503 
-0.07484344936337781 
0.03120562515143081 
-0.03261878873083573 
0.05877310175761614 
0.02733855234415446 
-0.001171169378696379 
-0.01145649016101709 
0.08720912645351042 
0.02662467595679947 
-0.03435847248840509 
0.0133752355671334 
-0.08681161648248342 
0.0256116287373161 
0.01550221677639562 
-0.05566283069259351 
-0.04203486015439422 
-0.0002570188148897316 
0.007819387235315837 
0.03181482645841928 
-0.08014106881871144 
-0.1115236175512244 
-0.1080852109213891 
-0.03946548354739 
-0.06286464968995734 
-0.07262616906190526 
-0.1032266310960473 
0.03896735142187035 
-0.07314512437485619 
-0.1572651006016103 
-0.1521609574868851 
-0.06661641346346198 
-0.07297571537234104 
-0.08991420796672767 
-0.134806592393598 
-0.06925753278153411 
0.01350508746335804 
-0.04479058729888058 
-0.01031387948211199 
-0.00171066926009496 
-0.0001192174279028295 
0.02156090515848084 
0.1154768768099516 
-0.100634619126028 
0.008352624885972694 
0.0767573949511388 
0.05256648781352046 
-0.07582136458276557 
0.0006682803459473054 
0.1254676596219816 
0.09537851178774703 
-0.1121261318196542 
0.008789566322515732 
0.05263297034820124 
0.04259124531789478 
-0.06808176612121963 
-0.07854611409127213 
0.03068386875667303 
0.1233375315383026 
-0.05656759978019528 
-0.007090478741957846 
0.00914940815449136 
0.01469680821742649 
-0.07332696124919359 
-0.0671895197916849 
0.004792820299947286 
0.05046100328435053 
-0.04708432440552826 
-0.07406017595902531 
-0.08145666659195602 
0.04524304586522109 
-0.007057758315530195 
0.009425977461496865 
-0.02079691662515152 
0.008994730541189095 
-0.04684196674114165 
0.008295820556881033 
0.01317611555517955 
0.04292097410302037 
-0.01151038431179188 
0.01892497092315055 
-0.005534558989623105 
0.006178657624494599 
-0.02810940237751508 
-0.008094115542818829 
-0.09029812682239462 
-0.01389437132366199 
0.02759164034380964 
0.06080323901902272 
-0.02440176614151241 
-0.01635054827559982 
-0.09118565216161546 
-0.06003429938266596 
-0.0815619131607197 
-0.06205544155590012 
-0.08838099552888139 
0.06040286628416153 
0.02712685136823943 
0.01162489901890879 
0.002243536249754461 
0.01226174390840102 
-0.05181369240894036 
-0.1001932033899303 
-0.02886806325938343 
-0.007500609569819721 
0.09041933892552936 
-0.01546999155909226 
-0.03855464711963445 
0.01160965092035543 
-0.08869611445252222 
-0.06109644011055969 
-0.005562729040020483 
-0.02905330080839217 
-0.06527530656390204 
-0.06268380850079484 
-0.007735483818630577 
-0.01852818802613023 
-0.03133964753808426 
-0.03832938603785063 
0.06083490147134431 
-0.04836246809055577 
-0.04603865046681768 
0.06845337261158883 
-0.03042000923744539 
-0.05688434075427624 
-0.05907497321695469 
0.06631153297759698 
-0.003813194965209031 
0.0308484753244616 
-0.04872317298322856 
0.06011667107775766 
-0.07383881455884284 
-0.03851409604380093 
0.02204161529244272 
0.04010566737995238 
0.01896369066098799 
0.02258730911607238 
0.05033100505799128 
0.1056547475630224 
-0.1142825796484681 
-0.05010756013860036 
0.03062071627249364 
0.04169859188841849 
0.0222031394726227 
-0.03667331725763636 
0.008053212881981787 
-0.001677400558797879 
-0.05748331267143767 
0.03269632926310974 
0.04211638968888361 
0.0466679092262838 
0.02965266117519114 
-0.02513398899352838 
-0.003853933105882403 
-0.01654962561531463 
0.0448081594552447 
0.06547334263109282 
-0.0103870482714903 
0.07711582365481683 
0.08434898338666168 
0.03429598575393869 
-0.005054564389391461 
-0.01578259949488996 
0.003681013865319696 
-0.03057725863985568 
-0.04546147420620467 
0.04233649940178839 
-0.02315856344119058 
0.06137532631525339 
0.05653432531246396 
0.04042324929211478 
-0.05553887794846059 
0.02614797029887476 
-0.0578468594387553 
-0.03526270673184685 
-0.00712533389917651 
0.1016843083095404 
0.03730782863008759 
-0.02212445018465556 
0.01044579138199828 
0.03271768945594933 
-0.1006993119313127 
-0.04340652825265343 
-0.02879254674068784 
0.0780906340526098 
0.008942456702285649 
0.005671332877378092 
0.01383669319520718 
0.00592163346400265 
-0.02104381369551214 
-0.02642446158337303 
-0.04222730047086714 
0.02846315108997514 
0.01473966539442582 
-0.009298474551445024 
-0.01061738121962355 
0.0104410365165716 
0.06296385865599044 
0.03820959155044396 
-0.09120243609611992 
-0.04020409696451827 
-0.01946258519709018 
-0.07210630582267422 
0.07219787282439177 
-0.002364410088308823 
-0.05807812460730864 
-0.01637836039427572 
-0.03111480021581378 
-0.04087945350604636 
-0.007840198153020807 
0.06092471246818109 
0.01573882780788901 
0.03330574448191798 
-0.08446864496991058 
-0.05078447502468699 
-0.02335375649143751 
-0.02184874284436264 
-0.08181845654903643 
0.008523102444650836 
-0.07361044614429769 
-0.08619778411626688 
-0.0366560236963035 
-0.008174759581585204 
0.02411908825740136 
0.0941361520378599 
-0.008935026145447613 
0.04863795795125642 
-0.1166209963892099 
-0.05182735383395635 
-0.06122512684204542 
-0.09726682865231179 
-0.07069755092314177 
-0.03258394422959839 
0.0256203311532964 
0.05352595241759103 
-0.0572685988902361 
-0.03125391267106191 
-0.08839991266775439 
-0.0749688718393795 
-0.1402469175025923 
-0.1344090478602759 
-0.1074388869706909 
-0.01214707123336674 
-0.03748551996464857 
-0.1183245033291203 
-0.0550158956230096 
-0.008821878053222314 
-0.02846054886711375 
-0.03627290011211592 
-0.01835822962861875 
-0.05049817228860394 
-0.06456594097602501 
-0.05308925565032459 
-0.09448272250143176 
-0.0727634034580173 
-0.03432645991914542 
0.01105161179359653 
-0.009783174730612496 
-0.0009832675852859893 
0.03992395205685209 
-0.01032044593472743 
-0.1123725869242901 
-0.04930711944269217 
0.0277325965357379 
0.07211148031601639 
-0.0007491628007853983 
0.02933272447756326 
0.05040379556540741 
-0.009038711933109822 
-0.002603056914507941 
0.0623649836450649 
0.02160231581884276 
0.006954665871563705 
-0.06732305437647026 
0.01967073093531884 
-0.01099635662602714 
0.02123861230697993 
0.03206491190548898 
0.03948992923236801 
0.02725251325247092 
0.005987259206281089 
-0.01880414300250518 
-0.01869132246813499 
-0.04533022409309487 
0.05021228390880909 
0.007735007268379987 
-0.01559479593611873 
-0.04153391637085213 
-0.06115496420058169 
-0.05658199270425454 
-0.03612838116790958 
0.01302365914259546 
0.0277320933688352 
-0.0393742884579223 
-0.0183593115511541 
-0.08065857098557538 
-0.09347909414207595 
-0.03104529350787477 
-0.03411248520192948 
0.07077870324989544 
-0.03967556491915326 
0.01198682600351323 
0.06011564930779076 
-0.07742795890316394 
-0.0400558336147129 
0.01239956640146458 
0.01844582553878045 
-0.02218624337033519 
-0.04469972541532541 
-0.02824529755593252 
0.05659121171528111 
-0.07221098387353964 
-0.02255542423125581 
0.05559006732889904 
0.06264951087745606 
-0.04479711427683583 
-0.07019972323473075 
-0.03123857654450107 
-0.01194020722313649 
-0.06705636546695513 
0.03730440110458433 
-0.007542510161949822 
0.003160573489085785 
0.03462029470694726 
0.07350850959238932 
-0.02394448772966468 
-0.08783311285829332 
-0.02861282864893052 
0.008070079228628291 
-0.06103406982132309 
-0.009520165519463835 
-0.06634853166718785 
0.06531622977356703 
0.04291188653238227 
0.00590378154571204 
0.01927522196109365 
0.002293916007211449 
0.007102120062497168 
0.06203170453423074 
-0.03307512923821551 
0.02332004399725587 
0.02437975087847194 
0.0312319814243216 
-0.008480346367172755 
-0.01535297100689213 
-0.006819935358182962 
-0.03593946625116947 
0.02733022761870725 
0.04551458134995206 
0.05707757660557638 
0.1012147457446015 
-0.009403966120124381 
0.02422998609400717 
0.02900955967728784 
-0.04854276882037263 
0.03740972526244746 
0.02394054578737928 
-0.05711286434274986 
-0.01092608317163581 
0.01529351053010082 
-0.04493729024485703 
-0.005567879679919041 
0.04025026784114691 
0.07467298276445415 
0.06926265674984555 
-0.03192227321502265 
0.06655167817543814 
0.1312688219451603 
0.001665543568290714 
-0.04283421246937404 
0.01380504372472026 
0.04217313819957534 
-0.01159661061194468 
-0.03377998043161481 
-0.004826821671951338 
0.07516314582081665 
0.02409079580538829 
-0.0685669524560663 
-0.008401731126224211 
0.001104926222253691 
0.09140818337146596 
-0.05624125066806662 
-0.08245001339484526 
0.007650753377057719 
-0.02169515117690421 
-0.02406345728881521 
0.01796343665627115 
0.02564811261882425 
0.02124154962069115 
-0.01660138211618448 
0.02937716248473218 
0.02842929129092612 
0.05794818567297653 
0.03899956147566262 
0.01762415714922196 
0.01886166003596671 
0.02670063512998557 
-0.0529767314769764 
0.01917770957173644 
-0.03994644952215982 
-0.008420306991175731 
0.04945867850763203 
0.1115454107562376 
-0.03964628122577842 
-0.01910115010715939 
0.02563664829521001 
0.04679070958837292 
0.055317386762547 
0.04475579669270208 
0.02931853076560392 
0.004930397899645352 
0.05881411294283515 
-0.008231698608541168 
-0.04446682147513981 
0.04628321569769623 
0.02605589370445232 
0.02540312778230749 
0.0693465720084879 
0.006656255410716819 
0.01319846333175559 
0.003321051540768206 
-0.01098532509671487 
0.02507186857674817 
0.05704356752366056 
-0.008373325988295405 
-0.0112750741456181 
-0.07589740711775189 
0.01308461023678238 
0.03732837507966615 
-0.01294909140642445 
0.008278781072304769 
-0.03759798793305204 
-0.00108830446329951 
0.01483953976493916 
-0.03837567900120827 
-0.02678736442536599 
-0.05752996023655074 
0.03398804398827166 
-0.01432292128453696 
-0.005672579711185294 
-0.03127974698512839 
0.00677879796865262 
0.04857067509527439 
-0.02778099173394308 
-0.06282913627291174 
0.02274560229537731 
-0.02039064381084502 
-0.02618813843766614 
-0.02882642174072626 
0.0160580000515038 
0.04847765114629345 
0.006201168503056988 
-0.0248671894858563 
0.03997834366021755 
0.04825051807827547 
-0.02224919617094755 
-0.09807574136073421 
-0.02305882232450727 
0.02738296948406877 
0.03152307814438593 
-0.008550549613912209 
0.003726381325911553 
0.06731872670482396 
0.006760721846544246 
-0.03375534055925487 
-0.07444317567782456 
0.008119179757858022 
0.07476171879274351 
-0.04897646962723624 
0.09417632057832384 
0.1023900632787969 
-0.02914383527491778 
-0.003518045550564082 
-0.005364764785621506 
0.07475237324577057 
-0.05751771948889364 
-0.003611786355748951 
0.006588180382590058 
0.03630324684424587 
-0.01957489565580295 
0.04302690767841605 
-0.01803049384442887 
0.02205099118894788 
0.0937220558698659 
0.06559013607862262 
0.04342169339222467 
0.07798584410404825 
0.01847818913189519 
0.03221706859417865 
0.003101528704644968 
-0.0125372613411147 
0.04120837865906237 
0.04396072672687325 
-0.02271166511770351 
0.05715935370329826 
0.05356177248240839 
0.02002840952144282 
0.001060020499345 
-0.02728305556485008 
-0.04038153528615648 
0.01990983107276168 
-0.02814485749145212 
0.01881680096924989 
0.006997610011836576 
0.01257402863669302 
0.01612309151493121 
-0.03581286412748225 
0.04726652016718975 
0.01204290805525626 
0.03170401630167362 
-0.02476419650317652 
-0.01039305712275264 
0.02924047477161078 
0.03374230238164736 
0.06697178645058194 
-0.0105648727140234 
-0.03149905661314992 
-0.08165873478448352 
0.01551946884831029 
0.04828852786003408 
0.004020433044218837 
0.01470083267806683 
0.04778657792391695 
-0.06335232665720171 
-0.05945465659336758 
-0.004538754779339375 
0.01008533781918142 
0.01021585623628957 
-0.04738634164254198 
-0.04711014591521091 
0.004790121753393974 
-0.03467326245112869 
-0.07876925371542254 
-0.01856811357491275 
-0.004667422649052376 
-0.02280983133447143 
0.04058464772887856 
-0.01948105867448118 
-0.02338817901149939 
-0.00818167579847805 
-0.04213301999658792 
0.01706863359331774 
0.01755357173601765 
-0.03837841896087438 
-0.03770779740090612 
-0.06161036111810258 
-0.1141345036009416 
0.02166095594307772 
0.02669030288455738 
0.02426979374523686 
0.04063439460496832 
-0.02595386640518707 
-0.06240834566853143 
-0.05871783098979399 
-0.157765380701741 
0.1331321082080738 
-0.04333330917045984 
-0.0440387564149925 
0.02533617758860653 
-0.04903817884749754 
-0.03138502701846366 
0.01816434513374117 
-0.02593559251439423 
-0.04869196806177804 
-0.07397654658651387 
-0.02249160139484841 
0.02208878715117537 
0.01109997621334902 
0.02959419678282501 
-0.07628336837948199 
0.005144800012927865 
-0.1292532713885358 
-0.1058218599536928 
0.02414403315433581 
0.06327270453265628 
0.03127271191457149 
0.02239070073337505 
0.0444089709032592 
0.04654927952724184 
-0.1403400376771096 
-0.06616565426040955 
-0.001636229636363747 
-0.02477650337858299 
-0.04307114048688795 
-0.006223207960514681 
0.05553996056296921 
0.02540153697091635 
-0.0481574115376483 
0.0622001683550306 
0.04290360159859134 
0.01617452422127009 
-0.06003505330189444 
0.00929532304101992 
-0.02600164692248029 
0.01565373474281794 
0.006370007313217927 
0.007383975013466455 
0.006329815414747968 
0.07034003766798946 
0.02573031556499623 
-0.01366709822899047 
-0.006619888823439024 
-0.01371025669434731 
-0.06076186355671576 
0.01042884371630908 
0.05846914760321901 
0.02037234635948308 
-0.04346385803937886 
-0.008990919395970822 
0.04414050397041417 
0.002298878560472038 
-0.009108813550960038 
-0.01757440299778735 
-0.05679381685030264 
-0.05459534619759337 
0.09573100059482932 
0.1185310701004067 
-0.001800039224707005 
-0.01201468735892846 
-0.04711248840111552 
-0.03953979038988418 
-0.06714425200193395 
-0.04482473223036001 
0.001339529713302844 
0.03248784377986093 
-0.05361712075793199 
-0.08710170412559733 
-0.0534561889962538 
-0.0442496569549602 
-0.04726222896291611 
-0.03660266938024656 
-0.1071155696833654 
0.01076579577638676 
-0.007275768505418298 
-0.08479579302202055 
0.003403948695147867 
-0.07349085936998549 
0.02571238831775557 
-0.03085411565827435 
-0.0459430299113468 
0.007837780472209708 
-0.0695178425995646 
-0.04464957559194058 
0.05362070730838203 
-0.06701337279048827 
-0.03049089559597731 
0.0248952160857302 
0.03912094938944835 
-0.05261885855044202 
8.389186052380694e-05 
0.0658722066226365 
-0.02766208846687043 
0.05979268144483182 
-0.001617766348728572 
-0.01220065557881271 
-0.07137038762700232 
0.08717616266477163 
0.01591831881748247 
0.1158213329925394 
0.09334224846049974 
-0.04138774689944912 
-0.04430781095059155 
-0.03549743435267179 
-0.0003983475120273777 
0.03884350211788503 
0.03809826498758862 
0.04688983341031195 
0.03497508569586365 
-0.02796593148134997 
0.06769015851797942 
0.05490729776276444 
0.007553571009361093 
0.1414856949234053 
0.1295329212257718 
0.08602935863436507 
0.07466940222380451 
0.08458660361090642 
0.118675868803377 
0.06297933560294566 
-0.01102179920768808 
0.1424537921668126 
0.1038920984978941 
0.06411188309997984 
0.006197938702410079 
0.04153892814258563 
-0.007515132363753707 
-0.03825385508561797 
-0.04215532036823325 
-0.002858741299956602 
-0.01382280731390491 
-0.03858424154204136 
-0.01495924185994226 
0.05430203794364186 
0.005396413229646821 
-0.1097320420687133 
-0.039633229896512 
0.07643906908686518 
0.07262097907117035 
-0.03779372980628632 
-0.05779645866528785 
0.09240045532398274 
0.06016511991240113 
-0.04095469627152869 
0.07274562061202604 
0.08159924995769897 
0.01798869450907095 
-0.06657267721986533 
0.1193637844055816 
0.1075008195239984 
0.02854183809305382 
-0.00926250359359939 
0.07894027761536888 
0.1021762853178995 
0.001215944609218694 
-0.04203240151179408 
